<?xml version="1.0"?>
<opencv_storage>
<cascade>
  <stageType>BOOST</stageType>
  <featureType>LBP</featureType>
  <height>20</height>
  <width>50</width>
  <stageParams>
    <boostType>GAB</boostType>
    <minHitRate>9.9500000476837158e-01</minHitRate>
    <maxFalseAlarm>5.0000000000000000e-01</maxFalseAlarm>
    <weightTrimRate>9.4999999999999996e-01</weightTrimRate>
    <maxDepth>1</maxDepth>
    <maxWeakCount>100</maxWeakCount></stageParams>
  <featureParams>
    <maxCatCount>256</maxCatCount>
    <featSize>1</featSize></featureParams>
  <stageNum>20</stageNum>
  <stages>
    <!-- stage 0 -->
    <_>
      <maxWeakCount>7</maxWeakCount>
      <stageThreshold>-1.0742368698120117e+00</stageThreshold>
      <weakClassifiers>
        <_>
          <internalNodes>
            0 -1 19 -2138468353 570773521 65731 690159877 16877723
            176226312 -200703269 3630079</internalNodes>
          <leafValues>
            -6.2922573089599609e-01 4.6341463923454285e-01</leafValues></_>
        <_>
          <internalNodes>
            0 -1 6 2146413599 935323646 1056386687 -68207695 2094356418
            1904047997 1744771001 1675836687</internalNodes>
          <leafValues>
            -4.6527341008186340e-01 5.1123321056365967e-01</leafValues></_>
        <_>
          <internalNodes>
            0 -1 59 84660474 642089217 329760 -1908387702 403319478
            269025410 1157630700 1081727119</internalNodes>
          <leafValues>
            -6.6963237524032593e-01 3.1923684477806091e-01</leafValues></_>
        <_>
          <internalNodes>
            0 -1 67 -787246358 -1878895598 16777552 -2105128934
            -2113896438 1140981760 536903820 8456714</internalNodes>
          <leafValues>
            -7.6053798198699951e-01 2.9378426074981689e-01</leafValues></_>
        <_>
          <internalNodes>
            0 -1 60 1207675735 950745065 939010425 -1140972753
            1996382216 2079620991 1838376367 -77469701</internalNodes>
          <leafValues>
            -4.0688246488571167e-01 5.6114125251770020e-01</leafValues></_>
        <_>
          <internalNodes>
            0 -1 100 1075788202 -1472184165 -1073672124 555581574
            1073940522 780337185 667784 -126199397</internalNodes>
          <leafValues>
            -5.1266282796859741e-01 4.1769042611122131e-01</leafValues></_>
        <_>
          <internalNodes>
            0 -1 13 -2126036426 276824197 134217866 -1151465981
            344653844 1225458452 580042836 220467201</internalNodes>
          <leafValues>
            -6.2887465953826904e-01 3.5518518090248108e-01</leafValues></_></weakClassifiers></_>
    <!-- stage 1 -->
    <_>
      <maxWeakCount>7</maxWeakCount>
      <stageThreshold>-1.5615426301956177e+00</stageThreshold>
      <weakClassifiers>
        <_>
          <internalNodes>
            0 -1 4 -111281441 -179209916 -1040154472 -633126140
            1820902083 872579072 -796870655 1610965792</internalNodes>
          <leafValues>
            -6.2827819585800171e-01 4.1810783743858337e-01</leafValues></_>
        <_>
          <internalNodes>
            0 -1 81 -586158868 1955893378 -787381822 -1073184414
            147359832 -1073512445 1291944428 573785194</internalNodes>
          <leafValues>
            -6.2050950527191162e-01 3.0623644590377808e-01</leafValues></_>
        <_>
          <internalNodes>
            0 -1 50 2121269215 166178548 1056943909 -1115799690
            1585187594 536739675 -100678 -110100529</internalNodes>
          <leafValues>
            -3.6969551444053650e-01 5.6268793344497681e-01</leafValues></_>
        <_>
          <internalNodes>
            0 -1 120 1104322917 -1328213951 268500992 -968711936
            1359300649 293601280 596577 -1531969172</internalNodes>
          <leafValues>
            -5.1472866535186768e-01 4.4106954336166382e-01</leafValues></_>
        <_>
          <internalNodes>
            0 -1 70 -2129423201 -1903868776 1090621713 67109836
            167784698 830504992 268470443 -204502838</internalNodes>
          <leafValues>
            -4.9512183666229248e-01 4.3477669358253479e-01</leafValues></_>
        <_>
          <internalNodes>
            0 -1 55 1220789949 22609935 -1862217704 135270530 1761812529
            -2113236960 1688339216 -859043325</internalNodes>
          <leafValues>
            -5.0857168436050415e-01 4.2984196543693542e-01</leafValues></_>
        <_>
          <internalNodes>
            0 -1 66 -1644176162 2028928638 -4718646 -1342877969
            -137073156 368474110 -537399508 199741918</internalNodes>
          <leafValues>
            -4.2682150006294250e-01 5.2665162086486816e-01</leafValues></_></weakClassifiers></_>
    <!-- stage 2 -->
    <_>
      <maxWeakCount>7</maxWeakCount>
      <stageThreshold>-6.3218039274215698e-01</stageThreshold>
      <weakClassifiers>
        <_>
          <internalNodes>
            0 -1 24 1736160223 721895489 16778519 -750431852 1319764458
            320866312 134832269 2054146715</internalNodes>
          <leafValues>
            -4.8258706927299500e-01 4.0350878238677979e-01</leafValues></_>
        <_>
          <internalNodes>
            0 -1 87 -439386002 144609296 16893253 -2101166032 1627395725
            587333792 -1869952689 1093509336</internalNodes>
          <leafValues>
            -6.1826062202453613e-01 2.7591952681541443e-01</leafValues></_>
        <_>
          <internalNodes>
            0 -1 43 -181411875 -114327556 -50397586 1879044004
            -277549316 -654477321 1970466760 -536504813</internalNodes>
          <leafValues>
            -3.5969007015228271e-01 5.0914603471755981e-01</leafValues></_>
        <_>
          <internalNodes>
            0 -1 15 1861802666 -2085883972 -2030360199 -75633166
            -276874149 2147317591 2146952255 -294388610</internalNodes>
          <leafValues>
            -3.0727952718734741e-01 5.8108294010162354e-01</leafValues></_>
        <_>
          <internalNodes>
            0 -1 141 553940479 142606599 -2130706096 445157602
            -2147268962 554901505 9083325 1641574425</internalNodes>
          <leafValues>
            -5.3343844413757324e-01 3.8315695524215698e-01</leafValues></_>
        <_>
          <internalNodes>
            0 -1 111 -1470966819 -2010099455 18170321 -1727741623
            -2013134524 1980235788 553879849 140643129</internalNodes>
          <leafValues>
            -5.3175300359725952e-01 4.1018965840339661e-01</leafValues></_>
        <_>
          <internalNodes>
            0 -1 44 167751598 1073676213 788522552 1404428280 -973158567
            -1560838147 1862059711 1387773485</internalNodes>
          <leafValues>
            -4.4246608018875122e-01 4.7386956214904785e-01</leafValues></_></weakClassifiers></_>
    <!-- stage 3 -->
    <_>
      <maxWeakCount>9</maxWeakCount>
      <stageThreshold>-8.0460888147354126e-01</stageThreshold>
      <weakClassifiers>
        <_>
          <internalNodes>
            0 -1 23 1727095934 164745489 8737104 -1726762735 1210257530
            2075361285 462097931 -476347479</internalNodes>
          <leafValues>
            -4.8494288325309753e-01 3.6454850435256958e-01</leafValues></_>
        <_>
          <internalNodes>
            0 -1 9 -641934215 -805171198 -786349823 -805265068
            -1727868749 -1333788670 539704170 614957678</internalNodes>
          <leafValues>
            -4.9674463272094727e-01 3.4713837504386902e-01</leafValues></_>
        <_>
          <internalNodes>
            0 -1 92 4411665 388108356 285294783 39358593 -2013199835
            -360529792 813817859 -115720124</internalNodes>
          <leafValues>
            -4.4880366325378418e-01 3.7491756677627563e-01</leafValues></_>
        <_>
          <internalNodes>
            0 -1 90 -35239363 452784063 -1342193667 2092433406 939491325
            -445349889 -536911963 -590605020</internalNodes>
          <leafValues>
            -3.7233671545982361e-01 5.1336258649826050e-01</leafValues></_>
        <_>
          <internalNodes>
            0 -1 155 59996869 319901769 16896152 889323520 -2046480284
            739934249 721701253 1699203081</internalNodes>
          <leafValues>
            -5.0102335214614868e-01 3.8391283154487610e-01</leafValues></_>
        <_>
          <internalNodes>
            0 -1 42 -1899234497 -1633894802 -276840449 -278286918
            -990593548 -1074399497 -21004430 -114137647</internalNodes>
          <leafValues>
            -3.9044728875160217e-01 5.0520873069763184e-01</leafValues></_>
        <_>
          <internalNodes>
            0 -1 37 114540730 224788881 285377332 1155007745 33567239
            1780023809 -1061135856 -1308319712</internalNodes>
          <leafValues>
            -5.6000894308090210e-01 3.7921795248985291e-01</leafValues></_>
        <_>
          <internalNodes>
            0 -1 80 -853488650 -1040137715 98443 1527190530 205355
            369229835 50958360 -786171037</internalNodes>
          <leafValues>
            -4.7988095879554749e-01 4.2413932085037231e-01</leafValues></_>
        <_>
          <internalNodes>
            0 -1 52 -1558826792 -1706028928 1895878868 -1249640045
            536881922 1342275712 -936310608 831983784</internalNodes>
          <leafValues>
            -5.2698105573654175e-01 4.2533564567565918e-01</leafValues></_></weakClassifiers></_>
    <!-- stage 4 -->
    <_>
      <maxWeakCount>7</maxWeakCount>
      <stageThreshold>-9.7559154033660889e-01</stageThreshold>
      <weakClassifiers>
        <_>
          <internalNodes>
            0 -1 133 147273557 794337781 -250595276 605983360 490807825
            -1558085631 13705273 -1531166432</internalNodes>
          <leafValues>
            -6.2082779407501221e-01 2.9252925515174866e-01</leafValues></_>
        <_>
          <internalNodes>
            0 -1 118 66526325 385975555 1628516369 -1970085350
            1161888265 -636884853 545792592 -1397434972</internalNodes>
          <leafValues>
            -6.0005235671997070e-01 3.3028411865234375e-01</leafValues></_>
        <_>
          <internalNodes>
            0 -1 108 546005295 13579661 -2009005677 33671194 4849685
            1494139026 -1979187136 -59711725</internalNodes>
          <leafValues>
            -5.1632928848266602e-01 4.1978374123573303e-01</leafValues></_>
        <_>
          <internalNodes>
            0 -1 83 102904673 675185419 -2147276709 -1472036438
            553723945 -1071447671 -1534377951 -391364315</internalNodes>
          <leafValues>
            -5.7312661409378052e-01 4.0632548928260803e-01</leafValues></_>
        <_>
          <internalNodes>
            0 -1 65 209083249 -2143039339 1099130931 -100380414
            -159234673 -1174355704 -1693972415 -1382260203</internalNodes>
          <leafValues>
            -5.0080293416976929e-01 4.6840289235115051e-01</leafValues></_>
        <_>
          <internalNodes>
            0 -1 152 -472464965 574981264 17928246 -2074603513 687891209
            688523393 1259669662 -1025404772</internalNodes>
          <leafValues>
            -4.7876459360122681e-01 5.2954274415969849e-01</leafValues></_>
        <_>
          <internalNodes>
            0 -1 96 -885844005 -1609564140 -654306935 -1073708831
            303153400 1850738832 101237155 1792762027</internalNodes>
          <leafValues>
            -5.0436389446258545e-01 5.1014715433120728e-01</leafValues></_></weakClassifiers></_>
    <!-- stage 5 -->
    <_>
      <maxWeakCount>7</maxWeakCount>
      <stageThreshold>-7.4406141042709351e-01</stageThreshold>
      <weakClassifiers>
        <_>
          <internalNodes>
            0 -1 89 -822477377 -1441661251 -1409615205 -1884426249
            486637927 2080307071 2146956021 -268771457</internalNodes>
          <leafValues>
            -3.9900663495063782e-01 5.2453988790512085e-01</leafValues></_>
        <_>
          <internalNodes>
            0 -1 63 122974831 -1441755135 1099144223 945034257 671482209
            1624474115 1393429169 -17782192</internalNodes>
          <leafValues>
            -4.7423121333122253e-01 4.0636956691741943e-01</leafValues></_>
        <_>
          <internalNodes>
            0 -1 78 144261151 340873730 -1047985919 51927555 -1727854527
            -1562885495 -2104897008 -560666831</internalNodes>
          <leafValues>
            -4.8642468452453613e-01 4.3700653314590454e-01</leafValues></_>
        <_>
          <internalNodes>
            0 -1 29 -1069237793 285216786 1090523274 -3063422 1484980393
            587792593 1765808138 1333912355</internalNodes>
          <leafValues>
            -4.9709847569465637e-01 4.3535882234573364e-01</leafValues></_>
        <_>
          <internalNodes>
            0 -1 137 84095261 -536460413 1343312241 1645085355 16875541
            1161887872 571015373 -526365911</internalNodes>
          <leafValues>
            -5.0828170776367188e-01 4.9351590871810913e-01</leafValues></_>
        <_>
          <internalNodes>
            0 -1 104 250038007 789594369 -2147318753 84519121 -260036535
            -2147254135 1761681473 -1575722943</internalNodes>
          <leafValues>
            -5.5546593666076660e-01 4.5275977253913879e-01</leafValues></_>
        <_>
          <internalNodes>
            0 -1 62 -989136675 -1879048192 -2147479294 -1975078582
            538444226 1744839048 -1845486944 589808074</internalNodes>
          <leafValues>
            -6.3592571020126343e-01 3.8692238926887512e-01</leafValues></_></weakClassifiers></_>
    <!-- stage 6 -->
    <_>
      <maxWeakCount>8</maxWeakCount>
      <stageThreshold>-5.7407867908477783e-01</stageThreshold>
      <weakClassifiers>
        <_>
          <internalNodes>
            0 -1 127 856386293 447905819 536969347 1304613405 954925361
            -1711095768 -1811027477 -657660363</internalNodes>
          <leafValues>
            -4.5437261462211609e-01 4.1831684112548828e-01</leafValues></_>
        <_>
          <internalNodes>
            0 -1 61 1343468331 229048598 202571912 638730514 272760843
            722092160 1619619908 -620246891</internalNodes>
          <leafValues>
            -5.0862914323806763e-01 3.9095315337181091e-01</leafValues></_>
        <_>
          <internalNodes>
            0 -1 79 -2092194578 639127693 1157662806 -1975381206
            403356816 956334632 33589387 -1819754341</internalNodes>
          <leafValues>
            -5.5059409141540527e-01 3.6006286740303040e-01</leafValues></_>
        <_>
          <internalNodes>
            0 -1 140 1213268433 -213909423 285282759 -1911914218 32904
            16924801 -2136899317 1660047288</internalNodes>
          <leafValues>
            -4.4936579465866089e-01 4.9117407202720642e-01</leafValues></_>
        <_>
          <internalNodes>
            0 -1 64 -1065224486 307282176 17842241 1595129872 1610700937
            428376072 -893296474 1377300567</internalNodes>
          <leafValues>
            -5.2014219760894775e-01 4.2589715123176575e-01</leafValues></_>
        <_>
          <internalNodes>
            0 -1 5 -2146706486 2064089600 16859151 -650115062 1208091020
            -1929313076 411050145 1093922944</internalNodes>
          <leafValues>
            -5.4161477088928223e-01 4.1476026177406311e-01</leafValues></_>
        <_>
          <internalNodes>
            0 -1 145 352784400 -1174036479 -1056440170 1547716748
            1216348427 -877821952 -183890848 -1540589248</internalNodes>
          <leafValues>
            -6.0842877626419067e-01 3.9327257871627808e-01</leafValues></_>
        <_>
          <internalNodes>
            0 -1 47 33904655 167969920 135497738 -922577791 524864
            487150081 -2104437818 -434919248</internalNodes>
          <leafValues>
            -6.1011791229248047e-01 3.5284969210624695e-01</leafValues></_></weakClassifiers></_>
    <!-- stage 7 -->
    <_>
      <maxWeakCount>7</maxWeakCount>
      <stageThreshold>-8.3674359321594238e-01</stageThreshold>
      <weakClassifiers>
        <_>
          <internalNodes>
            0 -1 132 -992919412 1048611 640211 75530246 -1459025901
            260145352 -653694297 -970208757</internalNodes>
          <leafValues>
            -5.6675064563751221e-01 2.9080674052238464e-01</leafValues></_>
        <_>
          <internalNodes>
            0 -1 101 542887151 37790848 1140949144 1870729739 1099104440
            671252992 -1072069982 2050379973</internalNodes>
          <leafValues>
            -4.9981144070625305e-01 3.9674425125122070e-01</leafValues></_>
        <_>
          <internalNodes>
            0 -1 107 676401461 927404311 1090703633 1963115799 38421005
            1509949440 -1979557837 -1404770000</internalNodes>
          <leafValues>
            -5.3085267543792725e-01 3.6781457066535950e-01</leafValues></_>
        <_>
          <internalNodes>
            0 -1 94 1873477596 -995623447 -285298776 -1409635124
            1860443966 1350401407 -16783444 -370078641</internalNodes>
          <leafValues>
            -4.3403124809265137e-01 4.9528792500495911e-01</leafValues></_>
        <_>
          <internalNodes>
            0 -1 3 -423210794 -2130011119 4210770 1896923162 712843
            1099077673 1216880872 1430592544</internalNodes>
          <leafValues>
            -5.3368818759918213e-01 4.1394102573394775e-01</leafValues></_>
        <_>
          <internalNodes>
            0 -1 91 -787799306 671154627 50336088 -767557104 1073779346
            1898692933 -1189375629 1636032079</internalNodes>
          <leafValues>
            -4.9391937255859375e-01 4.7824826836585999e-01</leafValues></_>
        <_>
          <internalNodes>
            0 -1 7 1900462491 218140690 -2147452864 -107884395
            1498222768 9994264 21633039 1521668617</internalNodes>
          <leafValues>
            -4.8154383897781372e-01 5.1578497886657715e-01</leafValues></_></weakClassifiers></_>
    <!-- stage 8 -->
    <_>
      <maxWeakCount>8</maxWeakCount>
      <stageThreshold>-1.3443945646286011e+00</stageThreshold>
      <weakClassifiers>
        <_>
          <internalNodes>
            0 -1 102 -2057853762 605147157 -1006563303 11276561
            143165613 705267720 -1073674160 -74791285</internalNodes>
          <leafValues>
            -5.2337515354156494e-01 3.2451677322387695e-01</leafValues></_>
        <_>
          <internalNodes>
            0 -1 12 -92280658 -1166032917 788489975 -268468251 931100629
            695957503 1040137354 -1032915707</internalNodes>
          <leafValues>
            -3.7976309657096863e-01 4.8071497678756714e-01</leafValues></_>
        <_>
          <internalNodes>
            0 -1 119 622529685 -2080284345 184651931 1477673994
            243286019 -998122856 -2130558880 -1467453296</internalNodes>
          <leafValues>
            -4.7216263413429260e-01 3.9364230632781982e-01</leafValues></_>
        <_>
          <internalNodes>
            0 -1 71 1124553420 168820737 1090721153 1258881039 16778242
            286392489 -1677492184 1856211362</internalNodes>
          <leafValues>
            -4.8252239823341370e-01 4.0454906225204468e-01</leafValues></_>
        <_>
          <internalNodes>
            0 -1 163 71750015 38748437 554143889 68436162 -1063042912
            -964689919 1221070882 8397764</internalNodes>
          <leafValues>
            -6.0185724496841431e-01 3.4782961010932922e-01</leafValues></_>
        <_>
          <internalNodes>
            0 -1 39 558315095 855646746 -1879015100 756338688 1090523451
            151257216 -2129969116 -394255856</internalNodes>
          <leafValues>
            -5.5937653779983521e-01 3.7685227394104004e-01</leafValues></_>
        <_>
          <internalNodes>
            0 -1 51 -1575679377 -2113236911 268718575 1090666585
            1744965730 747274243 8472778 -1626654014</internalNodes>
          <leafValues>
            -5.0157958269119263e-01 4.5143297314643860e-01</leafValues></_>
        <_>
          <internalNodes>
            0 -1 58 -2136506604 -1836724193 42172439 -1840250608
            1484980269 453517315 -905969619 -1125878992</internalNodes>
          <leafValues>
            -6.2180453538894653e-01 3.7420833110809326e-01</leafValues></_></weakClassifiers></_>
    <!-- stage 9 -->
    <_>
      <maxWeakCount>10</maxWeakCount>
      <stageThreshold>-8.9435499906539917e-01</stageThreshold>
      <weakClassifiers>
        <_>
          <internalNodes>
            0 -1 26 219350003 537296978 -2079915791 235131219 403249395
            1728616625 -385855263 2080080059</internalNodes>
          <leafValues>
            -5.7329845428466797e-01 2.7189782261848450e-01</leafValues></_>
        <_>
          <internalNodes>
            0 -1 113 550054148 626196617 76648723 -1638903358 1233193233
            1233256578 -87881488 -458753280</internalNodes>
          <leafValues>
            -5.5859071016311646e-01 3.0962926149368286e-01</leafValues></_>
        <_>
          <internalNodes>
            0 -1 22 -822120517 2075471741 -365441483 -277610705
            259993273 -541460481 -868227121 -874250508</internalNodes>
          <leafValues>
            -2.7853897213935852e-01 6.9827812910079956e-01</leafValues></_>
        <_>
          <internalNodes>
            0 -1 126 1040153553 1157607406 -6 1878583992 2096908060
            1862070270 738147263 -1972135148</internalNodes>
          <leafValues>
            -3.5566195845603943e-01 4.9298155307769775e-01</leafValues></_>
        <_>
          <internalNodes>
            0 -1 158 -738126877 286388236 -1827667170 268435528
            1073872914 1477001346 33669509 211331496</internalNodes>
          <leafValues>
            -4.7667449712753296e-01 4.0701067447662354e-01</leafValues></_>
        <_>
          <internalNodes>
            0 -1 109 -285328461 -1998061913 -1300370823 -1577390146
            771715045 233832063 805240583 -25690241</internalNodes>
          <leafValues>
            -3.8727819919586182e-01 5.3644120693206787e-01</leafValues></_>
        <_>
          <internalNodes>
            0 -1 75 1095822819 554352841 268435671 1996570624 717750358
            419463296 -100659022 -86840829</internalNodes>
          <leafValues>
            -4.7660920023918152e-01 4.4781923294067383e-01</leafValues></_>
        <_>
          <internalNodes>
            0 -1 74 -2072792868 285411430 16406 223461541 -924319349
            33792 -2146940277 -501757942</internalNodes>
          <leafValues>
            -4.4995325803756714e-01 4.8592895269393921e-01</leafValues></_>
        <_>
          <internalNodes>
            0 -1 95 -1443668004 -1800503300 -16847124 -251793684
            184302319 -973750531 -34908 -348972450</internalNodes>
          <leafValues>
            -4.2827761173248291e-01 5.4408174753189087e-01</leafValues></_>
        <_>
          <internalNodes>
            0 -1 138 99556447 -1367408646 2147461980 -1514152466
            -587317515 1425514492 1073659052 -1093083810</internalNodes>
          <leafValues>
            -4.3100196123123169e-01 5.4035884141921997e-01</leafValues></_></weakClassifiers></_>
    <!-- stage 10 -->
    <_>
      <maxWeakCount>9</maxWeakCount>
      <stageThreshold>-6.5397650003433228e-01</stageThreshold>
      <weakClassifiers>
        <_>
          <internalNodes>
            0 -1 30 1451196415 1013972734 -268475462 -34291724
            1870615999 1065278462 1585446381 -75497514</internalNodes>
          <leafValues>
            -3.7377050518989563e-01 4.9375000596046448e-01</leafValues></_>
        <_>
          <internalNodes>
            0 -1 40 -931148051 782949948 -1286117739 599326462
            1979586409 -805995139 -1124332423 -137040066</internalNodes>
          <leafValues>
            -3.7359827756881714e-01 4.4772914052009583e-01</leafValues></_>
        <_>
          <internalNodes>
            0 -1 28 1883373758 -1979674495 805359974 -1350335851
            1117783025 193173581 1498049197 -1474934494</internalNodes>
          <leafValues>
            -4.1910839080810547e-01 4.2107015848159790e-01</leafValues></_>
        <_>
          <internalNodes>
            0 -1 136 -469769589 -1960319118 1862213567 1131736956
            -285266761 -58785922 -725663819 -444728210</internalNodes>
          <leafValues>
            -3.7692672014236450e-01 5.5287873744964600e-01</leafValues></_>
        <_>
          <internalNodes>
            0 -1 32 481767355 -1392529477 -1140900370 1944385406
            536772439 1039663093 -1342218271 -193188416</internalNodes>
          <leafValues>
            -4.1811513900756836e-01 4.7231620550155640e-01</leafValues></_>
        <_>
          <internalNodes>
            0 -1 144 1503368798 303140880 -1853615728 480383264
            1249976926 302188592 -1450898808 -506334806</internalNodes>
          <leafValues>
            -4.5459899306297302e-01 4.8422113060951233e-01</leafValues></_>
        <_>
          <internalNodes>
            0 -1 19 -1475764005 -1476112384 -2147479528 76284307
            1015586923 1518420097 73768 1629272395</internalNodes>
          <leafValues>
            -6.2166035175323486e-01 3.4376409649848938e-01</leafValues></_>
        <_>
          <internalNodes>
            0 -1 153 55190006 -2112815095 268505374 69095443 -2093084447
            1488978070 -1375518472 -1274540908</internalNodes>
          <leafValues>
            -5.9219676256179810e-01 3.6819922924041748e-01</leafValues></_>
        <_>
          <internalNodes>
            0 -1 86 1161224620 671220121 68474066 1679149248 44056577
            1041238216 4610 -1636312744</internalNodes>
          <leafValues>
            -5.5193722248077393e-01 3.8428002595901489e-01</leafValues></_></weakClassifiers></_>
    <!-- stage 11 -->
    <_>
      <maxWeakCount>9</maxWeakCount>
      <stageThreshold>-7.5698941946029663e-01</stageThreshold>
      <weakClassifiers>
        <_>
          <internalNodes>
            0 -1 99 567144638 303304979 -1996203695 101994499 939852265
            -1451097854 1099123077 -43519830</internalNodes>
          <leafValues>
            -4.4400000572204590e-01 3.5348838567733765e-01</leafValues></_>
        <_>
          <internalNodes>
            0 -1 124 139600177 403554403 134234307 67502347 270860288
            -536641520 68124 -1394079743</internalNodes>
          <leafValues>
            -5.5707246065139771e-01 2.7494004368782043e-01</leafValues></_>
        <_>
          <internalNodes>
            0 -1 54 1670089846 394297415 -922725119 -1140473780
            1629489345 -1740043162 151554604 1764096783</internalNodes>
          <leafValues>
            -4.2492878437042236e-01 4.0096175670623779e-01</leafValues></_>
        <_>
          <internalNodes>
            0 -1 53 -921595189 1487011856 1090609412 -1911553916
            -1056403823 1418363018 -1736259006 563735686</internalNodes>
          <leafValues>
            -4.8545074462890625e-01 3.8771501183509827e-01</leafValues></_>
        <_>
          <internalNodes>
            0 -1 121 -1979210465 184746079 289997895 -837431089
            503332961 974160008 -1299952726 -471017413</internalNodes>
          <leafValues>
            -4.5634883642196655e-01 4.3508881330490112e-01</leafValues></_>
        <_>
          <internalNodes>
            0 -1 11 374019321 1091665941 1073748100 520112293 134776874
            1427261600 -1467438152 336055048</internalNodes>
          <leafValues>
            -4.4142344594001770e-01 4.4477877020835876e-01</leafValues></_>
        <_>
          <internalNodes>
            0 -1 38 1360728540 1476432136 -2130685930 -568721263
            -2147342170 1166018698 -1866809304 -1975409905</internalNodes>
          <leafValues>
            -4.6817082166671753e-01 4.4855284690856934e-01</leafValues></_>
        <_>
          <internalNodes>
            0 -1 48 8512278 -1946103797 -1039019812 632029466 411435067
            717783176 -1952413299 -1772339844</internalNodes>
          <leafValues>
            -4.6800807118415833e-01 4.6213987469673157e-01</leafValues></_>
        <_>
          <internalNodes>
            0 -1 130 1072715125 2092564476 -1074024609 1290632316
            234301436 -1208221697 -1073914441 -1117524176</internalNodes>
          <leafValues>
            -3.9695826172828674e-01 5.3302234411239624e-01</leafValues></_></weakClassifiers></_>
    <!-- stage 12 -->
    <_>
      <maxWeakCount>8</maxWeakCount>
      <stageThreshold>-1.0029897689819336e+00</stageThreshold>
      <weakClassifiers>
        <_>
          <internalNodes>
            0 -1 18 1353864729 8786898 -1810792356 -1660862451
            -2113916918 285223067 -511667206 1703878738</internalNodes>
          <leafValues>
            -5.3734940290451050e-01 2.9708737134933472e-01</leafValues></_>
        <_>
          <internalNodes>
            0 -1 147 947443701 -554360899 1794588532 -437469380
            -419659795 -1074266145 -436357868 -1663988252</internalNodes>
          <leafValues>
            -3.6413100361824036e-01 5.0602388381958008e-01</leafValues></_>
        <_>
          <internalNodes>
            0 -1 135 1360090449 1849689348 -1744813696 1086327810
            1746018688 2047508482 -1304379141 -2004033432</internalNodes>
          <leafValues>
            -4.3383225798606873e-01 4.2623263597488403e-01</leafValues></_>
        <_>
          <internalNodes>
            0 -1 134 16816955 713130049 269287697 626065808 134775325
            1261043874 554898017 -460281851</internalNodes>
          <leafValues>
            -4.3858599662780762e-01 4.3982109427452087e-01</leafValues></_>
        <_>
          <internalNodes>
            0 -1 149 185107226 822317213 721420304 -2060877224
            1611284494 27263008 419595456 -124993014</internalNodes>
          <leafValues>
            -4.5185282826423645e-01 4.8606783151626587e-01</leafValues></_>
        <_>
          <internalNodes>
            0 -1 128 1243330132 490683004 1039990136 -488571143
            1065291519 503233151 1740604337 -1889534146</internalNodes>
          <leafValues>
            -4.2217475175857544e-01 5.3090131282806396e-01</leafValues></_>
        <_>
          <internalNodes>
            0 -1 122 1346605223 34836865 -2147446501 -1475641086
            -762755064 998375424 134809610 261327268</internalNodes>
          <leafValues>
            -4.7483584284782410e-01 4.7267010807991028e-01</leafValues></_>
        <_>
          <internalNodes>
            0 -1 105 122880850 387047488 -2147314742 -2046738176
            -1342102976 -1836547959 -930561725 -487849933</internalNodes>
          <leafValues>
            -5.7629555463790894e-01 4.1635549068450928e-01</leafValues></_></weakClassifiers></_>
    <!-- stage 13 -->
    <_>
      <maxWeakCount>9</maxWeakCount>
      <stageThreshold>-1.0362929105758667e+00</stageThreshold>
      <weakClassifiers>
        <_>
          <internalNodes>
            0 -1 31 -327176707 998239869 1198992911 -336200966 494868287
            1331658623 1778410523 -8214006</internalNodes>
          <leafValues>
            -4.2198580503463745e-01 4.5901638269424438e-01</leafValues></_>
        <_>
          <internalNodes>
            0 -1 131 255798129 -1980039522 -17891697 -593219654
            511305566 1308258303 -906518979 -357379000</internalNodes>
          <leafValues>
            -3.7953794002532959e-01 5.0090712308883667e-01</leafValues></_>
        <_>
          <internalNodes>
            0 -1 46 -320970790 1056112346 -10629625 -1694515281
            1794522099 -1074825281 -1367491278 -206063634</internalNodes>
          <leafValues>
            -3.3899328112602234e-01 5.9114354848861694e-01</leafValues></_>
        <_>
          <internalNodes>
            0 -1 49 -149200332 1716654259 294715667 807043357
            -1509425000 -1996062592 -939031590 72476794</internalNodes>
          <leafValues>
            -4.9579754471778870e-01 4.1642150282859802e-01</leafValues></_>
        <_>
          <internalNodes>
            0 -1 20 -259987769 -2046516734 -1069513424 -803503613
            2046851258 167837832 1342796595 -1711100992</internalNodes>
          <leafValues>
            -3.9350020885467529e-01 5.1340454816818237e-01</leafValues></_>
        <_>
          <internalNodes>
            0 -1 148 1067905567 2096577983 788267006 -1968685336
            -560021964 1073608620 -402810883 -1968378741</internalNodes>
          <leafValues>
            -3.6945077776908875e-01 5.9429329633712769e-01</leafValues></_>
        <_>
          <internalNodes>
            0 -1 157 566452539 1363256128 16826727 377557003 1017185
            -64844758 75936014 -521916400</internalNodes>
          <leafValues>
            -4.4752770662307739e-01 5.0299710035324097e-01</leafValues></_>
        <_>
          <internalNodes>
            0 -1 8 77579778 1073917969 -2147434475 1124278280
            -2113693435 984088608 538739009 994040745</internalNodes>
          <leafValues>
            -4.4397559762001038e-01 5.2602767944335938e-01</leafValues></_>
        <_>
          <internalNodes>
            0 -1 146 1363394627 226496532 -1862002607 -1266614266
            1074397853 134373376 570919049 545425927</internalNodes>
          <leafValues>
            -5.0193226337432861e-01 4.6978312730789185e-01</leafValues></_></weakClassifiers></_>
    <!-- stage 14 -->
    <_>
      <maxWeakCount>9</maxWeakCount>
      <stageThreshold>-8.7517064809799194e-01</stageThreshold>
      <weakClassifiers>
        <_>
          <internalNodes>
            0 -1 82 -1794009891 1074843984 352403716 114049553 8425714
            2017148928 -1585395528 585025675</internalNodes>
          <leafValues>
            -5.6591212749481201e-01 2.5698828697204590e-01</leafValues></_>
        <_>
          <internalNodes>
            0 -1 129 672211765 805413199 -2147483181 638747292
            2063865093 -1851260791 -921729213 -1870642304</internalNodes>
          <leafValues>
            -5.4778480529785156e-01 3.0666047334671021e-01</leafValues></_>
        <_>
          <internalNodes>
            0 -1 45 1313655059 83920982 54555927 -1207234559 -1475716968
            -1987952438 -1740553691 1138677006</internalNodes>
          <leafValues>
            -4.1153621673583984e-01 4.4389468431472778e-01</leafValues></_>
        <_>
          <internalNodes>
            0 -1 77 -499888739 888683995 -285343775 -1217871942 -4361001
            -1477087233 1056730620 -1941606959</internalNodes>
          <leafValues>
            -3.8245263695716858e-01 5.4036128520965576e-01</leafValues></_>
        <_>
          <internalNodes>
            0 -1 35 -2113377798 13107216 436211761 1641451752
            -1341421497 -896888537 706576550 434987840</internalNodes>
          <leafValues>
            -5.2836650609970093e-01 3.9330336451530457e-01</leafValues></_>
        <_>
          <internalNodes>
            0 -1 84 333329651 -482312181 1074020420 -1977614336 25842053
            1912709130 -1996326340 -1179766203</internalNodes>
          <leafValues>
            -5.1532721519470215e-01 4.3971595168113708e-01</leafValues></_>
        <_>
          <internalNodes>
            0 -1 98 16933493 75563589 17740 -2053914559 167788608
            -1337538512 -2012740319 -1156299520</internalNodes>
          <leafValues>
            -5.8287268877029419e-01 3.9082673192024231e-01</leafValues></_>
        <_>
          <internalNodes>
            0 -1 143 1203559867 -324501764 -1552965667 -320127390
            -1082228817 2105393020 -436875295 -1630548691</internalNodes>
          <leafValues>
            -3.8009819388389587e-01 6.1593222618103027e-01</leafValues></_>
        <_>
          <internalNodes>
            0 -1 151 320733267 -2129657759 -1056878466 235225491
            17301505 269025281 -1467927936 -2134108799</internalNodes>
          <leafValues>
            -5.3467929363250732e-01 4.4343134760856628e-01</leafValues></_></weakClassifiers></_>
    <!-- stage 15 -->
    <_>
      <maxWeakCount>9</maxWeakCount>
      <stageThreshold>-7.3923099040985107e-01</stageThreshold>
      <weakClassifiers>
        <_>
          <internalNodes>
            0 -1 76 1561831903 503366041 1342201986 67880995 1239552318
            430456995 1375993993 -1322663800</internalNodes>
          <leafValues>
            -4.2829075455665588e-01 3.5154393315315247e-01</leafValues></_>
        <_>
          <internalNodes>
            0 -1 103 5836311 -788016831 1895891159 -989720439 -221765440
            -536772214 -746237359 -1198260095</internalNodes>
          <leafValues>
            -4.2428037524223328e-01 3.8069498538970947e-01</leafValues></_>
        <_>
          <internalNodes>
            0 -1 161 -876615829 388120447 780139755 78904698 -672309721
            670924798 82124239 -859844619</internalNodes>
          <leafValues>
            -3.0019381642341614e-01 5.9061950445175171e-01</leafValues></_>
        <_>
          <internalNodes>
            0 -1 159 -921496869 -1207255008 1610666390 140353792
            218137259 143132680 -1341939541 140094093</internalNodes>
          <leafValues>
            -4.2802032828330994e-01 4.1711297631263733e-01</leafValues></_>
        <_>
          <internalNodes>
            0 -1 73 -1858583478 339871265 1090572776 152062021 302014667
            -2146670592 1112107780 778390298</internalNodes>
          <leafValues>
            -5.8321708440780640e-01 3.3196267485618591e-01</leafValues></_>
        <_>
          <internalNodes>
            0 -1 57 -989210961 -1844424672 4160 406999064 536891416
            -1329594240 -1602184436 1144808078</internalNodes>
          <leafValues>
            -5.6993973255157471e-01 3.6489945650100708e-01</leafValues></_>
        <_>
          <internalNodes>
            0 -1 1 1680368823 2121629681 -1342247269 -850430090
            2146776477 -753671 -327815767 -717920738</internalNodes>
          <leafValues>
            -3.6656931042671204e-01 6.0574340820312500e-01</leafValues></_>
        <_>
          <internalNodes>
            0 -1 2 -1873848717 -2112880636 622608 -1853218484
            -2134834554 -1073708918 135299118 2072109612</internalNodes>
          <leafValues>
            -4.6256607770919800e-01 4.6450582146644592e-01</leafValues></_>
        <_>
          <internalNodes>
            0 -1 69 807600335 352322705 4195466 122765649 536936456
            176689152 167979223 853682623</internalNodes>
          <leafValues>
            -5.4093611240386963e-01 4.0813305974006653e-01</leafValues></_></weakClassifiers></_>
    <!-- stage 16 -->
    <_>
      <maxWeakCount>9</maxWeakCount>
      <stageThreshold>-1.3553551435470581e+00</stageThreshold>
      <weakClassifiers>
        <_>
          <internalNodes>
            0 -1 21 155240312 336625793 -1996406639 218105097 136350272
            1051197578 419449307 806994419</internalNodes>
          <leafValues>
            -5.8226037025451660e-01 2.2997416555881500e-01</leafValues></_>
        <_>
          <internalNodes>
            0 -1 72 6172913 292962971 1543573661 -1270752805 856189445
            -458620918 -1861539451 -358571020</internalNodes>
          <leafValues>
            -4.4983738660812378e-01 3.6037999391555786e-01</leafValues></_>
        <_>
          <internalNodes>
            0 -1 123 892614205 -1495863431 -1073827955 -1412952349
            -1610642057 1308620671 -813830934 -1099493599</internalNodes>
          <leafValues>
            -3.5232827067375183e-01 5.0064337253570557e-01</leafValues></_>
        <_>
          <internalNodes>
            0 -1 154 -2010894453 -1477509201 2146856378 1335815030
            477085646 -553648137 1828060797 1500794696</internalNodes>
          <leafValues>
            -3.8291904330253601e-01 5.1814490556716919e-01</leafValues></_>
        <_>
          <internalNodes>
            0 -1 160 1897119769 -1928787514 -1069350525 -1906826494
            671295576 -2012733438 -1978957146 1635895445</internalNodes>
          <leafValues>
            -4.8785236477851868e-01 3.8260215520858765e-01</leafValues></_>
        <_>
          <internalNodes>
            0 -1 10 1073764572 -735969198 476 -297006838 1258291203
            354322818 -1341504563 1190257152</internalNodes>
          <leafValues>
            -6.0456860065460205e-01 3.2014977931976318e-01</leafValues></_>
        <_>
          <internalNodes>
            0 -1 27 1596702715 1610416127 -17842259 -1258459729
            1610448783 -33685641 1475165333 -329414671</internalNodes>
          <leafValues>
            -3.4576001763343811e-01 5.9946733713150024e-01</leafValues></_>
        <_>
          <internalNodes>
            0 -1 117 855095125 805044015 -344139 2045145071 -1107454083
            -813694985 1056914933 -16959679</internalNodes>
          <leafValues>
            -3.5961121320724487e-01 6.0213148593902588e-01</leafValues></_>
        <_>
          <internalNodes>
            0 -1 97 -468211844 319344704 -2130329442 738738199
            -1459075520 1619136512 1082654938 -1071527638</internalNodes>
          <leafValues>
            -4.7817331552505493e-01 4.7282925248146057e-01</leafValues></_></weakClassifiers></_>
    <!-- stage 17 -->
    <_>
      <maxWeakCount>8</maxWeakCount>
      <stageThreshold>-1.1130039691925049e+00</stageThreshold>
      <weakClassifiers>
        <_>
          <internalNodes>
            0 -1 17 -1056755222 404570448 17924559 -342016763
            -1205829246 -443514752 58301202 911252122</internalNodes>
          <leafValues>
            -4.9716874957084656e-01 3.0603888630867004e-01</leafValues></_>
        <_>
          <internalNodes>
            0 -1 85 495006687 427872899 1359495496 -310242422 344490157
            -1475477495 -2116466607 -1475075311</internalNodes>
          <leafValues>
            -4.4794121384620667e-01 3.7647065520286560e-01</leafValues></_>
        <_>
          <internalNodes>
            0 -1 156 273627115 331608077 -1876950010 -2046623598
            1900568842 16777353 2105639011 1150018433</internalNodes>
          <leafValues>
            -4.7183698415756226e-01 3.7039434909820557e-01</leafValues></_>
        <_>
          <internalNodes>
            0 -1 116 537078709 411107615 1476444557 57932707 33628296
            -637534070 16781827 -1500717375</internalNodes>
          <leafValues>
            -4.0771594643592834e-01 4.7484645247459412e-01</leafValues></_>
        <_>
          <internalNodes>
            0 -1 125 919185880 1224736917 1342542677 1208800529
            134226095 -2012708728 1074364597 572180574</internalNodes>
          <leafValues>
            -6.0006248950958252e-01 3.3485028147697449e-01</leafValues></_>
        <_>
          <internalNodes>
            0 -1 114 584417619 -1240289013 1652633809 -1609723627
            1744961537 -134012928 1208566376 -970846187</internalNodes>
          <leafValues>
            -4.6270403265953064e-01 4.5111092925071716e-01</leafValues></_>
        <_>
          <internalNodes>
            0 -1 41 -285427992 1978990574 2147479463 804056298
            -1531495169 -1392640769 1040142045 116716650</internalNodes>
          <leafValues>
            -4.3029949069023132e-01 4.8148381710052490e-01</leafValues></_>
        <_>
          <internalNodes>
            0 -1 25 1092371787 1129398299 20720 -1927872356 -1006622427
            85164032 403193870 -115467575</internalNodes>
          <leafValues>
            -4.6841469407081604e-01 4.5409983396530151e-01</leafValues></_></weakClassifiers></_>
    <!-- stage 18 -->
    <_>
      <maxWeakCount>9</maxWeakCount>
      <stageThreshold>-5.8315610885620117e-01</stageThreshold>
      <weakClassifiers>
        <_>
          <internalNodes>
            0 -1 88 -2054965346 637554838 -778977256 1108492560
            365626040 1753518211 201926820 -7763573</internalNodes>
          <leafValues>
            -4.9062845110893250e-01 3.2004198431968689e-01</leafValues></_>
        <_>
          <internalNodes>
            0 -1 142 -2145575949 901315831 2145320958 333250313
            -1644728331 1794433020 -823554 -1440139572</internalNodes>
          <leafValues>
            -3.4765949845314026e-01 4.7056114673614502e-01</leafValues></_>
        <_>
          <internalNodes>
            0 -1 36 -890603549 134086462 -1090830405 -2052112782
            1341615611 1299705783 1341508915 1864293212</internalNodes>
          <leafValues>
            -3.5308477282524109e-01 4.9268400669097900e-01</leafValues></_>
        <_>
          <internalNodes>
            0 -1 110 162427413 39489987 82185 -918388610 -2112738727
            -938901368 1107368197 -1936407968</internalNodes>
          <leafValues>
            -5.9103184938430786e-01 2.9750892519950867e-01</leafValues></_>
        <_>
          <internalNodes>
            0 -1 139 -2125225035 268966171 16772 -1861218300 545509669
            -255295481 -1472165752 1049188493</internalNodes>
          <leafValues>
            -4.0196475386619568e-01 5.0467687845230103e-01</leafValues></_>
        <_>
          <internalNodes>
            0 -1 14 -399628749 854568618 1795047137 -1410384085
            1937068981 528449397 -1888141546 -17350844</internalNodes>
          <leafValues>
            -3.8455954194068909e-01 5.0834918022155762e-01</leafValues></_>
        <_>
          <internalNodes>
            0 -1 150 1400715903 75489263 1742597543 -1058951172
            2135211983 -1663238273 -1660965289 -1594930471</internalNodes>
          <leafValues>
            -4.0742704272270203e-01 5.3189045190811157e-01</leafValues></_>
        <_>
          <internalNodes>
            0 -1 33 -2097098244 -1575943936 16908558 -1928261630
            151527433 1174929448 524816 1561562216</internalNodes>
          <leafValues>
            -5.0826275348663330e-01 4.2973273992538452e-01</leafValues></_>
        <_>
          <internalNodes>
            0 -1 115 -2079134228 524849280 16517 -1408126904 134808067
            151003145 -1719025504 -204952293</internalNodes>
          <leafValues>
            -5.0887805223464966e-01 4.6028488874435425e-01</leafValues></_></weakClassifiers></_>
    <!-- stage 19 -->
    <_>
      <maxWeakCount>9</maxWeakCount>
      <stageThreshold>-1.2888134717941284e+00</stageThreshold>
      <weakClassifiers>
        <_>
          <internalNodes>
            0 -1 16 -622079277 190720586 -339567113 -637534358
            -1663171801 2134785910 -1754993445 -77857553</internalNodes>
          <leafValues>
            -3.1563422083854675e-01 5.7142859697341919e-01</leafValues></_>
        <_>
          <internalNodes>
            0 -1 106 -367317227 -247442425 -1961674277 -904626158
            1242628317 1956708481 -2011649052 751717476</internalNodes>
          <leafValues>
            -4.0526691079139709e-01 3.8906404376029968e-01</leafValues></_>
        <_>
          <internalNodes>
            0 -1 0 544734131 1158943115 -1040068404 310378496 856162352
            285247521 33554476 1640090145</internalNodes>
          <leafValues>
            -4.9222746491432190e-01 3.5414621233940125e-01</leafValues></_>
        <_>
          <internalNodes>
            0 -1 34 1124204986 -2046815984 352391503 1595549953
            -1868345152 277611009 -383247040 -781664214</internalNodes>
          <leafValues>
            -4.7413313388824463e-01 3.6903497576713562e-01</leafValues></_>
        <_>
          <internalNodes>
            0 -1 93 17503349 419627268 1359118853 -2083225442 1096422194
            -1451063166 -402581503 -1366007532</internalNodes>
          <leafValues>
            -5.3030663728713989e-01 3.9225977659225464e-01</leafValues></_>
        <_>
          <internalNodes>
            0 -1 112 -1501710815 -1561071682 -1343230341 989790197
            -856068259 -1241579651 -553650323 -357223877</internalNodes>
          <leafValues>
            -3.5493296384811401e-01 5.9504950046539307e-01</leafValues></_>
        <_>
          <internalNodes>
            0 -1 68 -188810133 262864680 -16794189 -134217750 1811760708
            -12582914 1073497321 -1526469295</internalNodes>
          <leafValues>
            -4.1370639204978943e-01 5.1899069547653198e-01</leafValues></_>
        <_>
          <internalNodes>
            0 -1 56 -984218742 715137280 318837086 -200277874
            -2013200208 680073219 730401544 70609721</internalNodes>
          <leafValues>
            -6.1162108182907104e-01 3.5642918944358826e-01</leafValues></_>
        <_>
          <internalNodes>
            0 -1 162 -1051088521 -905850812 49307 1691938 -2130128887
            9441282 -1056907741 3733579</internalNodes>
          <leafValues>
            -4.6732017397880554e-01 4.5390224456787109e-01</leafValues></_></weakClassifiers></_></stages>
  <features>
    <_>
      <rect>
        0 0 3 1</rect></_>
    <_>
      <rect>
        0 0 8 2</rect></_>
    <_>
      <rect>
        0 1 5 5</rect></_>
    <_>
      <rect>
        0 1 6 3</rect></_>
    <_>
      <rect>
        0 1 12 6</rect></_>
    <_>
      <rect>
        0 2 10 5</rect></_>
    <_>
      <rect>
        0 7 9 4</rect></_>
    <_>
      <rect>
        0 9 7 3</rect></_>
    <_>
      <rect>
        0 13 2 2</rect></_>
    <_>
      <rect>
        1 0 16 6</rect></_>
    <_>
      <rect>
        1 3 11 3</rect></_>
    <_>
      <rect>
        1 5 11 4</rect></_>
    <_>
      <rect>
        1 8 9 3</rect></_>
    <_>
      <rect>
        1 9 3 2</rect></_>
    <_>
      <rect>
        1 11 4 2</rect></_>
    <_>
      <rect>
        1 13 5 2</rect></_>
    <_>
      <rect>
        1 14 6 2</rect></_>
    <_>
      <rect>
        2 2 14 5</rect></_>
    <_>
      <rect>
        2 5 13 5</rect></_>
    <_>
      <rect>
        2 5 16 5</rect></_>
    <_>
      <rect>
        2 8 6 4</rect></_>
    <_>
      <rect>
        2 8 16 4</rect></_>
    <_>
      <rect>
        2 11 7 3</rect></_>
    <_>
      <rect>
        2 11 9 3</rect></_>
    <_>
      <rect>
        2 11 12 3</rect></_>
    <_>
      <rect>
        2 14 3 1</rect></_>
    <_>
      <rect>
        2 14 15 2</rect></_>
    <_>
      <rect>
        3 3 1 1</rect></_>
    <_>
      <rect>
        3 8 6 3</rect></_>
    <_>
      <rect>
        3 8 7 3</rect></_>
    <_>
      <rect>
        3 11 11 3</rect></_>
    <_>
      <rect>
        3 14 8 2</rect></_>
    <_>
      <rect>
        4 0 2 1</rect></_>
    <_>
      <rect>
        4 0 15 3</rect></_>
    <_>
      <rect>
        4 1 14 4</rect></_>
    <_>
      <rect>
        4 5 3 2</rect></_>
    <_>
      <rect>
        4 10 4 2</rect></_>
    <_>
      <rect>
        5 0 2 1</rect></_>
    <_>
      <rect>
        5 1 8 4</rect></_>
    <_>
      <rect>
        5 8 1 1</rect></_>
    <_>
      <rect>
        5 14 7 2</rect></_>
    <_>
      <rect>
        6 1 9 2</rect></_>
    <_>
      <rect>
        6 3 2 3</rect></_>
    <_>
      <rect>
        6 3 7 3</rect></_>
    <_>
      <rect>
        6 5 12 3</rect></_>
    <_>
      <rect>
        6 8 6 4</rect></_>
    <_>
      <rect>
        6 8 8 4</rect></_>
    <_>
      <rect>
        6 12 3 1</rect></_>
    <_>
      <rect>
        7 0 3 1</rect></_>
    <_>
      <rect>
        7 0 10 5</rect></_>
    <_>
      <rect>
        7 11 8 3</rect></_>
    <_>
      <rect>
        7 14 5 2</rect></_>
    <_>
      <rect>
        8 0 5 2</rect></_>
    <_>
      <rect>
        8 0 14 5</rect></_>
    <_>
      <rect>
        8 6 7 4</rect></_>
    <_>
      <rect>
        8 12 2 1</rect></_>
    <_>
      <rect>
        9 1 5 2</rect></_>
    <_>
      <rect>
        9 1 13 6</rect></_>
    <_>
      <rect>
        9 9 1 1</rect></_>
    <_>
      <rect>
        9 11 10 3</rect></_>
    <_>
      <rect>
        9 13 4 2</rect></_>
    <_>
      <rect>
        9 16 4 1</rect></_>
    <_>
      <rect>
        10 1 13 6</rect></_>
    <_>
      <rect>
        10 2 1 1</rect></_>
    <_>
      <rect>
        10 6 8 4</rect></_>
    <_>
      <rect>
        10 12 1 1</rect></_>
    <_>
      <rect>
        11 0 9 4</rect></_>
    <_>
      <rect>
        11 1 13 5</rect></_>
    <_>
      <rect>
        11 8 3 2</rect></_>
    <_>
      <rect>
        11 17 3 1</rect></_>
    <_>
      <rect>
        11 17 11 1</rect></_>
    <_>
      <rect>
        12 0 11 3</rect></_>
    <_>
      <rect>
        12 3 1 1</rect></_>
    <_>
      <rect>
        12 3 5 5</rect></_>
    <_>
      <rect>
        12 8 9 4</rect></_>
    <_>
      <rect>
        12 13 3 1</rect></_>
    <_>
      <rect>
        12 13 6 2</rect></_>
    <_>
      <rect>
        13 6 2 2</rect></_>
    <_>
      <rect>
        13 11 1 1</rect></_>
    <_>
      <rect>
        13 12 10 2</rect></_>
    <_>
      <rect>
        14 0 5 3</rect></_>
    <_>
      <rect>
        14 0 9 6</rect></_>
    <_>
      <rect>
        14 2 12 6</rect></_>
    <_>
      <rect>
        14 4 1 1</rect></_>
    <_>
      <rect>
        14 6 1 3</rect></_>
    <_>
      <rect>
        14 7 1 1</rect></_>
    <_>
      <rect>
        14 8 7 3</rect></_>
    <_>
      <rect>
        14 8 12 4</rect></_>
    <_>
      <rect>
        14 14 6 2</rect></_>
    <_>
      <rect>
        14 14 9 2</rect></_>
    <_>
      <rect>
        15 4 1 1</rect></_>
    <_>
      <rect>
        15 5 7 3</rect></_>
    <_>
      <rect>
        15 13 1 1</rect></_>
    <_>
      <rect>
        16 11 1 1</rect></_>
    <_>
      <rect>
        17 1 6 3</rect></_>
    <_>
      <rect>
        17 2 7 4</rect></_>
    <_>
      <rect>
        17 5 11 4</rect></_>
    <_>
      <rect>
        17 9 6 3</rect></_>
    <_>
      <rect>
        17 11 1 1</rect></_>
    <_>
      <rect>
        17 11 5 3</rect></_>
    <_>
      <rect>
        17 14 4 2</rect></_>
    <_>
      <rect>
        17 14 5 2</rect></_>
    <_>
      <rect>
        17 14 8 2</rect></_>
    <_>
      <rect>
        18 8 1 1</rect></_>
    <_>
      <rect>
        18 11 1 1</rect></_>
    <_>
      <rect>
        18 14 1 1</rect></_>
    <_>
      <rect>
        20 2 2 1</rect></_>
    <_>
      <rect>
        20 8 1 1</rect></_>
    <_>
      <rect>
        20 14 1 1</rect></_>
    <_>
      <rect>
        21 17 9 1</rect></_>
    <_>
      <rect>
        22 2 1 1</rect></_>
    <_>
      <rect>
        22 5 5 4</rect></_>
    <_>
      <rect>
        22 6 6 2</rect></_>
    <_>
      <rect>
        23 5 4 1</rect></_>
    <_>
      <rect>
        23 11 1 1</rect></_>
    <_>
      <rect>
        23 11 4 2</rect></_>
    <_>
      <rect>
        24 0 1 1</rect></_>
    <_>
      <rect>
        24 3 2 1</rect></_>
    <_>
      <rect>
        24 9 1 1</rect></_>
    <_>
      <rect>
        24 12 1 1</rect></_>
    <_>
      <rect>
        25 5 1 1</rect></_>
    <_>
      <rect>
        25 13 2 1</rect></_>
    <_>
      <rect>
        25 16 2 1</rect></_>
    <_>
      <rect>
        26 0 4 3</rect></_>
    <_>
      <rect>
        26 3 1 1</rect></_>
    <_>
      <rect>
        26 4 8 5</rect></_>
    <_>
      <rect>
        26 5 7 4</rect></_>
    <_>
      <rect>
        26 7 1 1</rect></_>
    <_>
      <rect>
        26 14 5 2</rect></_>
    <_>
      <rect>
        28 0 1 1</rect></_>
    <_>
      <rect>
        28 0 2 2</rect></_>
    <_>
      <rect>
        28 6 6 3</rect></_>
    <_>
      <rect>
        28 17 7 1</rect></_>
    <_>
      <rect>
        29 1 1 1</rect></_>
    <_>
      <rect>
        29 4 4 1</rect></_>
    <_>
      <rect>
        29 11 7 3</rect></_>
    <_>
      <rect>
        29 16 2 1</rect></_>
    <_>
      <rect>
        30 5 1 1</rect></_>
    <_>
      <rect>
        31 3 5 3</rect></_>
    <_>
      <rect>
        32 0 3 2</rect></_>
    <_>
      <rect>
        32 6 6 4</rect></_>
    <_>
      <rect>
        32 11 6 3</rect></_>
    <_>
      <rect>
        33 0 4 4</rect></_>
    <_>
      <rect>
        33 10 5 3</rect></_>
    <_>
      <rect>
        34 14 3 2</rect></_>
    <_>
      <rect>
        35 1 1 1</rect></_>
    <_>
      <rect>
        35 17 5 1</rect></_>
    <_>
      <rect>
        36 0 3 2</rect></_>
    <_>
      <rect>
        36 8 4 4</rect></_>
    <_>
      <rect>
        36 10 3 2</rect></_>
    <_>
      <rect>
        37 2 4 3</rect></_>
    <_>
      <rect>
        37 3 2 1</rect></_>
    <_>
      <rect>
        37 11 2 1</rect></_>
    <_>
      <rect>
        38 4 4 2</rect></_>
    <_>
      <rect>
        38 5 2 1</rect></_>
    <_>
      <rect>
        38 15 1 1</rect></_>
    <_>
      <rect>
        40 16 2 1</rect></_>
    <_>
      <rect>
        41 6 2 2</rect></_>
    <_>
      <rect>
        41 9 3 3</rect></_>
    <_>
      <rect>
        41 12 3 2</rect></_>
    <_>
      <rect>
        42 7 2 1</rect></_>
    <_>
      <rect>
        42 16 1 1</rect></_>
    <_>
      <rect>
        43 13 2 1</rect></_>
    <_>
      <rect>
        46 1 1 2</rect></_></features></cascade>
</opencv_storage>
