<?xml version="1.0"?>
<opencv_storage>
<stage17>
  <maxWeakCount>8</maxWeakCount>
  <stageThreshold>-1.1130039691925049e+00</stageThreshold>
  <weakClassifiers>
    <_>
      <internalNodes>
        0 -1 2290 -1056755222 404570448 17924559 -342016763 -1205829246
        -443514752 58301202 911252122</internalNodes>
      <leafValues>
        -4.9716874957084656e-01 3.0603888630867004e-01</leafValues></_>
    <_>
      <internalNodes>
        0 -1 12918 495006687 427872899 1359495496 -310242422 344490157
        -1475477495 -2116466607 -1475075311</internalNodes>
      <leafValues>
        -4.4794121384620667e-01 3.7647065520286560e-01</leafValues></_>
    <_>
      <internalNodes>
        0 -1 24943 273627115 331608077 -1876950010 -2046623598
        1900568842 16777353 2105639011 1150018433</internalNodes>
      <leafValues>
        -4.7183698415756226e-01 3.7039434909820557e-01</leafValues></_>
    <_>
      <internalNodes>
        0 -1 18900 537078709 411107615 1476444557 57932707 33628296
        -637534070 16781827 -1500717375</internalNodes>
      <leafValues>
        -4.0771594643592834e-01 4.7484645247459412e-01</leafValues></_>
    <_>
      <internalNodes>
        0 -1 20131 919185880 1224736917 1342542677 1208800529 134226095
        -2012708728 1074364597 572180574</internalNodes>
      <leafValues>
        -6.0006248950958252e-01 3.3485028147697449e-01</leafValues></_>
    <_>
      <internalNodes>
        0 -1 18792 584417619 -1240289013 1652633809 -1609723627
        1744961537 -134012928 1208566376 -970846187</internalNodes>
      <leafValues>
        -4.6270403265953064e-01 4.5111092925071716e-01</leafValues></_>
    <_>
      <internalNodes>
        0 -1 5992 -285427992 1978990574 2147479463 804056298 -1531495169
        -1392640769 1040142045 116716650</internalNodes>
      <leafValues>
        -4.3029949069023132e-01 4.8148381710052490e-01</leafValues></_>
    <_>
      <internalNodes>
        0 -1 2948 1092371787 1129398299 20720 -1927872356 -1006622427
        85164032 403193870 -115467575</internalNodes>
      <leafValues>
        -4.6841469407081604e-01 4.5409983396530151e-01</leafValues></_></weakClassifiers></stage17>
</opencv_storage>
