<?xml version="1.0"?>
<opencv_storage>
<stage9>
  <maxWeakCount>10</maxWeakCount>
  <stageThreshold>-8.9435499906539917e-01</stageThreshold>
  <weakClassifiers>
    <_>
      <internalNodes>
        0 -1 2973 219350003 537296978 -2079915791 235131219 403249395
        1728616625 -385855263 2080080059</internalNodes>
      <leafValues>
        -5.7329845428466797e-01 2.7189782261848450e-01</leafValues></_>
    <_>
      <internalNodes>
        0 -1 18600 550054148 626196617 76648723 -1638903358 1233193233
        1233256578 -87881488 -458753280</internalNodes>
      <leafValues>
        -5.5859071016311646e-01 3.0962926149368286e-01</leafValues></_>
    <_>
      <internalNodes>
        0 -1 2852 -822120517 2075471741 -365441483 -277610705 259993273
        -541460481 -868227121 -874250508</internalNodes>
      <leafValues>
        -2.7853897213935852e-01 6.9827812910079956e-01</leafValues></_>
    <_>
      <internalNodes>
        0 -1 20165 1040153553 1157607406 -6 1878583992 2096908060
        1862070270 738147263 -1972135148</internalNodes>
      <leafValues>
        -3.5566195845603943e-01 4.9298155307769775e-01</leafValues></_>
    <_>
      <internalNodes>
        0 -1 25091 -738126877 286388236 -1827667170 268435528 1073872914
        1477001346 33669509 211331496</internalNodes>
      <leafValues>
        -4.7667449712753296e-01 4.0701067447662354e-01</leafValues></_>
    <_>
      <internalNodes>
        0 -1 17765 -285328461 -1998061913 -1300370823 -1577390146
        771715045 233832063 805240583 -25690241</internalNodes>
      <leafValues>
        -3.8727819919586182e-01 5.3644120693206787e-01</leafValues></_>
    <_>
      <internalNodes>
        0 -1 11638 1095822819 554352841 268435671 1996570624 717750358
        419463296 -100659022 -86840829</internalNodes>
      <leafValues>
        -4.7660920023918152e-01 4.4781923294067383e-01</leafValues></_>
    <_>
      <internalNodes>
        0 -1 11489 -2072792868 285411430 16406 223461541 -924319349
        33792 -2146940277 -501757942</internalNodes>
      <leafValues>
        -4.4995325803756714e-01 4.8592895269393921e-01</leafValues></_>
    <_>
      <internalNodes>
        0 -1 14787 -1443668004 -1800503300 -16847124 -251793684
        184302319 -973750531 -34908 -348972450</internalNodes>
      <leafValues>
        -4.2827761173248291e-01 5.4408174753189087e-01</leafValues></_>
    <_>
      <internalNodes>
        0 -1 22243 99556447 -1367408646 2147461980 -1514152466
        -587317515 1425514492 1073659052 -1093083810</internalNodes>
      <leafValues>
        -4.3100196123123169e-01 5.4035884141921997e-01</leafValues></_></weakClassifiers></stage9>
</opencv_storage>
