<?xml version="1.0"?>
<opencv_storage>
<stage2>
  <maxWeakCount>7</maxWeakCount>
  <stageThreshold>-6.3218039274215698e-01</stageThreshold>
  <weakClassifiers>
    <_>
      <internalNodes>
        0 -1 2867 1736160223 721895489 16778519 -750431852 1319764458
        320866312 134832269 2054146715</internalNodes>
      <leafValues>
        -4.8258706927299500e-01 4.0350878238677979e-01</leafValues></_>
    <_>
      <internalNodes>
        0 -1 13013 -439386002 144609296 16893253 -2101166032 1627395725
        587333792 -1869952689 1093509336</internalNodes>
      <leafValues>
        -6.1826062202453613e-01 2.7591952681541443e-01</leafValues></_>
    <_>
      <internalNodes>
        0 -1 6143 -181411875 -114327556 -50397586 1879044004 -277549316
        -654477321 1970466760 -536504813</internalNodes>
      <leafValues>
        -3.5969007015228271e-01 5.0914603471755981e-01</leafValues></_>
    <_>
      <internalNodes>
        0 -1 1913 1861802666 -2085883972 -2030360199 -75633166
        -276874149 2147317591 2146952255 -294388610</internalNodes>
      <leafValues>
        -3.0727952718734741e-01 5.8108294010162354e-01</leafValues></_>
    <_>
      <internalNodes>
        0 -1 22814 553940479 142606599 -2130706096 445157602 -2147268962
        554901505 9083325 1641574425</internalNodes>
      <leafValues>
        -5.3343844413757324e-01 3.8315695524215698e-01</leafValues></_>
    <_>
      <internalNodes>
        0 -1 18041 -1470966819 -2010099455 18170321 -1727741623
        -2013134524 1980235788 553879849 140643129</internalNodes>
      <leafValues>
        -5.3175300359725952e-01 4.1018965840339661e-01</leafValues></_>
    <_>
      <internalNodes>
        0 -1 6308 167751598 1073676213 788522552 1404428280 -973158567
        -1560838147 1862059711 1387773485</internalNodes>
      <leafValues>
        -4.4246608018875122e-01 4.7386956214904785e-01</leafValues></_></weakClassifiers></stage2>
</opencv_storage>
