<?xml version="1.0"?>
<opencv_storage>
<stage15>
  <maxWeakCount>9</maxWeakCount>
  <stageThreshold>-7.3923099040985107e-01</stageThreshold>
  <weakClassifiers>
    <_>
      <internalNodes>
        0 -1 11645 1561831903 503366041 1342201986 67880995 1239552318
        430456995 1375993993 -1322663800</internalNodes>
      <leafValues>
        -4.2829075455665588e-01 3.5154393315315247e-01</leafValues></_>
    <_>
      <internalNodes>
        0 -1 15719 5836311 -788016831 1895891159 -989720439 -221765440
        -536772214 -746237359 -1198260095</internalNodes>
      <leafValues>
        -4.2428037524223328e-01 3.8069498538970947e-01</leafValues></_>
    <_>
      <internalNodes>
        0 -1 25259 -876615829 388120447 780139755 78904698 -672309721
        670924798 82124239 -859844619</internalNodes>
      <leafValues>
        -3.0019381642341614e-01 5.9061950445175171e-01</leafValues></_>
    <_>
      <internalNodes>
        0 -1 25115 -921496869 -1207255008 1610666390 140353792 218137259
        143132680 -1341939541 140094093</internalNodes>
      <leafValues>
        -4.2802032828330994e-01 4.1711297631263733e-01</leafValues></_>
    <_>
      <internalNodes>
        0 -1 11202 -1858583478 339871265 1090572776 152062021 302014667
        -2146670592 1112107780 778390298</internalNodes>
      <leafValues>
        -5.8321708440780640e-01 3.3196267485618591e-01</leafValues></_>
    <_>
      <internalNodes>
        0 -1 8660 -989210961 -1844424672 4160 406999064 536891416
        -1329594240 -1602184436 1144808078</internalNodes>
      <leafValues>
        -5.6993973255157471e-01 3.6489945650100708e-01</leafValues></_>
    <_>
      <internalNodes>
        0 -1 43 1680368823 2121629681 -1342247269 -850430090 2146776477
        -753671 -327815767 -717920738</internalNodes>
      <leafValues>
        -3.6656931042671204e-01 6.0574340820312500e-01</leafValues></_>
    <_>
      <internalNodes>
        0 -1 124 -1873848717 -2112880636 622608 -1853218484 -2134834554
        -1073708918 135299118 2072109612</internalNodes>
      <leafValues>
        -4.6256607770919800e-01 4.6450582146644592e-01</leafValues></_>
    <_>
      <internalNodes>
        0 -1 10951 807600335 352322705 4195466 122765649 536936456
        176689152 167979223 853682623</internalNodes>
      <leafValues>
        -5.4093611240386963e-01 4.0813305974006653e-01</leafValues></_></weakClassifiers></stage15>
</opencv_storage>
