<?xml version="1.0"?>
<opencv_storage>
<stage5>
  <maxWeakCount>7</maxWeakCount>
  <stageThreshold>-7.4406141042709351e-01</stageThreshold>
  <weakClassifiers>
    <_>
      <internalNodes>
        0 -1 13187 -822477377 -1441661251 -1409615205 -1884426249
        486637927 2080307071 2146956021 -268771457</internalNodes>
      <leafValues>
        -3.9900663495063782e-01 5.2453988790512085e-01</leafValues></_>
    <_>
      <internalNodes>
        0 -1 9480 122974831 -1441755135 1099144223 945034257 671482209
        1624474115 1393429169 -17782192</internalNodes>
      <leafValues>
        -4.7423121333122253e-01 4.0636956691741943e-01</leafValues></_>
    <_>
      <internalNodes>
        0 -1 12330 144261151 340873730 -1047985919 51927555 -1727854527
        -1562885495 -2104897008 -560666831</internalNodes>
      <leafValues>
        -4.8642468452453613e-01 4.3700653314590454e-01</leafValues></_>
    <_>
      <internalNodes>
        0 -1 3665 -1069237793 285216786 1090523274 -3063422 1484980393
        587792593 1765808138 1333912355</internalNodes>
      <leafValues>
        -4.9709847569465637e-01 4.3535882234573364e-01</leafValues></_>
    <_>
      <internalNodes>
        0 -1 21903 84095261 -536460413 1343312241 1645085355 16875541
        1161887872 571015373 -526365911</internalNodes>
      <leafValues>
        -5.0828170776367188e-01 4.9351590871810913e-01</leafValues></_>
    <_>
      <internalNodes>
        0 -1 15819 250038007 789594369 -2147318753 84519121 -260036535
        -2147254135 1761681473 -1575722943</internalNodes>
      <leafValues>
        -5.5546593666076660e-01 4.5275977253913879e-01</leafValues></_>
    <_>
      <internalNodes>
        0 -1 9479 -989136675 -1879048192 -2147479294 -1975078582
        538444226 1744839048 -1845486944 589808074</internalNodes>
      <leafValues>
        -6.3592571020126343e-01 3.8692238926887512e-01</leafValues></_></weakClassifiers></stage5>
</opencv_storage>
