<?xml version="1.0"?>
<opencv_storage>
<stage1>
  <maxWeakCount>7</maxWeakCount>
  <stageThreshold>-1.5615426301956177e+00</stageThreshold>
  <weakClassifiers>
    <_>
      <internalNodes>
        0 -1 167 -111281441 -179209916 -1040154472 -633126140 1820902083
        872579072 -796870655 1610965792</internalNodes>
      <leafValues>
        -6.2827819585800171e-01 4.1810783743858337e-01</leafValues></_>
    <_>
      <internalNodes>
        0 -1 12527 -586158868 1955893378 -787381822 -1073184414
        147359832 -1073512445 1291944428 573785194</internalNodes>
      <leafValues>
        -6.2050950527191162e-01 3.0623644590377808e-01</leafValues></_>
    <_>
      <internalNodes>
        0 -1 7478 2121269215 166178548 1056943909 -1115799690 1585187594
        536739675 -100678 -110100529</internalNodes>
      <leafValues>
        -3.6969551444053650e-01 5.6268793344497681e-01</leafValues></_>
    <_>
      <internalNodes>
        0 -1 19628 1104322917 -1328213951 268500992 -968711936
        1359300649 293601280 596577 -1531969172</internalNodes>
      <leafValues>
        -5.1472866535186768e-01 4.4106954336166382e-01</leafValues></_>
    <_>
      <internalNodes>
        0 -1 10959 -2129423201 -1903868776 1090621713 67109836 167784698
        830504992 268470443 -204502838</internalNodes>
      <leafValues>
        -4.9512183666229248e-01 4.3477669358253479e-01</leafValues></_>
    <_>
      <internalNodes>
        0 -1 8381 1220789949 22609935 -1862217704 135270530 1761812529
        -2113236960 1688339216 -859043325</internalNodes>
      <leafValues>
        -5.0857168436050415e-01 4.2984196543693542e-01</leafValues></_>
    <_>
      <internalNodes>
        0 -1 10194 -1644176162 2028928638 -4718646 -1342877969
        -137073156 368474110 -537399508 199741918</internalNodes>
      <leafValues>
        -4.2682150006294250e-01 5.2665162086486816e-01</leafValues></_></weakClassifiers></stage1>
</opencv_storage>
