<?xml version="1.0"?>
<opencv_storage>
<stage13>
  <maxWeakCount>9</maxWeakCount>
  <stageThreshold>-1.0362929105758667e+00</stageThreshold>
  <weakClassifiers>
    <_>
      <internalNodes>
        0 -1 3909 -327176707 998239869 1198992911 -336200966 494868287
        1331658623 1778410523 -8214006</internalNodes>
      <leafValues>
        -4.2198580503463745e-01 4.5901638269424438e-01</leafValues></_>
    <_>
      <internalNodes>
        0 -1 21106 255798129 -1980039522 -17891697 -593219654 511305566
        1308258303 -906518979 -357379000</internalNodes>
      <leafValues>
        -3.7953794002532959e-01 5.0090712308883667e-01</leafValues></_>
    <_>
      <internalNodes>
        0 -1 6464 -320970790 1056112346 -10629625 -1694515281 1794522099
        -1074825281 -1367491278 -206063634</internalNodes>
      <leafValues>
        -3.3899328112602234e-01 5.9114354848861694e-01</leafValues></_>
    <_>
      <internalNodes>
        0 -1 6799 -149200332 1716654259 294715667 807043357 -1509425000
        -1996062592 -939031590 72476794</internalNodes>
      <leafValues>
        -4.9579754471778870e-01 4.1642150282859802e-01</leafValues></_>
    <_>
      <internalNodes>
        0 -1 2695 -259987769 -2046516734 -1069513424 -803503613
        2046851258 167837832 1342796595 -1711100992</internalNodes>
      <leafValues>
        -3.9350020885467529e-01 5.1340454816818237e-01</leafValues></_>
    <_>
      <internalNodes>
        0 -1 23993 1067905567 2096577983 788267006 -1968685336
        -560021964 1073608620 -402810883 -1968378741</internalNodes>
      <leafValues>
        -3.6945077776908875e-01 5.9429329633712769e-01</leafValues></_>
    <_>
      <internalNodes>
        0 -1 25052 566452539 1363256128 16826727 377557003 1017185
        -64844758 75936014 -521916400</internalNodes>
      <leafValues>
        -4.4752770662307739e-01 5.0299710035324097e-01</leafValues></_>
    <_>
      <internalNodes>
        0 -1 899 77579778 1073917969 -2147434475 1124278280 -2113693435
        984088608 538739009 994040745</internalNodes>
      <leafValues>
        -4.4397559762001038e-01 5.2602767944335938e-01</leafValues></_>
    <_>
      <internalNodes>
        0 -1 23813 1363394627 226496532 -1862002607 -1266614266
        1074397853 134373376 570919049 545425927</internalNodes>
      <leafValues>
        -5.0193226337432861e-01 4.6978312730789185e-01</leafValues></_></weakClassifiers></stage13>
</opencv_storage>
