<?xml version="1.0"?>
<opencv_storage>
<stage16>
  <maxWeakCount>9</maxWeakCount>
  <stageThreshold>-1.3553551435470581e+00</stageThreshold>
  <weakClassifiers>
    <_>
      <internalNodes>
        0 -1 2735 155240312 336625793 -1996406639 218105097 136350272
        1051197578 419449307 806994419</internalNodes>
      <leafValues>
        -5.8226037025451660e-01 2.2997416555881500e-01</leafValues></_>
    <_>
      <internalNodes>
        0 -1 11178 6172913 292962971 1543573661 -1270752805 856189445
        -458620918 -1861539451 -358571020</internalNodes>
      <leafValues>
        -4.4983738660812378e-01 3.6037999391555786e-01</leafValues></_>
    <_>
      <internalNodes>
        0 -1 19928 892614205 -1495863431 -1073827955 -1412952349
        -1610642057 1308620671 -813830934 -1099493599</internalNodes>
      <leafValues>
        -3.5232827067375183e-01 5.0064337253570557e-01</leafValues></_>
    <_>
      <internalNodes>
        0 -1 24435 -2010894453 -1477509201 2146856378 1335815030
        477085646 -553648137 1828060797 1500794696</internalNodes>
      <leafValues>
        -3.8291904330253601e-01 5.1814490556716919e-01</leafValues></_>
    <_>
      <internalNodes>
        0 -1 25215 1897119769 -1928787514 -1069350525 -1906826494
        671295576 -2012733438 -1978957146 1635895445</internalNodes>
      <leafValues>
        -4.8785236477851868e-01 3.8260215520858765e-01</leafValues></_>
    <_>
      <internalNodes>
        0 -1 1348 1073764572 -735969198 476 -297006838 1258291203
        354322818 -1341504563 1190257152</internalNodes>
      <leafValues>
        -6.0456860065460205e-01 3.2014977931976318e-01</leafValues></_>
    <_>
      <internalNodes>
        0 -1 3294 1596702715 1610416127 -17842259 -1258459729 1610448783
        -33685641 1475165333 -329414671</internalNodes>
      <leafValues>
        -3.4576001763343811e-01 5.9946733713150024e-01</leafValues></_>
    <_>
      <internalNodes>
        0 -1 19049 855095125 805044015 -344139 2045145071 -1107454083
        -813694985 1056914933 -16959679</internalNodes>
      <leafValues>
        -3.5961121320724487e-01 6.0213148593902588e-01</leafValues></_>
    <_>
      <internalNodes>
        0 -1 15128 -468211844 319344704 -2130329442 738738199
        -1459075520 1619136512 1082654938 -1071527638</internalNodes>
      <leafValues>
        -4.7817331552505493e-01 4.7282925248146057e-01</leafValues></_></weakClassifiers></stage16>
</opencv_storage>
