<?xml version="1.0"?>
<opencv_storage>
<stage0>
  <maxWeakCount>7</maxWeakCount>
  <stageThreshold>-1.0742368698120117e+00</stageThreshold>
  <weakClassifiers>
    <_>
      <internalNodes>
        0 -1 2543 -2138468353 570773521 65731 690159877 16877723
        176226312 -200703269 3630079</internalNodes>
      <leafValues>
        -6.2922573089599609e-01 4.6341463923454285e-01</leafValues></_>
    <_>
      <internalNodes>
        0 -1 627 2146413599 935323646 1056386687 -68207695 2094356418
        1904047997 1744771001 1675836687</internalNodes>
      <leafValues>
        -4.6527341008186340e-01 5.1123321056365967e-01</leafValues></_>
    <_>
      <internalNodes>
        0 -1 9197 84660474 642089217 329760 -1908387702 403319478
        269025410 1157630700 1081727119</internalNodes>
      <leafValues>
        -6.6963237524032593e-01 3.1923684477806091e-01</leafValues></_>
    <_>
      <internalNodes>
        0 -1 10297 -787246358 -1878895598 16777552 -2105128934
        -2113896438 1140981760 536903820 8456714</internalNodes>
      <leafValues>
        -7.6053798198699951e-01 2.9378426074981689e-01</leafValues></_>
    <_>
      <internalNodes>
        0 -1 9240 1207675735 950745065 939010425 -1140972753 1996382216
        2079620991 1838376367 -77469701</internalNodes>
      <leafValues>
        -4.0688246488571167e-01 5.6114125251770020e-01</leafValues></_>
    <_>
      <internalNodes>
        0 -1 15261 1075788202 -1472184165 -1073672124 555581574
        1073940522 780337185 667784 -126199397</internalNodes>
      <leafValues>
        -5.1266282796859741e-01 4.1769042611122131e-01</leafValues></_>
    <_>
      <internalNodes>
        0 -1 1735 -2126036426 276824197 134217866 -1151465981 344653844
        1225458452 580042836 220467201</internalNodes>
      <leafValues>
        -6.2887465953826904e-01 3.5518518090248108e-01</leafValues></_></weakClassifiers></stage0>
</opencv_storage>
