<?xml version="1.0"?>
<opencv_storage>
<stage10>
  <maxWeakCount>9</maxWeakCount>
  <stageThreshold>-6.5397650003433228e-01</stageThreshold>
  <weakClassifiers>
    <_>
      <internalNodes>
        0 -1 3821 1451196415 1013972734 -268475462 -34291724 1870615999
        1065278462 1585446381 -75497514</internalNodes>
      <leafValues>
        -3.7377050518989563e-01 4.9375000596046448e-01</leafValues></_>
    <_>
      <internalNodes>
        0 -1 5797 -931148051 782949948 -1286117739 599326462 1979586409
        -805995139 -1124332423 -137040066</internalNodes>
      <leafValues>
        -3.7359827756881714e-01 4.4772914052009583e-01</leafValues></_>
    <_>
      <internalNodes>
        0 -1 3661 1883373758 -1979674495 805359974 -1350335851
        1117783025 193173581 1498049197 -1474934494</internalNodes>
      <leafValues>
        -4.1910839080810547e-01 4.2107015848159790e-01</leafValues></_>
    <_>
      <internalNodes>
        0 -1 21722 -469769589 -1960319118 1862213567 1131736956
        -285266761 -58785922 -725663819 -444728210</internalNodes>
      <leafValues>
        -3.7692672014236450e-01 5.5287873744964600e-01</leafValues></_>
    <_>
      <internalNodes>
        0 -1 3975 481767355 -1392529477 -1140900370 1944385406 536772439
        1039663093 -1342218271 -193188416</internalNodes>
      <leafValues>
        -4.1811513900756836e-01 4.7231620550155640e-01</leafValues></_>
    <_>
      <internalNodes>
        0 -1 23479 1503368798 303140880 -1853615728 480383264 1249976926
        302188592 -1450898808 -506334806</internalNodes>
      <leafValues>
        -4.5459899306297302e-01 4.8422113060951233e-01</leafValues></_>
    <_>
      <internalNodes>
        0 -1 2543 -1475764005 -1476112384 -2147479528 76284307
        1015586923 1518420097 73768 1629272395</internalNodes>
      <leafValues>
        -6.2166035175323486e-01 3.4376409649848938e-01</leafValues></_>
    <_>
      <internalNodes>
        0 -1 24426 55190006 -2112815095 268505374 69095443 -2093084447
        1488978070 -1375518472 -1274540908</internalNodes>
      <leafValues>
        -5.9219676256179810e-01 3.6819922924041748e-01</leafValues></_>
    <_>
      <internalNodes>
        0 -1 12992 1161224620 671220121 68474066 1679149248 44056577
        1041238216 4610 -1636312744</internalNodes>
      <leafValues>
        -5.5193722248077393e-01 3.8428002595901489e-01</leafValues></_></weakClassifiers></stage10>
</opencv_storage>
