<?xml version="1.0"?>
<opencv_storage>
<stage7>
  <maxWeakCount>7</maxWeakCount>
  <stageThreshold>-8.3674359321594238e-01</stageThreshold>
  <weakClassifiers>
    <_>
      <internalNodes>
        0 -1 21293 -992919412 1048611 640211 75530246 -1459025901
        260145352 -653694297 -970208757</internalNodes>
      <leafValues>
        -5.6675064563751221e-01 2.9080674052238464e-01</leafValues></_>
    <_>
      <internalNodes>
        0 -1 15263 542887151 37790848 1140949144 1870729739 1099104440
        671252992 -1072069982 2050379973</internalNodes>
      <leafValues>
        -4.9981144070625305e-01 3.9674425125122070e-01</leafValues></_>
    <_>
      <internalNodes>
        0 -1 16979 676401461 927404311 1090703633 1963115799 38421005
        1509949440 -1979557837 -1404770000</internalNodes>
      <leafValues>
        -5.3085267543792725e-01 3.6781457066535950e-01</leafValues></_>
    <_>
      <internalNodes>
        0 -1 14714 1873477596 -995623447 -285298776 -1409635124
        1860443966 1350401407 -16783444 -370078641</internalNodes>
      <leafValues>
        -4.3403124809265137e-01 4.9528792500495911e-01</leafValues></_>
    <_>
      <internalNodes>
        0 -1 128 -423210794 -2130011119 4210770 1896923162 712843
        1099077673 1216880872 1430592544</internalNodes>
      <leafValues>
        -5.3368818759918213e-01 4.1394102573394775e-01</leafValues></_>
    <_>
      <internalNodes>
        0 -1 13570 -787799306 671154627 50336088 -767557104 1073779346
        1898692933 -1189375629 1636032079</internalNodes>
      <leafValues>
        -4.9391937255859375e-01 4.7824826836585999e-01</leafValues></_>
    <_>
      <internalNodes>
        0 -1 740 1900462491 218140690 -2147452864 -107884395 1498222768
        9994264 21633039 1521668617</internalNodes>
      <leafValues>
        -4.8154383897781372e-01 5.1578497886657715e-01</leafValues></_></weakClassifiers></stage7>
</opencv_storage>
