<?xml version="1.0"?>
<opencv_storage>
<stage6>
  <maxWeakCount>8</maxWeakCount>
  <stageThreshold>-5.7407867908477783e-01</stageThreshold>
  <weakClassifiers>
    <_>
      <internalNodes>
        0 -1 20204 856386293 447905819 536969347 1304613405 954925361
        -1711095768 -1811027477 -657660363</internalNodes>
      <leafValues>
        -4.5437261462211609e-01 4.1831684112548828e-01</leafValues></_>
    <_>
      <internalNodes>
        0 -1 9301 1343468331 229048598 202571912 638730514 272760843
        722092160 1619619908 -620246891</internalNodes>
      <leafValues>
        -5.0862914323806763e-01 3.9095315337181091e-01</leafValues></_>
    <_>
      <internalNodes>
        0 -1 12385 -2092194578 639127693 1157662806 -1975381206
        403356816 956334632 33589387 -1819754341</internalNodes>
      <leafValues>
        -5.5059409141540527e-01 3.6006286740303040e-01</leafValues></_>
    <_>
      <internalNodes>
        0 -1 22712 1213268433 -213909423 285282759 -1911914218 32904
        16924801 -2136899317 1660047288</internalNodes>
      <leafValues>
        -4.4936579465866089e-01 4.9117407202720642e-01</leafValues></_>
    <_>
      <internalNodes>
        0 -1 9784 -1065224486 307282176 17842241 1595129872 1610700937
        428376072 -893296474 1377300567</internalNodes>
      <leafValues>
        -5.2014219760894775e-01 4.2589715123176575e-01</leafValues></_>
    <_>
      <internalNodes>
        0 -1 250 -2146706486 2064089600 16859151 -650115062 1208091020
        -1929313076 411050145 1093922944</internalNodes>
      <leafValues>
        -5.4161477088928223e-01 4.1476026177406311e-01</leafValues></_>
    <_>
      <internalNodes>
        0 -1 23529 352784400 -1174036479 -1056440170 1547716748
        1216348427 -877821952 -183890848 -1540589248</internalNodes>
      <leafValues>
        -6.0842877626419067e-01 3.9327257871627808e-01</leafValues></_>
    <_>
      <internalNodes>
        0 -1 6619 33904655 167969920 135497738 -922577791 524864
        487150081 -2104437818 -434919248</internalNodes>
      <leafValues>
        -6.1011791229248047e-01 3.5284969210624695e-01</leafValues></_></weakClassifiers></stage6>
</opencv_storage>
