<?xml version="1.0"?>
<opencv_storage>
<stage12>
  <maxWeakCount>8</maxWeakCount>
  <stageThreshold>-1.0029897689819336e+00</stageThreshold>
  <weakClassifiers>
    <_>
      <internalNodes>
        0 -1 2528 1353864729 8786898 -1810792356 -1660862451 -2113916918
        285223067 -511667206 1703878738</internalNodes>
      <leafValues>
        -5.3734940290451050e-01 2.9708737134933472e-01</leafValues></_>
    <_>
      <internalNodes>
        0 -1 23827 947443701 -554360899 1794588532 -437469380 -419659795
        -1074266145 -436357868 -1663988252</internalNodes>
      <leafValues>
        -3.6413100361824036e-01 5.0602388381958008e-01</leafValues></_>
    <_>
      <internalNodes>
        0 -1 21671 1360090449 1849689348 -1744813696 1086327810
        1746018688 2047508482 -1304379141 -2004033432</internalNodes>
      <leafValues>
        -4.3383225798606873e-01 4.2623263597488403e-01</leafValues></_>
    <_>
      <internalNodes>
        0 -1 21470 16816955 713130049 269287697 626065808 134775325
        1261043874 554898017 -460281851</internalNodes>
      <leafValues>
        -4.3858599662780762e-01 4.3982109427452087e-01</leafValues></_>
    <_>
      <internalNodes>
        0 -1 24013 185107226 822317213 721420304 -2060877224 1611284494
        27263008 419595456 -124993014</internalNodes>
      <leafValues>
        -4.5185282826423645e-01 4.8606783151626587e-01</leafValues></_>
    <_>
      <internalNodes>
        0 -1 20381 1243330132 490683004 1039990136 -488571143 1065291519
        503233151 1740604337 -1889534146</internalNodes>
      <leafValues>
        -4.2217475175857544e-01 5.3090131282806396e-01</leafValues></_>
    <_>
      <internalNodes>
        0 -1 19893 1346605223 34836865 -2147446501 -1475641086
        -762755064 998375424 134809610 261327268</internalNodes>
      <leafValues>
        -4.7483584284782410e-01 4.7267010807991028e-01</leafValues></_>
    <_>
      <internalNodes>
        0 -1 15889 122880850 387047488 -2147314742 -2046738176
        -1342102976 -1836547959 -930561725 -487849933</internalNodes>
      <leafValues>
        -5.7629555463790894e-01 4.1635549068450928e-01</leafValues></_></weakClassifiers></stage12>
</opencv_storage>
