<?xml version="1.0"?>
<opencv_storage>
<stage14>
  <maxWeakCount>6</maxWeakCount>
  <stageThreshold>-1.0475087165832520e+00</stageThreshold>
  <weakClassifiers>
    <_>
      <internalNodes>
        0 -1 913 67494582 973144576 -922187469 526160128 1912881270
        461897770 -662151160 -873690447</internalNodes>
      <leafValues>
        -6.0493826866149902e-01 2.9435482621192932e-01</leafValues></_>
    <_>
      <internalNodes>
        0 -1 17690 761786587 8720385 -1073624878 1246830980 336410
        -298319744 1493778432 -391740023</internalNodes>
      <leafValues>
        -4.7154346108436584e-01 4.3592104315757751e-01</leafValues></_>
    <_>
      <internalNodes>
        0 -1 23162 -761295589 1002253494 -134287617 -151755014
        1576390355 -1938030617 788328397 -1973633303</internalNodes>
      <leafValues>
        -3.8731604814529419e-01 5.6841731071472168e-01</leafValues></_>
    <_>
      <internalNodes>
        0 -1 24746 -2070314618 1948094736 -1073610672 1078558787 682530
        1268957450 9167048 -1057840512</internalNodes>
      <leafValues>
        -5.5382019281387329e-01 4.1336095333099365e-01</leafValues></_>
    <_>
      <internalNodes>
        0 -1 2855 1784352747 889212928 -1710929463 -1827270383
        1887455226 -2011627391 -1979569880 -943619416</internalNodes>
      <leafValues>
        -5.0251746177673340e-01 5.2306658029556274e-01</leafValues></_>
    <_>
      <internalNodes>
        0 -1 15256 -269521073 -1140932883 -268521473 -286328923
        1333735173 -2013298825 -159424730 -831140369</internalNodes>
      <leafValues>
        -4.5225039124488831e-01 5.6213366985321045e-01</leafValues></_></weakClassifiers></stage14>
</opencv_storage>
