<?xml version="1.0"?>
<opencv_storage>
<stage18>
  <maxWeakCount>6</maxWeakCount>
  <stageThreshold>-4.8763480782508850e-01</stageThreshold>
  <weakClassifiers>
    <_>
      <internalNodes>
        0 -1 2955 -1055169810 453411584 1678331991 1937833985 142811463
        436863240 -1065353085 -649877946</internalNodes>
      <leafValues>
        -5.3200882673263550e-01 3.1696429848670959e-01</leafValues></_>
    <_>
      <internalNodes>
        0 -1 25381 -312498737 281165889 545275930 1075382492 1138430658
        -1836515126 1627455627 1267968000</internalNodes>
      <leafValues>
        -4.3939626216888428e-01 4.4288632273674011e-01</leafValues></_>
    <_>
      <internalNodes>
        0 -1 1256 -620176673 487588058 1073742013 -997683178 1753809489
        1208488449 -2004350804 -1072228031</internalNodes>
      <leafValues>
        -5.1722759008407593e-01 4.1346848011016846e-01</leafValues></_>
    <_>
      <internalNodes>
        0 -1 7234 268551454 286822592 -2012200629 -1063468970 277881776
        -1199046655 1761613992 1716554283</internalNodes>
      <leafValues>
        -5.9964025020599365e-01 3.6499777436256409e-01</leafValues></_>
    <_>
      <internalNodes>
        0 -1 19237 729661367 838152190 -67145729 -470339969 -276830363
        -1895841793 1860140957 -353145336</internalNodes>
      <leafValues>
        -4.5505937933921814e-01 5.4255527257919312e-01</leafValues></_>
    <_>
      <internalNodes>
        0 -1 8518 -1836566628 417022118 1073758283 -56884703 -2147388772
        562070024 -1073542612 253233681</internalNodes>
      <leafValues>
        -6.4019620418548584e-01 4.1559123992919922e-01</leafValues></_></weakClassifiers></stage18>
</opencv_storage>
