<?xml version="1.0"?>
<opencv_storage>
<stage13>
  <maxWeakCount>6</maxWeakCount>
  <stageThreshold>-6.0418570041656494e-01</stageThreshold>
  <weakClassifiers>
    <_>
      <internalNodes>
        0 -1 6590 956385363 605224960 -732927643 2106622084 2013938939
        1099137201 201344003 -309203903</internalNodes>
      <leafValues>
        -5.7207208871841431e-01 3.3916848897933960e-01</leafValues></_>
    <_>
      <internalNodes>
        0 -1 21628 750784022 17891713 -788446313 136102160 -1476300342
        1761642056 -1740429255 615305985</internalNodes>
      <leafValues>
        -6.8740087747573853e-01 3.1625440716743469e-01</leafValues></_>
    <_>
      <internalNodes>
        0 -1 22 710333687 -1577058286 4370543 -2147479484 -939421689
        814319619 -2013248880 183821076</internalNodes>
      <leafValues>
        -6.4206916093826294e-01 3.7620195746421814e-01</leafValues></_>
    <_>
      <internalNodes>
        0 -1 17250 1442828158 -1040678914 2146435055 -813891586
        -990523395 -285769738 -268435612 -1075327668</internalNodes>
      <leafValues>
        -4.2953285574913025e-01 5.9258276224136353e-01</leafValues></_>
    <_>
      <internalNodes>
        0 -1 25610 809661143 -1744683007 134291457 151622 -2004840430
        1375739906 -1073704821 -803952420</internalNodes>
      <leafValues>
        -5.4416871070861816e-01 4.7042146325111389e-01</leafValues></_>
    <_>
      <internalNodes>
        0 -1 18900 240518039 303251611 268501417 -2079304993 857449159
        1544028800 331450945 134782913</internalNodes>
      <leafValues>
        -6.6210895776748657e-01 3.8278666138648987e-01</leafValues></_></weakClassifiers></stage13>
</opencv_storage>
