<?xml version="1.0"?>
<opencv_storage>
<cascade>
  <stageType>BOOST</stageType>
  <featureType>LBP</featureType>
  <height>30</height>
  <width>75</width>
  <stageParams>
    <boostType>GAB</boostType>
    <minHitRate>9.9500000476837158e-01</minHitRate>
    <maxFalseAlarm>5.0000000000000000e-01</maxFalseAlarm>
    <weightTrimRate>9.4999999999999996e-01</weightTrimRate>
    <maxDepth>1</maxDepth>
    <maxWeakCount>100</maxWeakCount></stageParams>
  <featureParams>
    <maxCatCount>256</maxCatCount>
    <featSize>1</featSize></featureParams>
  <stageNum>20</stageNum>
  <stages>
    <!-- stage 0 -->
    <_>
      <maxWeakCount>4</maxWeakCount>
      <stageThreshold>-4.4691255688667297e-01</stageThreshold>
      <weakClassifiers>
        <_>
          <internalNodes>
            0 -1 23 -292035585 9521242 285294597 794881 -1031683606
            327188576 -1073035013 34326699</internalNodes>
          <leafValues>
            -7.1748876571655273e-01 4.8571428656578064e-01</leafValues></_>
        <_>
          <internalNodes>
            0 -1 35 -1047015657 210338083 1208074269 -1576447693
            1210796653 421531688 -1769829488 -22884283</internalNodes>
          <leafValues>
            -6.2566471099853516e-01 5.0350761413574219e-01</leafValues></_>
        <_>
          <internalNodes>
            0 -1 31 -2091693225 -2042265453 1075970447 17743895
            805521509 -1937112944 1090716419 -833325983</internalNodes>
          <leafValues>
            -6.9885736703872681e-01 4.4285777211189270e-01</leafValues></_>
        <_>
          <internalNodes>
            0 -1 62 605756255 155206209 1074298881 -2079686645
            1510105502 -1978891999 -884879931 -398173744</internalNodes>
          <leafValues>
            -6.7578911781311035e-01 5.2315098047256470e-01</leafValues></_></weakClassifiers></_>
    <!-- stage 1 -->
    <_>
      <maxWeakCount>4</maxWeakCount>
      <stageThreshold>-6.0999065637588501e-01</stageThreshold>
      <weakClassifiers>
        <_>
          <internalNodes>
            0 -1 5 -1696990465 105959940 8487409 1299431683 570722449
            269107200 427856127 573267979</internalNodes>
          <leafValues>
            -6.9751691818237305e-01 4.5851528644561768e-01</leafValues></_>
        <_>
          <internalNodes>
            0 -1 61 232223063 714194963 -1610514346 168450115 92471347
            -657747966 -1677514207 -453717244</internalNodes>
          <leafValues>
            -7.4185448884963989e-01 4.0262442827224731e-01</leafValues></_>
        <_>
          <internalNodes>
            0 -1 57 490804023 638943451 -1862270503 1825849481
            1626275939 2030174355 -1073102335 -1090727168</internalNodes>
          <leafValues>
            -7.1776241064071655e-01 4.3997761607170105e-01</leafValues></_>
        <_>
          <internalNodes>
            0 -1 73 164582399 205619207 1174585367 -2079276765 671828139
            -1174372351 1076170755 2408873</internalNodes>
          <leafValues>
            -7.5336796045303345e-01 4.7138646245002747e-01</leafValues></_></weakClassifiers></_>
    <!-- stage 2 -->
    <_>
      <maxWeakCount>4</maxWeakCount>
      <stageThreshold>-3.2489877939224243e-01</stageThreshold>
      <weakClassifiers>
        <_>
          <internalNodes>
            0 -1 37 84230631 201609217 63633 -998227920 -2004350821
            713427074 -1879026497 -71067246</internalNodes>
          <leafValues>
            -6.3368421792984009e-01 4.7417840361595154e-01</leafValues></_>
        <_>
          <internalNodes>
            0 -1 38 122362743 41992217 -2013183655 805482505 143196209
            1375895690 -1471675119 -329721831</internalNodes>
          <leafValues>
            -7.4069261550903320e-01 3.7557694315910339e-01</leafValues></_>
        <_>
          <internalNodes>
            0 -1 40 678314359 1448489503 -2080370475 705991309
            -2138193259 1124663426 -1778333407 -1134762991</internalNodes>
          <leafValues>
            -6.7125380039215088e-01 4.4662949442863464e-01</leafValues></_>
        <_>
          <internalNodes>
            0 -1 25 -50335761 805302263 -268439618 -252711170 -285214721
            1031274367 -16779777 -243269633</internalNodes>
          <leafValues>
            -5.0340032577514648e-01 6.9688564538955688e-01</leafValues></_></weakClassifiers></_>
    <!-- stage 3 -->
    <_>
      <maxWeakCount>4</maxWeakCount>
      <stageThreshold>-5.4717767238616943e-01</stageThreshold>
      <weakClassifiers>
        <_>
          <internalNodes>
            0 -1 9 -57158921 1073774595 1090568331 -1072348924 134250664
            855670920 -2105012017 46631146</internalNodes>
          <leafValues>
            -6.7142856121063232e-01 3.8045737147331238e-01</leafValues></_>
        <_>
          <internalNodes>
            0 -1 30 46192882 680591361 -2147467261 134287618 990005426
            1048821771 -1928672512 1633338059</internalNodes>
          <leafValues>
            -7.3149478435516357e-01 3.6576226353645325e-01</leafValues></_>
        <_>
          <internalNodes>
            0 -1 22 333001087 678641695 1073856795 546472387 545873979
            -1056845813 -2004729735 -2004061691</internalNodes>
          <leafValues>
            -7.2922843694686890e-01 3.7917804718017578e-01</leafValues></_>
        <_>
          <internalNodes>
            0 -1 48 -2009034563 566562961 1073758365 -905506478
            1233129603 1778387072 149 -368901485</internalNodes>
          <leafValues>
            -5.6416893005371094e-01 5.6722444295883179e-01</leafValues></_></weakClassifiers></_>
    <!-- stage 4 -->
    <_>
      <maxWeakCount>4</maxWeakCount>
      <stageThreshold>-5.0716340541839600e-01</stageThreshold>
      <weakClassifiers>
        <_>
          <internalNodes>
            0 -1 3 1763525407 37892096 269553733 -770633320 1158612170
            447250561 -2147355997 -752092285</internalNodes>
          <leafValues>
            -5.7446807622909546e-01 5.1562500000000000e-01</leafValues></_>
        <_>
          <internalNodes>
            0 -1 17 -921574946 -803532544 16781343 -1907832703
            1620678792 17334280 151161088 1108469994</internalNodes>
          <leafValues>
            -7.0437890291213989e-01 4.1638946533203125e-01</leafValues></_>
        <_>
          <internalNodes>
            0 -1 59 -922738548 681149440 1115832472 81939 -2121756525
            168331400 687979174 -890650588</internalNodes>
          <leafValues>
            -6.8645638227462769e-01 4.3459686636924744e-01</leafValues></_>
        <_>
          <internalNodes>
            0 -1 74 495010335 16793857 16845203 4751361 1619665422
            671219739 134301815 152361352</internalNodes>
          <leafValues>
            -7.5272148847579956e-01 4.4664734601974487e-01</leafValues></_></weakClassifiers></_>
    <!-- stage 5 -->
    <_>
      <maxWeakCount>4</maxWeakCount>
      <stageThreshold>-4.7940480709075928e-01</stageThreshold>
      <weakClassifiers>
        <_>
          <internalNodes>
            0 -1 14 181104379 202458128 -1878982479 436817922 1284311141
            1669867656 1518734218 -888808565</internalNodes>
          <leafValues>
            -6.1344540119171143e-01 4.5411765575408936e-01</leafValues></_>
        <_>
          <internalNodes>
            0 -1 0 -280891169 -117243880 -2146959222 1442859210
            -2130657261 32768 8978576 1174693132</internalNodes>
          <leafValues>
            -6.9679903984069824e-01 4.1251513361930847e-01</leafValues></_>
        <_>
          <internalNodes>
            0 -1 65 1158115449 -435076990 1074857995 184394 -1605381907
            1612546056 16875752 80257252</internalNodes>
          <leafValues>
            -5.9525185823440552e-01 5.3642433881759644e-01</leafValues></_>
        <_>
          <internalNodes>
            0 -1 43 8622278 134238736 1342181640 -1575993320 570767488
            731781198 -1879012991 1796896787</internalNodes>
          <leafValues>
            -7.5078570842742920e-01 4.5302930474281311e-01</leafValues></_></weakClassifiers></_>
    <!-- stage 6 -->
    <_>
      <maxWeakCount>5</maxWeakCount>
      <stageThreshold>-6.9306463003158569e-01</stageThreshold>
      <weakClassifiers>
        <_>
          <internalNodes>
            0 -1 7 -615153617 163868 1073763340 -721305534 134313 196609
            -2111674334 -817635223</internalNodes>
          <leafValues>
            -5.7669901847839355e-01 5.1295334100723267e-01</leafValues></_>
        <_>
          <internalNodes>
            0 -1 36 -553426024 20576 88453 -1072528559 -2147237862
            -2138439680 571118536 -506003320</internalNodes>
          <leafValues>
            -5.5078321695327759e-01 5.3813284635543823e-01</leafValues></_>
        <_>
          <internalNodes>
            0 -1 4 -116280401 -930582336 268521544 353439886 4194978
            452987034 271765518 740330112</internalNodes>
          <leafValues>
            -6.5797603130340576e-01 4.8836442828178406e-01</leafValues></_>
        <_>
          <internalNodes>
            0 -1 32 -1917286401 226493443 -1996472306 1108492304
            142608579 808485896 155289800 -1247027071</internalNodes>
          <leafValues>
            -5.8770710229873657e-01 5.9193432331085205e-01</leafValues></_>
        <_>
          <internalNodes>
            0 -1 56 -971808509 135909395 17829909 -1371275244 134258800
            -478150616 -1599723391 -113013990</internalNodes>
          <leafValues>
            -5.4329162836074829e-01 5.9118467569351196e-01</leafValues></_></weakClassifiers></_>
    <!-- stage 7 -->
    <_>
      <maxWeakCount>3</maxWeakCount>
      <stageThreshold>-4.8065495491027832e-01</stageThreshold>
      <weakClassifiers>
        <_>
          <internalNodes>
            0 -1 58 33701889 -2145386494 -2147483647 1073741824 8193
            33554432 -2147319678 -1038052736</internalNodes>
          <leafValues>
            -7.2413790225982666e-01 1.</leafValues></_>
        <_>
          <internalNodes>
            0 -1 63 36891 65553 1073741824 1074266117 32768 524292
            -2146959232 -1878974462</internalNodes>
          <leafValues>
            -7.1678316593170166e-01 9.4968396425247192e-01</leafValues></_>
        <_>
          <internalNodes>
            0 -1 49 -1359057290 -1627455489 -16842761 -1360068690
            2147385173 -32897 -151032075 -864667820</internalNodes>
          <leafValues>
            -7.0307677984237671e-01 9.6026617288589478e-01</leafValues></_></weakClassifiers></_>
    <!-- stage 8 -->
    <_>
      <maxWeakCount>4</maxWeakCount>
      <stageThreshold>-5.8060663938522339e-01</stageThreshold>
      <weakClassifiers>
        <_>
          <internalNodes>
            0 -1 53 -2129553603 1207992337 268538901 -2141179568 4458732
            -2134376316 -1039990548 1591267984</internalNodes>
          <leafValues>
            -6.3135594129562378e-01 4.6386945247650146e-01</leafValues></_>
        <_>
          <internalNodes>
            0 -1 54 89604733 67338313 -2147413997 1112887619 -863989760
            -1962835839 1074397457 -602112996</internalNodes>
          <leafValues>
            -7.1891611814498901e-01 4.3148788809776306e-01</leafValues></_>
        <_>
          <internalNodes>
            0 -1 24 134689375 536985985 -1862088427 -1568128877
            1392508977 -1467801598 1476614465 -823725535</internalNodes>
          <leafValues>
            -7.2434079647064209e-01 4.2266699671745300e-01</leafValues></_>
        <_>
          <internalNodes>
            0 -1 29 -1744715320 -1232064511 285262104 134545414
            269027720 -1442774902 675353290 1716521054</internalNodes>
          <leafValues>
            -7.4822700023651123e-01 4.3704828619956970e-01</leafValues></_></weakClassifiers></_>
    <!-- stage 9 -->
    <_>
      <maxWeakCount>6</maxWeakCount>
      <stageThreshold>-6.1307090520858765e-01</stageThreshold>
      <weakClassifiers>
        <_>
          <internalNodes>
            0 -1 19 -1799256631 67276944 2612 -938897327 554778829
            196083840 -2137931574 1873461899</internalNodes>
          <leafValues>
            -6.4164650440216064e-01 3.4016394615173340e-01</leafValues></_>
        <_>
          <internalNodes>
            0 -1 28 956398632 -2076819184 21037461 1212518674
            -2108553088 -1509425024 277547088 1117595788</internalNodes>
          <leafValues>
            -7.2616046667098999e-01 3.7755513191223145e-01</leafValues></_>
        <_>
          <internalNodes>
            0 -1 70 1075915519 -2147446526 813731861 1212186756
            -1039466344 301990024 -2139078515 -1475817286</internalNodes>
          <leafValues>
            -5.3473526239395142e-01 5.5942577123641968e-01</leafValues></_>
        <_>
          <internalNodes>
            0 -1 44 293799265 -1609551855 -1870610376 -1592901354 133
            16842880 631720 840773643</internalNodes>
          <leafValues>
            -5.9008419513702393e-01 5.2625787258148193e-01</leafValues></_>
        <_>
          <internalNodes>
            0 -1 21 2013556219 -1827536638 -2147479424 -1719287741
            36311083 -1996488693 838998432 -641082863</internalNodes>
          <leafValues>
            -5.3221929073333740e-01 6.3415312767028809e-01</leafValues></_>
        <_>
          <internalNodes>
            0 -1 10 1402639409 -1069502464 1392525702 -1004910334
            -2013265716 -2147347958 161644560 271665546</internalNodes>
          <leafValues>
            -7.8053873777389526e-01 4.4645547866821289e-01</leafValues></_></weakClassifiers></_>
    <!-- stage 10 -->
    <_>
      <maxWeakCount>3</maxWeakCount>
      <stageThreshold>-6.7298918962478638e-01</stageThreshold>
      <weakClassifiers>
        <_>
          <internalNodes>
            0 -1 66 42156808 554172416 1048832 524305 -2147483640
            8388672 -185597568 549457925</internalNodes>
          <leafValues>
            -8.8076925277709961e-01 9.4225722551345825e-01</leafValues></_>
        <_>
          <internalNodes>
            0 -1 11 1879048192 276824067 20480 1073741824 134480002
            -2147483648 1207959562 1174929418</internalNodes>
          <leafValues>
            -7.5579792261123657e-01 9.8679381608963013e-01</leafValues></_>
        <_>
          <internalNodes>
            0 -1 20 21508 83886080 32776 -1073741695 402653192
            -1879048064 8421378 1342887936</internalNodes>
          <leafValues>
            -7.6018249988555908e-01 9.6357792615890503e-01</leafValues></_></weakClassifiers></_>
    <!-- stage 11 -->
    <_>
      <maxWeakCount>4</maxWeakCount>
      <stageThreshold>-4.2489305138587952e-01</stageThreshold>
      <weakClassifiers>
        <_>
          <internalNodes>
            0 -1 45 69161299 1149432083 -805142177 -1937190761
            -1895814647 -922615680 -1575892967 -396570252</internalNodes>
          <leafValues>
            -7.0189702510833740e-01 3.0075186491012573e-01</leafValues></_>
        <_>
          <internalNodes>
            0 -1 47 543630171 188953045 -2147483621 -1811131977
            -1056749505 -939393008 -133615583 -288824971</internalNodes>
          <leafValues>
            -6.5424931049346924e-01 3.9776164293289185e-01</leafValues></_>
        <_>
          <internalNodes>
            0 -1 60 1055735711 -1396723729 -286347291 1325133675
            -1342179490 786349789 -268444325 -252334220</internalNodes>
          <leafValues>
            -4.9612787365913391e-01 5.7369488477706909e-01</leafValues></_>
        <_>
          <internalNodes>
            0 -1 46 134567191 -1912406013 16777289 809828373 1409821227
            -670695296 -2147368935 -924814747</internalNodes>
          <leafValues>
            -6.2727868556976318e-01 4.8450112342834473e-01</leafValues></_></weakClassifiers></_>
    <!-- stage 12 -->
    <_>
      <maxWeakCount>2</maxWeakCount>
      <stageThreshold>-1.7288002371788025e-01</stageThreshold>
      <weakClassifiers>
        <_>
          <internalNodes>
            0 -1 18 -2105441967 553648132 -2146401840 1174446168
            -2055167998 32896 159907841 1644464648</internalNodes>
          <leafValues>
            -7.9653680324554443e-01 6.1275625228881836e-01</leafValues></_>
        <_>
          <internalNodes>
            0 -1 72 1073828611 -2147483630 4188 0 4219178 1090519176
            -2013232664 487606665</internalNodes>
          <leafValues>
            -7.2780555486679077e-01 6.2365674972534180e-01</leafValues></_></weakClassifiers></_>
    <!-- stage 13 -->
    <_>
      <maxWeakCount>5</maxWeakCount>
      <stageThreshold>-6.9625371694564819e-01</stageThreshold>
      <weakClassifiers>
        <_>
          <internalNodes>
            0 -1 1 -168894497 -588972034 -536936705 -84942849
            -1375801604 -184680449 -34148760 -709820709</internalNodes>
          <leafValues>
            -4.7150260210037231e-01 5.4037266969680786e-01</leafValues></_>
        <_>
          <internalNodes>
            0 -1 13 1166250767 122093649 34089 -1329518518 1387464723
            1211172864 -209086238 -167257317</internalNodes>
          <leafValues>
            -5.0788640975952148e-01 4.9662494659423828e-01</leafValues></_>
        <_>
          <internalNodes>
            0 -1 34 729775919 637997457 553652511 104862275 1090666793
            1233829922 1091197537 -300649967</internalNodes>
          <leafValues>
            -7.1581238508224487e-01 3.8504993915557861e-01</leafValues></_>
        <_>
          <internalNodes>
            0 -1 55 -1360232675 1342155387 -1347490009 49020666
            2130706364 1862205309 -16467 -805970065</internalNodes>
          <leafValues>
            -4.9183949828147888e-01 5.9037715196609497e-01</leafValues></_>
        <_>
          <internalNodes>
            0 -1 68 23292443 1384255493 16785487 64552969 -1056357752
            -763232248 -989249526 2088806577</internalNodes>
          <leafValues>
            -5.9594076871871948e-01 4.9996304512023926e-01</leafValues></_></weakClassifiers></_>
    <!-- stage 14 -->
    <_>
      <maxWeakCount>2</maxWeakCount>
      <stageThreshold>-1.4533522725105286e-01</stageThreshold>
      <weakClassifiers>
        <_>
          <internalNodes>
            0 -1 50 33587224 0 4112 268451840 536870912 98304
            -2143289079 14680129</internalNodes>
          <leafValues>
            -9.3902438879013062e-01 8.8753056526184082e-01</leafValues></_>
        <_>
          <internalNodes>
            0 -1 71 1083179026 402653184 268439584 2228736 0 -2147483648
            8321 16521</internalNodes>
          <leafValues>
            -8.9088797569274902e-01 7.9368919134140015e-01</leafValues></_></weakClassifiers></_>
    <!-- stage 15 -->
    <_>
      <maxWeakCount>5</maxWeakCount>
      <stageThreshold>-7.6738357543945312e-01</stageThreshold>
      <weakClassifiers>
        <_>
          <internalNodes>
            0 -1 33 58872119 157237409 1358954971 -1807642489 1077962857
            -1727954808 285225515 -628256187</internalNodes>
          <leafValues>
            -6.0810810327529907e-01 3.7417942285537720e-01</leafValues></_>
        <_>
          <internalNodes>
            0 -1 2 622199079 647467139 1082392765 1812336963 -1063583653
            738263042 704807444 -197864806</internalNodes>
          <leafValues>
            -6.5682220458984375e-01 3.9078420400619507e-01</leafValues></_>
        <_>
          <internalNodes>
            0 -1 15 1636788754 286474383 -2130680765 -775733236
            136213547 415940608 2080448570 -2085958515</internalNodes>
          <leafValues>
            -5.3849512338638306e-01 4.9452623724937439e-01</leafValues></_>
        <_>
          <internalNodes>
            0 -1 64 -1938850825 1324263423 1073692285 1258094574
            -1107485282 -150995075 750763501 -722707334</internalNodes>
          <leafValues>
            -4.5550823211669922e-01 6.4019459486007690e-01</leafValues></_>
        <_>
          <internalNodes>
            0 -1 41 -1860619992 -719642591 1073807744 155648000
            145786938 -785383280 -2013207935 -1693269504</internalNodes>
          <leafValues>
            -5.2375882863998413e-01 5.8618903160095215e-01</leafValues></_></weakClassifiers></_>
    <!-- stage 16 -->
    <_>
      <maxWeakCount>5</maxWeakCount>
      <stageThreshold>-8.7701708078384399e-01</stageThreshold>
      <weakClassifiers>
        <_>
          <internalNodes>
            0 -1 52 173375287 4296981 68044225 -1071591400 184579115
            151224353 1217085873 -663565791</internalNodes>
          <leafValues>
            -7.3296999931335449e-01 3.1835207343101501e-01</leafValues></_>
        <_>
          <internalNodes>
            0 -1 39 151409219 -1581121401 4266004 74367375 302149645
            16982024 -914356223 -989856793</internalNodes>
          <leafValues>
            -6.4968997240066528e-01 3.7305793166160583e-01</leafValues></_>
        <_>
          <internalNodes>
            0 -1 67 50469847 -1403289598 142 1622658 962396600
            -905805677 1073777448 -522132719</internalNodes>
          <leafValues>
            -5.9956640005111694e-01 4.4949597120285034e-01</leafValues></_>
        <_>
          <internalNodes>
            0 -1 6 -806400505 -1813205075 1744604927 -201515336
            -1073780826 1610610662 1709983727 -2756624</internalNodes>
          <leafValues>
            -4.1583189368247986e-01 7.4090123176574707e-01</leafValues></_>
        <_>
          <internalNodes>
            0 -1 27 -444469497 21578179 16943498 -1617756094 1117790235
            134775200 184619601 -191376491</internalNodes>
          <leafValues>
            -5.5076903104782104e-01 5.8362835645675659e-01</leafValues></_></weakClassifiers></_>
    <!-- stage 17 -->
    <_>
      <maxWeakCount>3</maxWeakCount>
      <stageThreshold>-9.1733926534652710e-01</stageThreshold>
      <weakClassifiers>
        <_>
          <internalNodes>
            0 -1 8 -1912223863 469766274 268435712 1343258708 32907
            -242712576 570998784 538445832</internalNodes>
          <leafValues>
            -8.4650111198425293e-01 6.0262006521224976e-01</leafValues></_>
        <_>
          <internalNodes>
            0 -1 51 557933863 4317185 -2147467247 -1060896762 831094801
            805339280 -1476256503 -536743904</internalNodes>
          <leafValues>
            -7.4850380420684814e-01 5.5707973241806030e-01</leafValues></_>
        <_>
          <internalNodes>
            0 -1 16 -1029864761 -2147418112 -2147417825 1073909761 42
            1619542017 1342705664 -431783855</internalNodes>
          <leafValues>
            -6.2791782617568970e-01 6.7806041240692139e-01</leafValues></_></weakClassifiers></_>
    <!-- stage 18 -->
    <_>
      <maxWeakCount>2</maxWeakCount>
      <stageThreshold>-4.1966387629508972e-01</stageThreshold>
      <weakClassifiers>
        <_>
          <internalNodes>
            0 -1 69 6248277 68141057 268443939 233601 609370112 32962
            1258295370 201597509</internalNodes>
          <leafValues>
            -8.9203083515167236e-01 4.8437500000000000e-01</leafValues></_>
        <_>
          <internalNodes>
            0 -1 12 1168086 156254216 53521 -1878834944 1224739474
            1933574152 286067466 562726926</internalNodes>
          <leafValues>
            -7.3477619886398315e-01 4.7236698865890503e-01</leafValues></_></weakClassifiers></_>
    <!-- stage 19 -->
    <_>
      <maxWeakCount>2</maxWeakCount>
      <stageThreshold>-3.9912384748458862e-01</stageThreshold>
      <weakClassifiers>
        <_>
          <internalNodes>
            0 -1 42 -1727000560 -2147400687 134218000 302137872
            285264037 -2013200384 270778368 44045312</internalNodes>
          <leafValues>
            -9.1979950666427612e-01 5.3386455774307251e-01</leafValues></_>
        <_>
          <internalNodes>
            0 -1 26 1128620293 155254851 45316 -1072328703 671162464
            2129920 1107296288 -1014508759</internalNodes>
          <leafValues>
            -7.3041087388992310e-01 5.2067565917968750e-01</leafValues></_></weakClassifiers></_></stages>
  <features>
    <_>
      <rect>
        0 0 15 10</rect></_>
    <_>
      <rect>
        0 0 16 5</rect></_>
    <_>
      <rect>
        0 12 2 1</rect></_>
    <_>
      <rect>
        1 17 18 4</rect></_>
    <_>
      <rect>
        2 4 10 6</rect></_>
    <_>
      <rect>
        2 8 21 7</rect></_>
    <_>
      <rect>
        2 20 4 3</rect></_>
    <_>
      <rect>
        3 14 10 5</rect></_>
    <_>
      <rect>
        4 5 21 8</rect></_>
    <_>
      <rect>
        5 2 23 9</rect></_>
    <_>
      <rect>
        7 0 22 8</rect></_>
    <_>
      <rect>
        7 12 11 6</rect></_>
    <_>
      <rect>
        7 20 13 3</rect></_>
    <_>
      <rect>
        7 24 3 1</rect></_>
    <_>
      <rect>
        8 18 10 4</rect></_>
    <_>
      <rect>
        9 19 4 3</rect></_>
    <_>
      <rect>
        9 27 2 1</rect></_>
    <_>
      <rect>
        11 0 20 7</rect></_>
    <_>
      <rect>
        12 12 15 4</rect></_>
    <_>
      <rect>
        12 15 20 5</rect></_>
    <_>
      <rect>
        13 20 6 3</rect></_>
    <_>
      <rect>
        14 14 8 5</rect></_>
    <_>
      <rect>
        18 0 1 1</rect></_>
    <_>
      <rect>
        18 7 18 7</rect></_>
    <_>
      <rect>
        18 18 1 1</rect></_>
    <_>
      <rect>
        19 13 14 2</rect></_>
    <_>
      <rect>
        20 26 3 1</rect></_>
    <_>
      <rect>
        20 27 2 1</rect></_>
    <_>
      <rect>
        21 0 18 5</rect></_>
    <_>
      <rect>
        21 6 11 6</rect></_>
    <_>
      <rect>
        22 18 9 4</rect></_>
    <_>
      <rect>
        23 14 1 1</rect></_>
    <_>
      <rect>
        23 19 10 3</rect></_>
    <_>
      <rect>
        23 20 1 1</rect></_>
    <_>
      <rect>
        24 18 1 1</rect></_>
    <_>
      <rect>
        24 18 2 1</rect></_>
    <_>
      <rect>
        27 2 15 7</rect></_>
    <_>
      <rect>
        27 21 16 2</rect></_>
    <_>
      <rect>
        30 19 1 1</rect></_>
    <_>
      <rect>
        30 27 2 1</rect></_>
    <_>
      <rect>
        31 2 1 1</rect></_>
    <_>
      <rect>
        32 1 11 4</rect></_>
    <_>
      <rect>
        32 5 4 5</rect></_>
    <_>
      <rect>
        32 14 10 5</rect></_>
    <_>
      <rect>
        33 0 6 2</rect></_>
    <_>
      <rect>
        33 9 1 1</rect></_>
    <_>
      <rect>
        33 16 1 1</rect></_>
    <_>
      <rect>
        34 17 1 1</rect></_>
    <_>
      <rect>
        34 20 9 3</rect></_>
    <_>
      <rect>
        35 9 1 1</rect></_>
    <_>
      <rect>
        36 4 7 8</rect></_>
    <_>
      <rect>
        38 20 2 1</rect></_>
    <_>
      <rect>
        38 21 1 1</rect></_>
    <_>
      <rect>
        39 2 12 6</rect></_>
    <_>
      <rect>
        39 8 1 1</rect></_>
    <_>
      <rect>
        39 14 12 3</rect></_>
    <_>
      <rect>
        39 17 7 2</rect></_>
    <_>
      <rect>
        40 0 1 1</rect></_>
    <_>
      <rect>
        41 3 1 1</rect></_>
    <_>
      <rect>
        41 24 11 2</rect></_>
    <_>
      <rect>
        42 19 11 3</rect></_>
    <_>
      <rect>
        45 2 1 1</rect></_>
    <_>
      <rect>
        45 8 1 1</rect></_>
    <_>
      <rect>
        46 18 2 1</rect></_>
    <_>
      <rect>
        51 4 8 6</rect></_>
    <_>
      <rect>
        51 13 8 3</rect></_>
    <_>
      <rect>
        53 22 4 1</rect></_>
    <_>
      <rect>
        54 5 6 4</rect></_>
    <_>
      <rect>
        54 10 3 3</rect></_>
    <_>
      <rect>
        57 15 1 1</rect></_>
    <_>
      <rect>
        63 11 4 4</rect></_>
    <_>
      <rect>
        63 15 3 4</rect></_>
    <_>
      <rect>
        63 17 4 2</rect></_>
    <_>
      <rect>
        70 6 1 1</rect></_>
    <_>
      <rect>
        72 15 1 1</rect></_></features></cascade>
</opencv_storage>
