<?xml version="1.0"?>
<opencv_storage>
<stage9>
  <maxWeakCount>6</maxWeakCount>
  <stageThreshold>-6.1307090520858765e-01</stageThreshold>
  <weakClassifiers>
    <_>
      <internalNodes>
        0 -1 42139 -1799256631 67276944 2612 -938897327 554778829
        196083840 -2137931574 1873461899</internalNodes>
      <leafValues>
        -6.4164650440216064e-01 3.4016394615173340e-01</leafValues></_>
    <_>
      <internalNodes>
        0 -1 65134 956398632 -2076819184 21037461 1212518674 -2108553088
        -1509425024 277547088 1117595788</internalNodes>
      <leafValues>
        -7.2616046667098999e-01 3.7755513191223145e-01</leafValues></_>
    <_>
      <internalNodes>
        0 -1 131308 1075915519 -2147446526 813731861 1212186756
        -1039466344 301990024 -2139078515 -1475817286</internalNodes>
      <leafValues>
        -5.3473526239395142e-01 5.5942577123641968e-01</leafValues></_>
    <_>
      <internalNodes>
        0 -1 92561 293799265 -1609551855 -1870610376 -1592901354 133
        16842880 631720 840773643</internalNodes>
      <leafValues>
        -5.9008419513702393e-01 5.2625787258148193e-01</leafValues></_>
    <_>
      <internalNodes>
        0 -1 47814 2013556219 -1827536638 -2147479424 -1719287741
        36311083 -1996488693 838998432 -641082863</internalNodes>
      <leafValues>
        -5.3221929073333740e-01 6.3415312767028809e-01</leafValues></_>
    <_>
      <internalNodes>
        0 -1 24287 1402639409 -1069502464 1392525702 -1004910334
        -2013265716 -2147347958 161644560 271665546</internalNodes>
      <leafValues>
        -7.8053873777389526e-01 4.4645547866821289e-01</leafValues></_></weakClassifiers></stage9>
</opencv_storage>
