<?xml version="1.0"?>
<opencv_storage>
<cascade>
  <stageType>BOOST</stageType>
  <featureType>LBP</featureType>
  <height>10</height>
  <width>25</width>
  <stageParams>
    <boostType>GAB</boostType>
    <minHitRate>9.9500000476837158e-01</minHitRate>
    <maxFalseAlarm>5.0000000000000000e-01</maxFalseAlarm>
    <weightTrimRate>9.4999999999999996e-01</weightTrimRate>
    <maxDepth>1</maxDepth>
    <maxWeakCount>100</maxWeakCount></stageParams>
  <featureParams>
    <maxCatCount>256</maxCatCount>
    <featSize>1</featSize></featureParams>
  <stageNum>20</stageNum>
  <stages>
    <!-- stage 0 -->
    <_>
      <maxWeakCount>7</maxWeakCount>
      <stageThreshold>-7.9712945222854614e-01</stageThreshold>
      <weakClassifiers>
        <_>
          <internalNodes>
            0 -1 74 -1907904786 671449224 -2011741755 541655195
            176227070 940179594 -2004317973 719292575</internalNodes>
          <leafValues>
            -7.0120483636856079e-01 4.0000000596046448e-01</leafValues></_>
        <_>
          <internalNodes>
            0 -1 152 -1512377665 67244081 -1878933475 -2105257962
            -2147411750 165150856 -2127852577 7784861</internalNodes>
          <leafValues>
            -4.8227837681770325e-01 4.1047248244285583e-01</leafValues></_>
        <_>
          <internalNodes>
            0 -1 42 1405208699 1007276038 1224736837 1192319237
            536965801 143261840 235411720 1667695367</internalNodes>
          <leafValues>
            -5.0057369470596313e-01 4.2003044486045837e-01</leafValues></_>
        <_>
          <internalNodes>
            0 -1 16 1142129081 176357392 -1073741690 -1785511790
            436801614 52988040 8547123 718355083</internalNodes>
          <leafValues>
            -5.5668532848358154e-01 3.7239584326744080e-01</leafValues></_>
        <_>
          <internalNodes>
            0 -1 114 -826657067 69451386 -1880117475 -1930760452
            1600563167 1861123967 2013126639 -1355284866</internalNodes>
          <leafValues>
            -4.0140417218208313e-01 5.4205739498138428e-01</leafValues></_>
        <_>
          <internalNodes>
            0 -1 62 2092690843 -1502630212 1006560621 753713143
            -1619151714 1756790654 1979056042 -1993087681</internalNodes>
          <leafValues>
            -3.7869906425476074e-01 5.7903552055358887e-01</leafValues></_>
        <_>
          <internalNodes>
            0 -1 38 353956350 1950371984 622650 420561155 67215520
            547422351 -1996226370 945891472</internalNodes>
          <leafValues>
            -5.3215086460113525e-01 4.1036102175712585e-01</leafValues></_></weakClassifiers></_>
    <!-- stage 1 -->
    <_>
      <maxWeakCount>9</maxWeakCount>
      <stageThreshold>-6.2046384811401367e-01</stageThreshold>
      <weakClassifiers>
        <_>
          <internalNodes>
            0 -1 6 -1248593929 -1130934253 403112208 1301124509
            696426639 -1299576808 1074729103 546439183</internalNodes>
          <leafValues>
            -5.7812500000000000e-01 3.5886213183403015e-01</leafValues></_>
        <_>
          <internalNodes>
            0 -1 30 1568138714 30081491 -2130435811 -1727986325
            1620115706 848855211 -1870593912 2000264458</internalNodes>
          <leafValues>
            -4.4069492816925049e-01 3.9943912625312805e-01</leafValues></_>
        <_>
          <internalNodes>
            0 -1 32 -1428095979 930605807 787352509 468170169 1442719357
            1015021565 -9284225 -1686674132</internalNodes>
          <leafValues>
            -3.2692763209342957e-01 4.8369750380516052e-01</leafValues></_>
        <_>
          <internalNodes>
            0 -1 7 1182453927 -1692696572 1358955784 -297414336 53166742
            805898368 -1937614712 1174595848</internalNodes>
          <leafValues>
            -5.3427565097808838e-01 3.3148708939552307e-01</leafValues></_>
        <_>
          <internalNodes>
            0 -1 113 149422067 468119210 788262408 1698413823 939466026
            935163703 -167822140 -1368588546</internalNodes>
          <leafValues>
            -3.9986103773117065e-01 4.6294161677360535e-01</leafValues></_>
        <_>
          <internalNodes>
            0 -1 97 374341343 -1152782738 134216723 813264716 1467293370
            1073577983 650090410 -830530178</internalNodes>
          <leafValues>
            -3.5627824068069458e-01 5.1089781522750854e-01</leafValues></_>
        <_>
          <internalNodes>
            0 -1 157 353491765 -2130642285 -805273005 -1338998518
            -922607416 -133066615 1095468034 139399937</internalNodes>
          <leafValues>
            -4.2720305919647217e-01 4.5326644182205200e-01</leafValues></_>
        <_>
          <internalNodes>
            0 -1 71 -780011748 318805376 285229146 709022212 657583
            1946161413 -2147280072 -312226889</internalNodes>
          <leafValues>
            -4.5533981919288635e-01 4.3522506952285767e-01</leafValues></_>
        <_>
          <internalNodes>
            0 -1 45 731824216 257039498 345014530 -1258143741 -358530896
            38993922 -234831616 1660993719</internalNodes>
          <leafValues>
            -5.0884526968002319e-01 3.8384786248207092e-01</leafValues></_></weakClassifiers></_>
    <!-- stage 2 -->
    <_>
      <maxWeakCount>9</maxWeakCount>
      <stageThreshold>-6.8512880802154541e-01</stageThreshold>
      <weakClassifiers>
        <_>
          <internalNodes>
            0 -1 24 -48636961 722479377 -1727445811 -1505737279
            -108995921 -536739568 -1870032177 35381323</internalNodes>
          <leafValues>
            -5.4824560880661011e-01 3.4521159529685974e-01</leafValues></_>
        <_>
          <internalNodes>
            0 -1 50 -799682357 1912881944 1409392712 -1122559736
            -1711175772 222069392 2097348648 491403</internalNodes>
          <leafValues>
            -4.5203578472137451e-01 3.7804409861564636e-01</leafValues></_>
        <_>
          <internalNodes>
            0 -1 57 1197105643 590548992 -2147483051 970293521 33689641
            478937352 143206696 -366264229</internalNodes>
          <leafValues>
            -4.2194271087646484e-01 4.0183725953102112e-01</leafValues></_>
        <_>
          <internalNodes>
            0 -1 101 -725153706 -2146041576 117981526 1476444504
            -1743611730 1074266129 -2138566272 1628643402</internalNodes>
          <leafValues>
            -5.3491491079330444e-01 3.1482040882110596e-01</leafValues></_>
        <_>
          <internalNodes>
            0 -1 61 2147149659 192937982 1069477429 -1413481473
            -268547769 -100845699 1866411321 -77083132</internalNodes>
          <leafValues>
            -3.2066214084625244e-01 5.8539521694183350e-01</leafValues></_>
        <_>
          <internalNodes>
            0 -1 140 -1962195821 -1979580027 -1828564585 -1404501997
            -2113772627 17351056 -1342013257 2031837582</internalNodes>
          <leafValues>
            -4.1899910569190979e-01 4.4179543852806091e-01</leafValues></_>
        <_>
          <internalNodes>
            0 -1 29 -275070278 1924923326 -1115804131 -201621511
            620312499 394131391 -1086369877 -206151769</internalNodes>
          <leafValues>
            -3.3903694152832031e-01 5.5919593572616577e-01</leafValues></_>
        <_>
          <internalNodes>
            0 -1 65 -376634957 201867651 17416747 34738305 -1056892904
            -2097209208 -1543273931 1149288498</internalNodes>
          <leafValues>
            -5.4369193315505981e-01 3.4585642814636230e-01</leafValues></_>
        <_>
          <internalNodes>
            0 -1 117 -1064845292 -1198489213 1074004162 -1535115260
            -1995192175 1637892266 -2128050143 -1323169720</internalNodes>
          <leafValues>
            -4.9874320626258850e-01 4.1044339537620544e-01</leafValues></_></weakClassifiers></_>
    <!-- stage 3 -->
    <_>
      <maxWeakCount>9</maxWeakCount>
      <stageThreshold>-7.7098596096038818e-01</stageThreshold>
      <weakClassifiers>
        <_>
          <internalNodes>
            0 -1 11 369191377 890241415 286331005 2038530057 8389019
            955988736 -401961813 2056866491</internalNodes>
          <leafValues>
            -4.8550045490264893e-01 4.4399461150169373e-01</leafValues></_>
        <_>
          <internalNodes>
            0 -1 10 -999210746 436383746 16777251 -418839544 268570801
            595656715 -1977653238 1739962624</internalNodes>
          <leafValues>
            -5.2208095788955688e-01 3.1414720416069031e-01</leafValues></_>
        <_>
          <internalNodes>
            0 -1 134 190648445 1146724434 -1828716449 97681473
            -1031730996 1250033665 -384574753 719980547</internalNodes>
          <leafValues>
            -4.7526481747627258e-01 3.9845880866050720e-01</leafValues></_>
        <_>
          <internalNodes>
            0 -1 151 268440723 1209532570 -2147281640 68751630 142617741
            -1149171704 86037 612376708</internalNodes>
          <leafValues>
            -5.2178627252578735e-01 3.6311170458793640e-01</leafValues></_>
        <_>
          <internalNodes>
            0 -1 69 1393656526 -1340850160 1377894838 812712020
            -2012706626 -1870393179 969459880 565390318</internalNodes>
          <leafValues>
            -6.2684041261672974e-01 2.2282549738883972e-01</leafValues></_>
        <_>
          <internalNodes>
            0 -1 39 757342173 -2065076507 -268451843 904441582
            1744263159 -1124761739 -562190515 773869314</internalNodes>
          <leafValues>
            -3.8396796584129333e-01 4.9873554706573486e-01</leafValues></_>
        <_>
          <internalNodes>
            0 -1 53 269588957 923940874 36966677 -854507493 1073741984
            1015054593 176235404 1293394455</internalNodes>
          <leafValues>
            -4.9337077140808105e-01 3.8687294721603394e-01</leafValues></_>
        <_>
          <internalNodes>
            0 -1 87 -1001624387 1001848478 -1090551946 -1110524163
            503143941 -33701890 -16908401 -1665712423</internalNodes>
          <leafValues>
            -3.4043878316879272e-01 5.8420115709304810e-01</leafValues></_>
        <_>
          <internalNodes>
            0 -1 27 -22204763 -1360003393 -33882259 -1648431324
            -138936861 770669943 1056929784 -379197907</internalNodes>
          <leafValues>
            -3.6625123023986816e-01 5.6003046035766602e-01</leafValues></_></weakClassifiers></_>
    <!-- stage 4 -->
    <_>
      <maxWeakCount>9</maxWeakCount>
      <stageThreshold>-7.7323389053344727e-01</stageThreshold>
      <weakClassifiers>
        <_>
          <internalNodes>
            0 -1 66 80730559 360382447 -276922823 -1111541126 385774007
            1971322111 679492395 -74713463</internalNodes>
          <leafValues>
            -4.1709402203559875e-01 4.6562498807907104e-01</leafValues></_>
        <_>
          <internalNodes>
            0 -1 58 1493365242 -267255531 352408022 -853311422
            1493862792 1638926848 -2146826104 -1064056374</internalNodes>
          <leafValues>
            -4.5714429020881653e-01 4.2092031240463257e-01</leafValues></_>
        <_>
          <internalNodes>
            0 -1 107 -849833572 1561542915 -2129063548 226789651
            -526923471 -2146754551 -1602059516 -2076497566</internalNodes>
          <leafValues>
            -3.9329490065574646e-01 4.4388639926910400e-01</leafValues></_>
        <_>
          <internalNodes>
            0 -1 37 -2129495894 -2029092598 -2146414456 -1818066430
            1619362521 134250625 541466624 -1937726172</internalNodes>
          <leafValues>
            -6.1144882440567017e-01 2.7077522873878479e-01</leafValues></_>
        <_>
          <internalNodes>
            0 -1 81 -935075122 16839 51415106 637784068 9019904
            1628569600 1644188476 1667754819</internalNodes>
          <leafValues>
            -5.3736841678619385e-01 3.7408748269081116e-01</leafValues></_>
        <_>
          <internalNodes>
            0 -1 150 1920437823 -1661108738 -1082236961 -571703561
            -587427843 436141055 -302019156 -464703699</internalNodes>
          <leafValues>
            -3.3865675330162048e-01 5.5997401475906372e-01</leafValues></_>
        <_>
          <internalNodes>
            0 -1 110 352338492 -1862205423 116746 -1827274729 1610662113
            -248971127 -2130640166 575082125</internalNodes>
          <leafValues>
            -4.1065251827239990e-01 4.3572151660919189e-01</leafValues></_>
        <_>
          <internalNodes>
            0 -1 139 1220896752 4390915 1093738525 -1055911934 437125733
            155451553 -893154563 -1469431521</internalNodes>
          <leafValues>
            -5.3334122896194458e-01 3.4464296698570251e-01</leafValues></_>
        <_>
          <internalNodes>
            0 -1 1 -259407414 1950548490 25165848 -582090742 -2012739344
            36471048 168430248 1703249408</internalNodes>
          <leafValues>
            -5.5146819353103638e-01 3.6765706539154053e-01</leafValues></_></weakClassifiers></_>
    <!-- stage 5 -->
    <_>
      <maxWeakCount>9</maxWeakCount>
      <stageThreshold>-1.1816390752792358e+00</stageThreshold>
      <weakClassifiers>
        <_>
          <internalNodes>
            0 -1 23 -536252001 -1425510036 -978840400 -1735425874
            -670895651 2090401952 -1023364208 738545408</internalNodes>
          <leafValues>
            -6.1708396673202515e-01 2.0247568190097809e-01</leafValues></_>
        <_>
          <internalNodes>
            0 -1 94 -364533204 -2104327168 67158272 147357764 1107300360
            587726985 -1878916405 169462232</internalNodes>
          <leafValues>
            -7.0074486732482910e-01 1.9171872735023499e-01</leafValues></_>
        <_>
          <internalNodes>
            0 -1 85 1532612806 302252432 66582 402686228 34702344
            1626121 1745717388 543376962</internalNodes>
          <leafValues>
            -6.5501159429550171e-01 2.3822014033794403e-01</leafValues></_>
        <_>
          <internalNodes>
            0 -1 17 -1531025666 -713228307 -65 1315729067 2113217979
            -1644888195 523104233 -1213790540</internalNodes>
          <leafValues>
            -3.7731075286865234e-01 4.4816219806671143e-01</leafValues></_>
        <_>
          <internalNodes>
            0 -1 25 1079218206 -2059370477 299320 -955808958 -935321248
            -2004875255 -1564398844 1481034316</internalNodes>
          <leafValues>
            -4.7016605734825134e-01 3.5083907842636108e-01</leafValues></_>
        <_>
          <internalNodes>
            0 -1 131 -1257175700 952909856 1073762571 1184120859
            1611170220 -921993215 1627431564 1282712336</internalNodes>
          <leafValues>
            -5.2222359180450439e-01 3.1532058119773865e-01</leafValues></_>
        <_>
          <internalNodes>
            0 -1 141 -412090511 905297278 268418687 2011656170 -572041
            -556695553 242876302 -853817477</internalNodes>
          <leafValues>
            -2.9775267839431763e-01 6.5501540899276733e-01</leafValues></_>
        <_>
          <internalNodes>
            0 -1 79 1364383178 419434496 17141808 940727872 547496372
            -645773311 281150041 606165249</internalNodes>
          <leafValues>
            -5.6970703601837158e-01 3.5471972823143005e-01</leafValues></_>
        <_>
          <internalNodes>
            0 -1 158 1075021405 -1857470464 1079218327 1125220373
            -536722382 1024098466 -1728034536 -1265937768</internalNodes>
          <leafValues>
            -4.4563269615173340e-01 4.4197335839271545e-01</leafValues></_></weakClassifiers></_>
    <!-- stage 6 -->
    <_>
      <maxWeakCount>10</maxWeakCount>
      <stageThreshold>-9.4047135114669800e-01</stageThreshold>
      <weakClassifiers>
        <_>
          <internalNodes>
            0 -1 78 1522787487 625491971 1054755 -1927917533 1250523290
            1744830465 -259515143 -74745725</internalNodes>
          <leafValues>
            -4.4139194488525391e-01 4.0668523311614990e-01</leafValues></_>
        <_>
          <internalNodes>
            0 -1 80 1683008126 1342574614 -1023295424 738222489
            -435973912 -729546752 696354830 538239210</internalNodes>
          <leafValues>
            -6.0924547910690308e-01 2.4414327740669250e-01</leafValues></_>
        <_>
          <internalNodes>
            0 -1 34 -746653505 1454997243 -18897265 1936982015
            1710703916 1534451573 1601647005 -551817478</internalNodes>
          <leafValues>
            -2.5335893034934998e-01 6.0832607746124268e-01</leafValues></_>
        <_>
          <internalNodes>
            0 -1 55 1250443467 -1206845312 1362180 -2012364719
            -511688519 -922746816 -2130638848 1499588358</internalNodes>
          <leafValues>
            -4.1043612360954285e-01 3.7048512697219849e-01</leafValues></_>
        <_>
          <internalNodes>
            0 -1 145 -949659691 1040119533 -282643 -1932541953
            -1375944843 -545947649 -67123329 -755404812</internalNodes>
          <leafValues>
            -3.3098793029785156e-01 4.7956115007400513e-01</leafValues></_>
        <_>
          <internalNodes>
            0 -1 156 281225993 415535257 1224831006 -2080321471
            -1207893955 134348938 25237776 -1946539972</internalNodes>
          <leafValues>
            -4.2427268624305725e-01 3.7564718723297119e-01</leafValues></_>
        <_>
          <internalNodes>
            0 -1 88 1690673434 688079106 17301530 -1177320443 16896324
            947922944 172144 -1507708146</internalNodes>
          <leafValues>
            -4.5915424823760986e-01 3.7834811210632324e-01</leafValues></_>
        <_>
          <internalNodes>
            0 -1 59 -1861582756 -1269494528 285217609 1283496338
            1745373252 -2121645566 101032222 624767545</internalNodes>
          <leafValues>
            -5.1024150848388672e-01 3.5412317514419556e-01</leafValues></_>
        <_>
          <internalNodes>
            0 -1 135 -33885359 967704298 -1342264871 805146338
            1677674325 -1786775557 1877339582 -27496634</internalNodes>
          <leafValues>
            -3.1840276718139648e-01 5.8918923139572144e-01</leafValues></_>
        <_>
          <internalNodes>
            0 -1 166 1259051407 1342664833 17160 1546768520 671617316
            -2139086848 42809 36001333</internalNodes>
          <leafValues>
            -5.0149935483932495e-01 3.8279044628143311e-01</leafValues></_></weakClassifiers></_>
    <!-- stage 7 -->
    <_>
      <maxWeakCount>9</maxWeakCount>
      <stageThreshold>-9.9545246362686157e-01</stageThreshold>
      <weakClassifiers>
        <_>
          <internalNodes>
            0 -1 3 1393540031 -1156345830 268469982 -1144713846 17446929
            887509122 1511132689 1282554916</internalNodes>
          <leafValues>
            -6.4057970046997070e-01 2.2499999403953552e-01</leafValues></_>
        <_>
          <internalNodes>
            0 -1 44 798204254 100683862 536936460 222602708 402807023
            1753776257 1208858448 36685900</internalNodes>
          <leafValues>
            -6.3891816139221191e-01 2.1081796288490295e-01</leafValues></_>
        <_>
          <internalNodes>
            0 -1 54 -636827320 -2109431528 67141725 -2147381108
            -1971238318 1043398683 -1602217598 -1006112759</internalNodes>
          <leafValues>
            -4.4139131903648376e-01 3.8209518790245056e-01</leafValues></_>
        <_>
          <internalNodes>
            0 -1 47 -2146373485 -1508343155 268599649 -1891073704
            553680927 704643288 1141447448 -1528422400</internalNodes>
          <leafValues>
            -4.8136183619499207e-01 3.4966683387756348e-01</leafValues></_>
        <_>
          <internalNodes>
            0 -1 164 422786013 30507020 -2147479527 -1341063162
            537051337 537395712 276988224 -1072250751</internalNodes>
          <leafValues>
            -3.9116889238357544e-01 4.3774020671844482e-01</leafValues></_>
        <_>
          <internalNodes>
            0 -1 99 1380114794 1677983794 1073774849 1396867667 164523
            1275265436 -2113076408 -49219115</internalNodes>
          <leafValues>
            -4.1739305853843689e-01 4.1388282179832458e-01</leafValues></_>
        <_>
          <internalNodes>
            0 -1 103 1039064988 -1416658966 -268570818 -1561792602
            368410390 -1275232267 -54164 -80516497</internalNodes>
          <leafValues>
            -3.9514356851577759e-01 4.5834916830062866e-01</leafValues></_>
        <_>
          <internalNodes>
            0 -1 41 1140880670 365256727 4317 118522122 8520601
            -1476358075 167921936 -1207016188</internalNodes>
          <leafValues>
            -4.6297335624694824e-01 3.9812976121902466e-01</leafValues></_>
        <_>
          <internalNodes>
            0 -1 95 -2000465582 201457924 1091063951 228130846
            1073741974 134381577 1132514105 -1088694270</internalNodes>
          <leafValues>
            -4.9660077691078186e-01 3.8440376520156860e-01</leafValues></_></weakClassifiers></_>
    <!-- stage 8 -->
    <_>
      <maxWeakCount>9</maxWeakCount>
      <stageThreshold>-7.7840334177017212e-01</stageThreshold>
      <weakClassifiers>
        <_>
          <internalNodes>
            0 -1 84 -2049899273 574492760 268699667 -1207303887
            277365179 1234348032 184666392 -1978957557</internalNodes>
          <leafValues>
            -4.8842337727546692e-01 2.8017717599868774e-01</leafValues></_>
        <_>
          <internalNodes>
            0 -1 18 -377367137 -1072638568 -2147417505 -1635770368
            -1876916031 1242570753 -2136579456 6645296</internalNodes>
          <leafValues>
            -5.9234905242919922e-01 2.3557865619659424e-01</leafValues></_>
        <_>
          <internalNodes>
            0 -1 138 -1878767201 -2011688831 805376509 -1059585898
            35655871 1981972648 671817865 -1069848575</internalNodes>
          <leafValues>
            -4.0856826305389404e-01 3.5860958695411682e-01</leafValues></_>
        <_>
          <internalNodes>
            0 -1 46 -437266349 -1686442382 737820277 2080292735
            234714622 527335279 -1526915160 -315490306</internalNodes>
          <leafValues>
            -2.3372949659824371e-01 6.4388698339462280e-01</leafValues></_>
        <_>
          <internalNodes>
            0 -1 89 -1360068621 -171966719 -69900 452783852 922091456
            -1652689033 1979690736 -462192841</internalNodes>
          <leafValues>
            -3.8991773128509521e-01 4.6301111578941345e-01</leafValues></_>
        <_>
          <internalNodes>
            0 -1 82 800590559 1676420735 -268734471 1806692220
            2013213206 -671088778 1879029553 -374184167</internalNodes>
          <leafValues>
            -3.1724360585212708e-01 5.3473883867263794e-01</leafValues></_>
        <_>
          <internalNodes>
            0 -1 40 -938326060 -1576894299 285761750 197787698
            -1585331707 731908145 -502592723 -1071224315</internalNodes>
          <leafValues>
            -5.2921265363693237e-01 3.3873406052589417e-01</leafValues></_>
        <_>
          <internalNodes>
            0 -1 129 411125907 -1967112183 16784470 1184776657
            1074415763 138936323 1208483840 -1420574511</internalNodes>
          <leafValues>
            -4.7111505270004272e-01 3.9540225267410278e-01</leafValues></_>
        <_>
          <internalNodes>
            0 -1 42 620905622 -1676083178 1426084952 -1878700032
            146960479 445153808 1509949608 1111652738</internalNodes>
          <leafValues>
            -6.1808657646179199e-01 3.3046272397041321e-01</leafValues></_></weakClassifiers></_>
    <!-- stage 9 -->
    <_>
      <maxWeakCount>9</maxWeakCount>
      <stageThreshold>-5.9372496604919434e-01</stageThreshold>
      <weakClassifiers>
        <_>
          <internalNodes>
            0 -1 0 -1495072809 2113687252 -4210849 -1828868202
            -1409957892 -134251539 -556408903 -273869671</internalNodes>
          <leafValues>
            -3.4706330299377441e-01 5.3106212615966797e-01</leafValues></_>
        <_>
          <internalNodes>
            0 -1 23 -1051962159 893849634 1761665088 -96141184 143428285
            277432704 -1591696479 608374056</internalNodes>
          <leafValues>
            -5.7353729009628296e-01 2.5446450710296631e-01</leafValues></_>
        <_>
          <internalNodes>
            0 -1 151 404299775 1074790405 4117 -1470883509 -1870593823
            -1820196728 -889149220 -1448509176</internalNodes>
          <leafValues>
            -3.9652404189109802e-01 4.1151672601699829e-01</leafValues></_>
        <_>
          <internalNodes>
            0 -1 26 109850581 1073676222 -805372353 -544688536
            2013035999 -9670809 -198225 -1023425491</internalNodes>
          <leafValues>
            -2.2530676424503326e-01 6.6103148460388184e-01</leafValues></_>
        <_>
          <internalNodes>
            0 -1 147 34693516 1104334914 268566976 101810512 -2117971680
            293765632 -1810611678 1265372300</internalNodes>
          <leafValues>
            -5.8422636985778809e-01 2.8257679939270020e-01</leafValues></_>
        <_>
          <internalNodes>
            0 -1 130 1611041045 -1862270766 -796917345 1275105745
            -1071009335 -1282211702 4272128 698350337</internalNodes>
          <leafValues>
            -4.2942938208580017e-01 3.8212332129478455e-01</leafValues></_>
        <_>
          <internalNodes>
            0 -1 52 285217068 1732263939 67190912 -317128696 -1467479904
            -2097020792 -1979678195 570655370</internalNodes>
          <leafValues>
            -4.8218759894371033e-01 3.7863224744796753e-01</leafValues></_>
        <_>
          <internalNodes>
            0 -1 63 1845165693 -1158021442 -21119364 -4247729 620698098
            -1350746129 1740357384 -126193753</internalNodes>
          <leafValues>
            -3.5430088639259338e-01 5.0740516185760498e-01</leafValues></_>
        <_>
          <internalNodes>
            0 -1 133 419763580 348180519 407982366 -2101018619
            1377110197 1359020036 -1874787833 -2089809592</internalNodes>
          <leafValues>
            -5.1554775238037109e-01 3.6539885401725769e-01</leafValues></_></weakClassifiers></_>
    <!-- stage 10 -->
    <_>
      <maxWeakCount>10</maxWeakCount>
      <stageThreshold>-9.6969157457351685e-01</stageThreshold>
      <weakClassifiers>
        <_>
          <internalNodes>
            0 -1 111 1348433499 353374273 1090717717 14767387 22479361
            -390985595 939778075 -1433180586</internalNodes>
          <leafValues>
            -4.2610365152359009e-01 3.3072915673255920e-01</leafValues></_>
        <_>
          <internalNodes>
            0 -1 17 -1262589954 -1258455187 -4179 -1082163479 -554338339
            502792191 -147951681 -207136972</internalNodes>
          <leafValues>
            -3.1389561295509338e-01 4.8757913708686829e-01</leafValues></_>
        <_>
          <internalNodes>
            0 -1 72 -1723808802 34992145 353390872 -1916534576
            1627390679 1028817024 -1560085936 1349251349</internalNodes>
          <leafValues>
            -4.7454386949539185e-01 3.3161443471908569e-01</leafValues></_>
        <_>
          <internalNodes>
            0 -1 126 33767191 298602569 1074860052 123245204 1375863096
            -1110310654 998247976 -1032761280</internalNodes>
          <leafValues>
            -4.2071723937988281e-01 3.6757805943489075e-01</leafValues></_>
        <_>
          <internalNodes>
            0 -1 167 609710262 -939390827 65538 436495880 -1459526782
            8401025 554295477 -1877413220</internalNodes>
          <leafValues>
            -4.7651165723800659e-01 3.3075422048568726e-01</leafValues></_>
        <_>
          <internalNodes>
            0 -1 33 1928232623 -1351619018 2147364669 -806424645 -578505
            1048543100 2138926894 -1620844555</internalNodes>
          <leafValues>
            -3.6365970969200134e-01 4.8900431394577026e-01</leafValues></_>
        <_>
          <internalNodes>
            0 -1 60 -763356776 302632003 38986 1393852636 344968
            -1728053083 538996325 -1449836410</internalNodes>
          <leafValues>
            -3.9760524034500122e-01 4.3225345015525818e-01</leafValues></_>
        <_>
          <internalNodes>
            0 -1 92 1480653788 893419586 17058394 76632465 -2122317155
            413270020 1094713362 -622337498</internalNodes>
          <leafValues>
            -4.2310181260108948e-01 4.4478446245193481e-01</leafValues></_>
        <_>
          <internalNodes>
            0 -1 51 -54749469 -1494528228 -524482 788196282 1920756671
            368409464 -5474686 -448338423</internalNodes>
          <leafValues>
            -3.8151955604553223e-01 4.9296617507934570e-01</leafValues></_>
        <_>
          <internalNodes>
            0 -1 26 1112049672 -2053631978 16778399 1073795358 102760690
            84967426 -2088630239 -1977993174</internalNodes>
          <leafValues>
            -5.3933733701705933e-01 3.4350085258483887e-01</leafValues></_></weakClassifiers></_>
    <!-- stage 11 -->
    <_>
      <maxWeakCount>8</maxWeakCount>
      <stageThreshold>-1.1008995771408081e+00</stageThreshold>
      <weakClassifiers>
        <_>
          <internalNodes>
            0 -1 108 336689013 271073536 -2147413823 -1669066091
            35153354 -1058815871 1208585190 -1498969336</internalNodes>
          <leafValues>
            -4.7448426485061646e-01 2.7784025669097900e-01</leafValues></_>
        <_>
          <internalNodes>
            0 -1 112 -1125656037 -1729102084 805273269 -1497665942
            2146116934 1878491007 1069442393 -524567489</internalNodes>
          <leafValues>
            -3.6393928527832031e-01 4.1676494479179382e-01</leafValues></_>
        <_>
          <internalNodes>
            0 -1 159 487000753 1140922657 -1694398313 -1542450876
            1621254533 1266909601 -2011608120 -2004602840</internalNodes>
          <leafValues>
            -4.5411062240600586e-01 3.6184743046760559e-01</leafValues></_>
        <_>
          <internalNodes>
            0 -1 70 580423417 -324206649 -1094779013 -1388822983 -672009
            -713195521 -402899143 -1741149895</internalNodes>
          <leafValues>
            -3.8002952933311462e-01 4.6019610762596130e-01</leafValues></_>
        <_>
          <internalNodes>
            0 -1 86 -1610290594 914542977 285311377 -1895415806
            1078440233 -1743093373 -2013024212 -1333728900</internalNodes>
          <leafValues>
            -5.3178822994232178e-01 3.1963232159614563e-01</leafValues></_>
        <_>
          <internalNodes>
            0 -1 35 1114620541 147963992 -603647701 1006702601 271076123
            1242169409 671623224 -210515960</internalNodes>
          <leafValues>
            -4.6323174238204956e-01 4.1797751188278198e-01</leafValues></_>
        <_>
          <internalNodes>
            0 -1 161 866976605 1714720775 -1342111660 544443429 115230
            -1736244983 1904429537 38191643</internalNodes>
          <leafValues>
            -4.9644231796264648e-01 4.0830406546592712e-01</leafValues></_>
        <_>
          <internalNodes>
            0 -1 163 1463223219 868697345 -645918381 -1966014462
            1250557966 1811974144 1477132802 -972470076</internalNodes>
          <leafValues>
            -4.5464533567428589e-01 4.4219657778739929e-01</leafValues></_></weakClassifiers></_>
    <!-- stage 12 -->
    <_>
      <maxWeakCount>9</maxWeakCount>
      <stageThreshold>-8.4885245561599731e-01</stageThreshold>
      <weakClassifiers>
        <_>
          <internalNodes>
            0 -1 77 42042767 185712786 63828 -1730195327 1484948442
            1302341144 1208009147 -641071431</internalNodes>
          <leafValues>
            -4.5776849985122681e-01 2.9259693622589111e-01</leafValues></_>
        <_>
          <internalNodes>
            0 -1 105 -1719189179 1238368640 1099002007 1083340547
            -1451212111 1220575488 1376022531 -2098058623</internalNodes>
          <leafValues>
            -3.8059526681900024e-01 3.7333369255065918e-01</leafValues></_>
        <_>
          <internalNodes>
            0 -1 122 -385663947 596741464 268554240 572400836 403177793
            1795178505 -1725656095 -231283836</internalNodes>
          <leafValues>
            -4.1765522956848145e-01 3.8831612467765808e-01</leafValues></_>
        <_>
          <internalNodes>
            0 -1 78 1259776430 659623952 1229164578 202833920 289935573
            1627799819 143663988 1804118185</internalNodes>
          <leafValues>
            -5.8241599798202515e-01 2.6780012249946594e-01</leafValues></_>
        <_>
          <internalNodes>
            0 -1 36 1208139870 -900464627 -1777131451 -271842999
            -2097143572 1753221297 -645332850 -242939380</internalNodes>
          <leafValues>
            -4.1245540976524353e-01 3.9642092585563660e-01</leafValues></_>
        <_>
          <internalNodes>
            0 -1 13 694177078 -1790795635 -2147318774 -931028955
            1091194996 1545109514 1073807921 -2079767983</internalNodes>
          <leafValues>
            -5.2316617965698242e-01 3.4140071272850037e-01</leafValues></_>
        <_>
          <internalNodes>
            0 -1 153 -1584389803 1687437568 269828358 747638848
            -938977108 84705408 -394180381 717249228</internalNodes>
          <leafValues>
            -6.0253930091857910e-01 3.0468711256980896e-01</leafValues></_>
        <_>
          <internalNodes>
            0 -1 136 -1790287564 -1986904047 1090601219 -1743548261
            -1609986003 345571337 -1861936477 -1987474928</internalNodes>
          <leafValues>
            -4.0622672438621521e-01 4.6239402890205383e-01</leafValues></_>
        <_>
          <internalNodes>
            0 -1 75 1207959481 -1448399058 -1413588611 1207713751
            -2132664 1879043967 1044381611 -538221217</internalNodes>
          <leafValues>
            -3.3714964985847473e-01 6.0407543182373047e-01</leafValues></_></weakClassifiers></_>
    <!-- stage 13 -->
    <_>
      <maxWeakCount>10</maxWeakCount>
      <stageThreshold>-1.2763824462890625e+00</stageThreshold>
      <weakClassifiers>
        <_>
          <internalNodes>
            0 -1 104 -1444459241 318919939 -2004481643 513173652
            -1300084236 1242103809 -1331285497 -1441771459</internalNodes>
          <leafValues>
            -4.8358863592147827e-01 2.8125000000000000e-01</leafValues></_>
        <_>
          <internalNodes>
            0 -1 68 -2079751730 -1977839245 362585 1196492848
            -2147366447 889946240 159515035 -342109789</internalNodes>
          <leafValues>
            -4.0587216615676880e-01 3.4467333555221558e-01</leafValues></_>
        <_>
          <internalNodes>
            0 -1 142 1646941981 350070746 1065425 738394178 310378577
            545259656 -2063574516 1451413619</internalNodes>
          <leafValues>
            -4.6025788784027100e-01 3.1993579864501953e-01</leafValues></_>
        <_>
          <internalNodes>
            0 -1 119 778303371 1571618801 -259 -1897087041 -1090618109
            -33652748 1593786096 -1427157225</internalNodes>
          <leafValues>
            -2.6536613702774048e-01 5.8408850431442261e-01</leafValues></_>
        <_>
          <internalNodes>
            0 -1 73 92521501 1359810587 -788315751 -788356851 1346447416
            184590346 -2012738655 -1185793223</internalNodes>
          <leafValues>
            -4.1038942337036133e-01 3.9683714509010315e-01</leafValues></_>
        <_>
          <internalNodes>
            0 -1 144 51466553 290013218 889811204 -1936813568 1091109133
            -1866399485 956549625 -365096352</internalNodes>
          <leafValues>
            -3.8795518875122070e-01 4.2959502339363098e-01</leafValues></_>
        <_>
          <internalNodes>
            0 -1 162 903822075 -572330821 738131947 15542245 1610568670
            -692420 1174198221 -658899239</internalNodes>
          <leafValues>
            -3.0694788694381714e-01 5.6271636486053467e-01</leafValues></_>
        <_>
          <internalNodes>
            0 -1 55 1694909658 134338567 17911824 -1341685744 1224747401
            -452853750 -394049017 -746159586</internalNodes>
          <leafValues>
            -4.2604821920394897e-01 4.0145960450172424e-01</leafValues></_>
        <_>
          <internalNodes>
            0 -1 128 -617611491 -17367443 2147200892 -1611052033
            1996332069 -1073741825 2130521989 -813638081</internalNodes>
          <leafValues>
            -3.0600395798683167e-01 6.2817084789276123e-01</leafValues></_>
        <_>
          <internalNodes>
            0 -1 31 -1996167869 222384185 808469533 -1525219327
            -1400880720 1639155848 1619017730 1095475226</internalNodes>
          <leafValues>
            -4.2513260245323181e-01 4.7030550241470337e-01</leafValues></_></weakClassifiers></_>
    <!-- stage 14 -->
    <_>
      <maxWeakCount>9</maxWeakCount>
      <stageThreshold>-6.5736752748489380e-01</stageThreshold>
      <weakClassifiers>
        <_>
          <internalNodes>
            0 -1 67 -2116190977 244810752 285317457 76026196 957415611
            516593664 -1040033792 2139228814</internalNodes>
          <leafValues>
            -5.2926206588745117e-01 2.2070312500000000e-01</leafValues></_>
        <_>
          <internalNodes>
            0 -1 132 143533457 5390658 286858499 -135100983 -660176127
            -2004791285 -519501163 -19519471</internalNodes>
          <leafValues>
            -4.0133616328239441e-01 3.4210759401321411e-01</leafValues></_>
        <_>
          <internalNodes>
            0 -1 9 -1004361330 8389378 -2147221248 -988543742 1342204905
            151191685 -888928244 872122433</internalNodes>
          <leafValues>
            -4.5364844799041748e-01 3.2020801305770874e-01</leafValues></_>
        <_>
          <internalNodes>
            0 -1 125 -8393219 -1745035522 -268501249 -1241911299 -725156
            -447760386 1857357634 -1034694906</internalNodes>
          <leafValues>
            -2.6476523280143738e-01 5.7626295089721680e-01</leafValues></_>
        <_>
          <internalNodes>
            0 -1 12 601839199 -1418969109 250588866 1476100061
            1476378486 -474054786 -697452777 -835335115</internalNodes>
          <leafValues>
            -3.5831239819526672e-01 4.7302865982055664e-01</leafValues></_>
        <_>
          <internalNodes>
            0 -1 28 1484843191 -2146889648 -1877966322 1493746002
            1099043240 -1878456280 1073821712 1586650612</internalNodes>
          <leafValues>
            -4.0982344746589661e-01 4.1916650533676147e-01</leafValues></_>
        <_>
          <internalNodes>
            0 -1 90 285325650 17862672 -2129639338 1292456052 1644437715
            -779567093 1506490369 1447456513</internalNodes>
          <leafValues>
            -4.7744286060333252e-01 3.9488995075225830e-01</leafValues></_>
        <_>
          <internalNodes>
            0 -1 120 -542114090 -33638402 -66319 687759039 1874234772
            -163841 -1225336986 -492081227</internalNodes>
          <leafValues>
            -3.6308586597442627e-01 4.9548375606536865e-01</leafValues></_>
        <_>
          <internalNodes>
            0 -1 32 138436640 88248595 1074006249 289440514 1342712909
            9012227 1929881627 1791431114</internalNodes>
          <leafValues>
            -5.7732218503952026e-01 3.1463521718978882e-01</leafValues></_></weakClassifiers></_>
    <!-- stage 15 -->
    <_>
      <maxWeakCount>10</maxWeakCount>
      <stageThreshold>-9.3384486436843872e-01</stageThreshold>
      <weakClassifiers>
        <_>
          <internalNodes>
            0 -1 124 1107632587 603246657 -1055203819 676593730
            2021730474 193577001 277404056 -928265541</internalNodes>
          <leafValues>
            -4.7570621967315674e-01 2.4972972273826599e-01</leafValues></_>
        <_>
          <internalNodes>
            0 -1 121 244204101 56317197 1476477841 879757337 -805306264
            -200728509 -1862266088 -1943253436</internalNodes>
          <leafValues>
            -4.9017786979675293e-01 2.8345125913619995e-01</leafValues></_>
        <_>
          <internalNodes>
            0 -1 15 1256675050 535674493 -1359036887 -1083461665
            1776697290 -822214793 -1459625751 -210501831</internalNodes>
          <leafValues>
            -3.2492461800575256e-01 4.5020979642868042e-01</leafValues></_>
        <_>
          <internalNodes>
            0 -1 4 1401291798 -587183799 1560285189 1191215120 159420601
            1149304847 193298952 367372809</internalNodes>
          <leafValues>
            -4.4252440333366394e-01 3.9257282018661499e-01</leafValues></_>
        <_>
          <internalNodes>
            0 -1 56 240842442 780748160 -787445679 1111490692 1135757409
            1283982336 136060946 -58615601</internalNodes>
          <leafValues>
            -5.7468962669372559e-01 2.7167832851409912e-01</leafValues></_>
        <_>
          <internalNodes>
            0 -1 102 -1779580932 2092904426 2147462301 -1360269512
            -1140907172 -570626049 -1208014966 -390967753</internalNodes>
          <leafValues>
            -3.5980805754661560e-01 4.8017770051956177e-01</leafValues></_>
        <_>
          <internalNodes>
            0 -1 49 -303358969 2100100733 -268505092 -541589863
            -177162828 -251740161 2129870681 -1921515928</internalNodes>
          <leafValues>
            -3.3389794826507568e-01 5.0707709789276123e-01</leafValues></_>
        <_>
          <internalNodes>
            0 -1 93 -805311585 247185150 -268489733 1711255291 805142498
            -538058753 -285219140 -447255203</internalNodes>
          <leafValues>
            -2.9719746112823486e-01 5.9783715009689331e-01</leafValues></_>
        <_>
          <internalNodes>
            0 -1 146 8220619 -25287091 -269582340 -1281032200 1191116759
            -186319234 1341027602 -1460141954</internalNodes>
          <leafValues>
            -3.6057999730110168e-01 5.1557993888854980e-01</leafValues></_>
        <_>
          <internalNodes>
            0 -1 64 38762309 75677697 276824117 -1861115820 944394429
            -1694498797 1766473783 -1710964185</internalNodes>
          <leafValues>
            -4.8616614937782288e-01 3.8814267516136169e-01</leafValues></_></weakClassifiers></_>
    <!-- stage 16 -->
    <_>
      <maxWeakCount>8</maxWeakCount>
      <stageThreshold>-8.4205657243728638e-01</stageThreshold>
      <weakClassifiers>
        <_>
          <internalNodes>
            0 -1 83 1533006827 666874878 1442758652 439844207 1945995247
            -92274691 1543462955 -480778653</internalNodes>
          <leafValues>
            -3.2639405131340027e-01 5.3548389673233032e-01</leafValues></_>
        <_>
          <internalNodes>
            0 -1 96 820093062 213913648 1744835648 -2043838054
            -662695898 730433577 134269066 1621999763</internalNodes>
          <leafValues>
            -7.0592612028121948e-01 2.2667659819126129e-01</leafValues></_>
        <_>
          <internalNodes>
            0 -1 165 1875582894 577617 540803 214140999 -1971314679
            406880272 -610729565 854211</internalNodes>
          <leafValues>
            -5.1272881031036377e-01 2.8098869323730469e-01</leafValues></_>
        <_>
          <internalNodes>
            0 -1 133 -1337580999 -1593798499 -1845407596 -1961754624
            1140918197 -666501055 419584004 572538928</internalNodes>
          <leafValues>
            -5.7844239473342896e-01 2.6252040266990662e-01</leafValues></_>
        <_>
          <internalNodes>
            0 -1 98 695586266 547409920 -2147380968 549584928 1208429128
            796967040 -1303789440 1854554633</internalNodes>
          <leafValues>
            -6.0356616973876953e-01 2.3590971529483795e-01</leafValues></_>
        <_>
          <internalNodes>
            0 -1 2 -62218058 1207997825 82057 -243019610 21410
            -1988095990 168354240 555214889</internalNodes>
          <leafValues>
            -4.6678638458251953e-01 3.5102587938308716e-01</leafValues></_>
        <_>
          <internalNodes>
            0 -1 43 1158728404 319361058 403750954 2017460224 577307015
            2064121993 1653579809 206396984</internalNodes>
          <leafValues>
            -4.8645600676536560e-01 3.6819544434547424e-01</leafValues></_>
        <_>
          <internalNodes>
            0 -1 91 625349586 2000879771 -2147446218 417157138
            1388343554 168525824 151176240 -1669119931</internalNodes>
          <leafValues>
            -4.7661048173904419e-01 3.4168517589569092e-01</leafValues></_></weakClassifiers></_>
    <!-- stage 17 -->
    <_>
      <maxWeakCount>8</maxWeakCount>
      <stageThreshold>-6.9291210174560547e-01</stageThreshold>
      <weakClassifiers>
        <_>
          <internalNodes>
            0 -1 22 -1609066277 538460186 17367342 892113035 -745902925
            -2004672501 -931019957 -2070552032</internalNodes>
          <leafValues>
            -4.3232324719429016e-01 2.9024389386177063e-01</leafValues></_>
        <_>
          <internalNodes>
            0 -1 76 2072174483 441567313 -671072246 696455248 8652822
            147374082 688443040 -1001142267</internalNodes>
          <leafValues>
            -3.6561357975006104e-01 3.6446794867515564e-01</leafValues></_>
        <_>
          <internalNodes>
            0 -1 19 1358867319 -570769666 1610530559 1378323967 -590209
            1341554685 -1249906759 714340865</internalNodes>
          <leafValues>
            -2.9291814565658569e-01 4.5674479007720947e-01</leafValues></_>
        <_>
          <internalNodes>
            0 -1 149 -235160577 2105671641 585900981 -576459677
            1727815055 -950042769 518346741 -992454596</internalNodes>
          <leafValues>
            -2.9227799177169800e-01 5.4252707958221436e-01</leafValues></_>
        <_>
          <internalNodes>
            0 -1 49 840389714 1358954834 51548630 -335016806 1073742354
            1835211 -2104819381 1208195385</internalNodes>
          <leafValues>
            -4.0212810039520264e-01 4.0492367744445801e-01</leafValues></_>
        <_>
          <internalNodes>
            0 -1 154 1894486866 1446901503 2076114844 -1289013633
            1870558566 1073643511 1996304220 -958398555</internalNodes>
          <leafValues>
            -3.3620819449424744e-01 5.1127701997756958e-01</leafValues></_>
        <_>
          <internalNodes>
            0 -1 14 1934611046 2046640127 -167854536 1156689145
            2129621880 1572143025 1857405918 -36499636</internalNodes>
          <leafValues>
            -3.0052202939987183e-01 5.5208224058151245e-01</leafValues></_>
        <_>
          <internalNodes>
            0 -1 152 97005717 406934035 553715156 348164420 302002316
            134348872 -1987540887 708410</internalNodes>
          <leafValues>
            -5.3062123060226440e-01 3.5587400197982788e-01</leafValues></_></weakClassifiers></_>
    <!-- stage 18 -->
    <_>
      <maxWeakCount>11</maxWeakCount>
      <stageThreshold>-9.7991818189620972e-01</stageThreshold>
      <weakClassifiers>
        <_>
          <internalNodes>
            0 -1 14 -137367201 1883201007 -167854151 -1528328463
            2012197747 901578683 924816219 -1816025781</internalNodes>
          <leafValues>
            -3.1831830739974976e-01 4.8953974246978760e-01</leafValues></_>
        <_>
          <internalNodes>
            0 -1 48 1144844802 1162874897 1146970 -636956474 1107333789
            -507051896 -1573969912 672416273</internalNodes>
          <leafValues>
            -5.2861857414245605e-01 2.5747042894363403e-01</leafValues></_>
        <_>
          <internalNodes>
            0 -1 5 -1879023795 1360007168 -2130698820 -162495464
            -2130673509 -1870659310 -499075027 1743653485</internalNodes>
          <leafValues>
            -4.3397453427314758e-01 3.3786380290985107e-01</leafValues></_>
        <_>
          <internalNodes>
            0 -1 155 -566493385 2075209405 184203062 1177812206
            -1158193204 762290143 -1342255122 -119573746</internalNodes>
          <leafValues>
            -2.4734224379062653e-01 5.8956569433212280e-01</leafValues></_>
        <_>
          <internalNodes>
            0 -1 160 753388837 1022880607 2000592843 -21102856
            2097086321 -270598146 -792838227 -1210753076</internalNodes>
          <leafValues>
            -3.4772875905036926e-01 4.6314206719398499e-01</leafValues></_>
        <_>
          <internalNodes>
            0 -1 123 1653019128 549965954 -2130673399 -1945091966
            142631240 142672384 293740779 -628930904</internalNodes>
          <leafValues>
            -4.5279255509376526e-01 3.5695281624794006e-01</leafValues></_>
        <_>
          <internalNodes>
            0 -1 100 -964001850 -33685505 -1073741900 1072180159
            2012710397 -1879703681 -310939652 -1104975209</internalNodes>
          <leafValues>
            -3.1031927466392517e-01 5.0117933750152588e-01</leafValues></_>
        <_>
          <internalNodes>
            0 -1 47 176481620 85721109 -2046816220 -2011561950
            -779603827 -129683423 50334872 -1543408863</internalNodes>
          <leafValues>
            -4.7617208957672119e-01 3.6033436655998230e-01</leafValues></_>
        <_>
          <internalNodes>
            0 -1 116 1786900771 -2055077871 1125257747 -315550951
            578872456 847773698 671679107 -946798040</internalNodes>
          <leafValues>
            -4.0264260768890381e-01 4.5665559172630310e-01</leafValues></_>
        <_>
          <internalNodes>
            0 -1 143 1884815101 -1843204308 -58904761 -1419269025
            2013222350 1207828477 1451097020 -1707095265</internalNodes>
          <leafValues>
            -2.6250100135803223e-01 5.9299582242965698e-01</leafValues></_>
        <_>
          <internalNodes>
            0 -1 109 -2010979675 -1814822734 1122327 369373851
            1092157833 -1584791294 -1878292443 653601819</internalNodes>
          <leafValues>
            -4.2840278148651123e-01 4.3169364333152771e-01</leafValues></_></weakClassifiers></_>
    <!-- stage 19 -->
    <_>
      <maxWeakCount>12</maxWeakCount>
      <stageThreshold>-8.8707911968231201e-01</stageThreshold>
      <weakClassifiers>
        <_>
          <internalNodes>
            0 -1 8 1120638 -2026673920 16777597 -1795090411 -2004831741
            446791753 135571927 92309566</internalNodes>
          <leafValues>
            -5.3947371244430542e-01 2.0952381193637848e-01</leafValues></_>
        <_>
          <internalNodes>
            0 -1 62 -1346437903 2012200879 -67209923 -50544684
            -1619680010 -1178599442 -151584853 -1358191297</internalNodes>
          <leafValues>
            -2.3217926919460297e-01 6.0671913623809814e-01</leafValues></_>
        <_>
          <internalNodes>
            0 -1 66 470995704 168394925 -1325023211 -1614741296
            143147186 -668981240 692599155 180404291</internalNodes>
          <leafValues>
            -3.7779888510704041e-01 3.5734942555427551e-01</leafValues></_>
        <_>
          <internalNodes>
            0 -1 115 52872576 1359745241 268453969 -397176695 579874877
            2143363080 455052554 -1155327742</internalNodes>
          <leafValues>
            -3.9428877830505371e-01 3.6458656191825867e-01</leafValues></_>
        <_>
          <internalNodes>
            0 -1 20 130720659 1342325251 102404 1074044938 536912352
            589840 -1853878141 89135621</internalNodes>
          <leafValues>
            -5.2406257390975952e-01 3.0605545639991760e-01</leafValues></_>
        <_>
          <internalNodes>
            0 -1 143 2107563899 304758718 -1652707517 829549662
            2146915662 -1107468289 -679662724 -931732642</internalNodes>
          <leafValues>
            -2.9065093398094177e-01 5.2958238124847412e-01</leafValues></_>
        <_>
          <internalNodes>
            0 -1 21 -1971187396 -930002925 -805277688 92832011
            -1199484879 -2139029470 -1567489759 1652560661</internalNodes>
          <leafValues>
            -6.2073880434036255e-01 2.3172634840011597e-01</leafValues></_>
        <_>
          <internalNodes>
            0 -1 137 -787476442 75534498 268470552 1083195392
            -1592639476 -1051000575 -2146815736 551947785</internalNodes>
          <leafValues>
            -6.5826451778411865e-01 2.2716678678989410e-01</leafValues></_>
        <_>
          <internalNodes>
            0 -1 127 -588251530 -2111307911 536832506 1240887285
            -671211190 -1753645057 -1107393569 -84240771</internalNodes>
          <leafValues>
            -3.1759515404701233e-01 5.3102231025695801e-01</leafValues></_>
        <_>
          <internalNodes>
            0 -1 118 503298108 1073283068 -8 -1593970945 2130013781
            880179199 -671191320 -67771802</internalNodes>
          <leafValues>
            -3.6289423704147339e-01 4.7583130002021790e-01</leafValues></_>
        <_>
          <internalNodes>
            0 -1 148 1844198969 -1663324242 1073670691 -1884751125
            -671252482 201309031 2130685788 -906060454</internalNodes>
          <leafValues>
            -3.1439381837844849e-01 5.4024523496627808e-01</leafValues></_>
        <_>
          <internalNodes>
            0 -1 106 1944977133 -1615941649 -1347452999 1106050983
            2147237725 2088599423 -1208533639 -990387207</internalNodes>
          <leafValues>
            -3.5516989231109619e-01 4.7837752103805542e-01</leafValues></_></weakClassifiers></_></stages>
  <features>
    <_>
      <rect>
        0 0 2 1</rect></_>
    <_>
      <rect>
        0 0 5 2</rect></_>
    <_>
      <rect>
        0 1 3 3</rect></_>
    <_>
      <rect>
        0 1 5 3</rect></_>
    <_>
      <rect>
        0 1 7 2</rect></_>
    <_>
      <rect>
        0 1 7 3</rect></_>
    <_>
      <rect>
        0 1 8 3</rect></_>
    <_>
      <rect>
        0 2 5 2</rect></_>
    <_>
      <rect>
        0 3 7 2</rect></_>
    <_>
      <rect>
        0 4 2 2</rect></_>
    <_>
      <rect>
        0 4 4 2</rect></_>
    <_>
      <rect>
        0 4 7 2</rect></_>
    <_>
      <rect>
        0 5 1 1</rect></_>
    <_>
      <rect>
        0 6 1 1</rect></_>
    <_>
      <rect>
        0 7 1 1</rect></_>
    <_>
      <rect>
        0 7 4 1</rect></_>
    <_>
      <rect>
        0 7 5 1</rect></_>
    <_>
      <rect>
        1 0 3 1</rect></_>
    <_>
      <rect>
        1 0 4 3</rect></_>
    <_>
      <rect>
        1 1 1 1</rect></_>
    <_>
      <rect>
        1 1 1 2</rect></_>
    <_>
      <rect>
        1 1 2 1</rect></_>
    <_>
      <rect>
        1 1 2 2</rect></_>
    <_>
      <rect>
        1 1 5 3</rect></_>
    <_>
      <rect>
        1 1 8 3</rect></_>
    <_>
      <rect>
        1 2 4 2</rect></_>
    <_>
      <rect>
        1 3 2 1</rect></_>
    <_>
      <rect>
        1 4 3 1</rect></_>
    <_>
      <rect>
        1 4 3 2</rect></_>
    <_>
      <rect>
        1 4 4 2</rect></_>
    <_>
      <rect>
        1 4 5 2</rect></_>
    <_>
      <rect>
        1 5 2 1</rect></_>
    <_>
      <rect>
        1 6 2 1</rect></_>
    <_>
      <rect>
        1 6 3 1</rect></_>
    <_>
      <rect>
        1 7 2 1</rect></_>
    <_>
      <rect>
        1 7 4 1</rect></_>
    <_>
      <rect>
        2 0 3 1</rect></_>
    <_>
      <rect>
        2 1 2 2</rect></_>
    <_>
      <rect>
        2 1 6 3</rect></_>
    <_>
      <rect>
        2 2 2 1</rect></_>
    <_>
      <rect>
        2 3 3 1</rect></_>
    <_>
      <rect>
        2 3 3 2</rect></_>
    <_>
      <rect>
        2 3 4 2</rect></_>
    <_>
      <rect>
        2 4 2 1</rect></_>
    <_>
      <rect>
        2 4 6 2</rect></_>
    <_>
      <rect>
        2 5 2 1</rect></_>
    <_>
      <rect>
        2 6 2 1</rect></_>
    <_>
      <rect>
        3 0 2 1</rect></_>
    <_>
      <rect>
        3 0 2 2</rect></_>
    <_>
      <rect>
        3 0 4 2</rect></_>
    <_>
      <rect>
        3 0 4 3</rect></_>
    <_>
      <rect>
        3 2 3 2</rect></_>
    <_>
      <rect>
        3 2 6 1</rect></_>
    <_>
      <rect>
        3 3 5 2</rect></_>
    <_>
      <rect>
        3 4 3 1</rect></_>
    <_>
      <rect>
        3 4 3 2</rect></_>
    <_>
      <rect>
        3 6 3 1</rect></_>
    <_>
      <rect>
        3 7 3 1</rect></_>
    <_>
      <rect>
        4 0 7 2</rect></_>
    <_>
      <rect>
        4 2 6 2</rect></_>
    <_>
      <rect>
        4 3 2 2</rect></_>
    <_>
      <rect>
        4 3 3 2</rect></_>
    <_>
      <rect>
        4 4 2 1</rect></_>
    <_>
      <rect>
        4 4 3 2</rect></_>
    <_>
      <rect>
        4 5 1 1</rect></_>
    <_>
      <rect>
        4 5 2 1</rect></_>
    <_>
      <rect>
        4 7 3 1</rect></_>
    <_>
      <rect>
        4 7 5 1</rect></_>
    <_>
      <rect>
        4 7 7 1</rect></_>
    <_>
      <rect>
        5 0 6 3</rect></_>
    <_>
      <rect>
        5 2 1 1</rect></_>
    <_>
      <rect>
        5 3 3 2</rect></_>
    <_>
      <rect>
        5 3 5 2</rect></_>
    <_>
      <rect>
        5 4 1 1</rect></_>
    <_>
      <rect>
        5 4 6 2</rect></_>
    <_>
      <rect>
        5 5 2 1</rect></_>
    <_>
      <rect>
        5 6 3 1</rect></_>
    <_>
      <rect>
        5 6 6 1</rect></_>
    <_>
      <rect>
        5 7 4 1</rect></_>
    <_>
      <rect>
        6 1 3 3</rect></_>
    <_>
      <rect>
        6 1 6 3</rect></_>
    <_>
      <rect>
        6 2 4 2</rect></_>
    <_>
      <rect>
        6 3 2 2</rect></_>
    <_>
      <rect>
        6 7 1 1</rect></_>
    <_>
      <rect>
        6 7 4 1</rect></_>
    <_>
      <rect>
        7 0 5 3</rect></_>
    <_>
      <rect>
        7 1 2 1</rect></_>
    <_>
      <rect>
        7 2 1 1</rect></_>
    <_>
      <rect>
        7 2 3 2</rect></_>
    <_>
      <rect>
        7 3 2 1</rect></_>
    <_>
      <rect>
        7 3 3 2</rect></_>
    <_>
      <rect>
        7 4 2 2</rect></_>
    <_>
      <rect>
        7 4 3 2</rect></_>
    <_>
      <rect>
        7 4 4 2</rect></_>
    <_>
      <rect>
        7 4 6 2</rect></_>
    <_>
      <rect>
        7 6 2 1</rect></_>
    <_>
      <rect>
        7 6 6 1</rect></_>
    <_>
      <rect>
        7 7 2 1</rect></_>
    <_>
      <rect>
        7 7 3 1</rect></_>
    <_>
      <rect>
        8 0 1 2</rect></_>
    <_>
      <rect>
        8 0 2 2</rect></_>
    <_>
      <rect>
        8 0 5 3</rect></_>
    <_>
      <rect>
        8 2 2 2</rect></_>
    <_>
      <rect>
        8 3 2 1</rect></_>
    <_>
      <rect>
        8 4 1 1</rect></_>
    <_>
      <rect>
        8 5 1 1</rect></_>
    <_>
      <rect>
        8 6 3 1</rect></_>
    <_>
      <rect>
        9 0 2 1</rect></_>
    <_>
      <rect>
        9 0 5 3</rect></_>
    <_>
      <rect>
        9 1 1 1</rect></_>
    <_>
      <rect>
        9 1 3 2</rect></_>
    <_>
      <rect>
        9 3 2 2</rect></_>
    <_>
      <rect>
        9 5 2 1</rect></_>
    <_>
      <rect>
        9 7 2 1</rect></_>
    <_>
      <rect>
        9 7 5 1</rect></_>
    <_>
      <rect>
        10 0 2 1</rect></_>
    <_>
      <rect>
        10 0 4 2</rect></_>
    <_>
      <rect>
        10 1 2 1</rect></_>
    <_>
      <rect>
        10 1 3 2</rect></_>
    <_>
      <rect>
        10 3 1 1</rect></_>
    <_>
      <rect>
        10 3 2 2</rect></_>
    <_>
      <rect>
        10 4 1 1</rect></_>
    <_>
      <rect>
        10 5 2 1</rect></_>
    <_>
      <rect>
        10 6 1 1</rect></_>
    <_>
      <rect>
        10 6 3 1</rect></_>
    <_>
      <rect>
        11 1 3 2</rect></_>
    <_>
      <rect>
        11 4 2 1</rect></_>
    <_>
      <rect>
        11 5 2 1</rect></_>
    <_>
      <rect>
        11 6 1 1</rect></_>
    <_>
      <rect>
        11 7 3 1</rect></_>
    <_>
      <rect>
        12 0 2 1</rect></_>
    <_>
      <rect>
        12 0 4 3</rect></_>
    <_>
      <rect>
        12 1 1 1</rect></_>
    <_>
      <rect>
        12 2 2 2</rect></_>
    <_>
      <rect>
        12 3 3 2</rect></_>
    <_>
      <rect>
        12 5 2 1</rect></_>
    <_>
      <rect>
        13 0 2 1</rect></_>
    <_>
      <rect>
        13 0 3 3</rect></_>
    <_>
      <rect>
        13 3 4 1</rect></_>
    <_>
      <rect>
        13 4 2 2</rect></_>
    <_>
      <rect>
        13 4 4 2</rect></_>
    <_>
      <rect>
        13 5 1 1</rect></_>
    <_>
      <rect>
        13 5 2 1</rect></_>
    <_>
      <rect>
        13 7 2 1</rect></_>
    <_>
      <rect>
        14 1 1 1</rect></_>
    <_>
      <rect>
        15 0 1 1</rect></_>
    <_>
      <rect>
        15 2 3 2</rect></_>
    <_>
      <rect>
        15 4 2 2</rect></_>
    <_>
      <rect>
        15 5 2 1</rect></_>
    <_>
      <rect>
        15 7 1 1</rect></_>
    <_>
      <rect>
        16 1 2 2</rect></_>
    <_>
      <rect>
        16 1 3 1</rect></_>
    <_>
      <rect>
        16 2 3 2</rect></_>
    <_>
      <rect>
        16 4 3 2</rect></_>
    <_>
      <rect>
        16 6 1 1</rect></_>
    <_>
      <rect>
        16 6 3 1</rect></_>
    <_>
      <rect>
        17 0 2 1</rect></_>
    <_>
      <rect>
        17 1 1 1</rect></_>
    <_>
      <rect>
        17 3 2 1</rect></_>
    <_>
      <rect>
        18 1 2 1</rect></_>
    <_>
      <rect>
        18 1 2 2</rect></_>
    <_>
      <rect>
        18 5 1 1</rect></_>
    <_>
      <rect>
        18 6 2 1</rect></_>
    <_>
      <rect>
        18 7 1 1</rect></_>
    <_>
      <rect>
        20 2 1 1</rect></_>
    <_>
      <rect>
        20 7 1 1</rect></_>
    <_>
      <rect>
        21 6 1 1</rect></_>
    <_>
      <rect>
        22 4 1 2</rect></_></features></cascade>
</opencv_storage>
