<?xml version="1.0"?>
<opencv_storage>
<stage15>
  <maxWeakCount>10</maxWeakCount>
  <stageThreshold>-9.3384486436843872e-01</stageThreshold>
  <weakClassifiers>
    <_>
      <internalNodes>
        0 -1 1042 1107632587 603246657 -1055203819 676593730 2021730474
        193577001 277404056 -928265541</internalNodes>
      <leafValues>
        -4.7570621967315674e-01 2.4972972273826599e-01</leafValues></_>
    <_>
      <internalNodes>
        0 -1 1025 244204101 56317197 1476477841 879757337 -805306264
        -200728509 -1862266088 -1943253436</internalNodes>
      <leafValues>
        -4.9017786979675293e-01 2.8345125913619995e-01</leafValues></_>
    <_>
      <internalNodes>
        0 -1 115 1256675050 535674493 -1359036887 -1083461665 1776697290
        -822214793 -1459625751 -210501831</internalNodes>
      <leafValues>
        -3.2492461800575256e-01 4.5020979642868042e-01</leafValues></_>
    <_>
      <internalNodes>
        0 -1 43 1401291798 -587183799 1560285189 1191215120 159420601
        1149304847 193298952 367372809</internalNodes>
      <leafValues>
        -4.4252440333366394e-01 3.9257282018661499e-01</leafValues></_>
    <_>
      <internalNodes>
        0 -1 438 240842442 780748160 -787445679 1111490692 1135757409
        1283982336 136060946 -58615601</internalNodes>
      <leafValues>
        -5.7468962669372559e-01 2.7167832851409912e-01</leafValues></_>
    <_>
      <internalNodes>
        0 -1 858 -1779580932 2092904426 2147462301 -1360269512
        -1140907172 -570626049 -1208014966 -390967753</internalNodes>
      <leafValues>
        -3.5980805754661560e-01 4.8017770051956177e-01</leafValues></_>
    <_>
      <internalNodes>
        0 -1 355 -303358969 2100100733 -268505092 -541589863 -177162828
        -251740161 2129870681 -1921515928</internalNodes>
      <leafValues>
        -3.3389794826507568e-01 5.0707709789276123e-01</leafValues></_>
    <_>
      <internalNodes>
        0 -1 802 -805311585 247185150 -268489733 1711255291 805142498
        -538058753 -285219140 -447255203</internalNodes>
      <leafValues>
        -2.9719746112823486e-01 5.9783715009689331e-01</leafValues></_>
    <_>
      <internalNodes>
        0 -1 1298 8220619 -25287091 -269582340 -1281032200 1191116759
        -186319234 1341027602 -1460141954</internalNodes>
      <leafValues>
        -3.6057999730110168e-01 5.1557993888854980e-01</leafValues></_>
    <_>
      <internalNodes>
        0 -1 534 38762309 75677697 276824117 -1861115820 944394429
        -1694498797 1766473783 -1710964185</internalNodes>
      <leafValues>
        -4.8616614937782288e-01 3.8814267516136169e-01</leafValues></_></weakClassifiers></stage15>
</opencv_storage>
