<?xml version="1.0"?>
<opencv_storage>
<stage11>
  <maxWeakCount>8</maxWeakCount>
  <stageThreshold>-1.1008995771408081e+00</stageThreshold>
  <weakClassifiers>
    <_>
      <internalNodes>
        0 -1 914 336689013 271073536 -2147413823 -1669066091 35153354
        -1058815871 1208585190 -1498969336</internalNodes>
      <leafValues>
        -4.7448426485061646e-01 2.7784025669097900e-01</leafValues></_>
    <_>
      <internalNodes>
        0 -1 961 -1125656037 -1729102084 805273269 -1497665942
        2146116934 1878491007 1069442393 -524567489</internalNodes>
      <leafValues>
        -3.6393928527832031e-01 4.1676494479179382e-01</leafValues></_>
    <_>
      <internalNodes>
        0 -1 1404 487000753 1140922657 -1694398313 -1542450876
        1621254533 1266909601 -2011608120 -2004602840</internalNodes>
      <leafValues>
        -4.5411062240600586e-01 3.6184743046760559e-01</leafValues></_>
    <_>
      <internalNodes>
        0 -1 591 580423417 -324206649 -1094779013 -1388822983 -672009
        -713195521 -402899143 -1741149895</internalNodes>
      <leafValues>
        -3.8002952933311462e-01 4.6019610762596130e-01</leafValues></_>
    <_>
      <internalNodes>
        0 -1 756 -1610290594 914542977 285311377 -1895415806 1078440233
        -1743093373 -2013024212 -1333728900</internalNodes>
      <leafValues>
        -5.3178822994232178e-01 3.1963232159614563e-01</leafValues></_>
    <_>
      <internalNodes>
        0 -1 235 1114620541 147963992 -603647701 1006702601 271076123
        1242169409 671623224 -210515960</internalNodes>
      <leafValues>
        -4.6323174238204956e-01 4.1797751188278198e-01</leafValues></_>
    <_>
      <internalNodes>
        0 -1 1419 866976605 1714720775 -1342111660 544443429 115230
        -1736244983 1904429537 38191643</internalNodes>
      <leafValues>
        -4.9644231796264648e-01 4.0830406546592712e-01</leafValues></_>
    <_>
      <internalNodes>
        0 -1 1423 1463223219 868697345 -645918381 -1966014462 1250557966
        1811974144 1477132802 -972470076</internalNodes>
      <leafValues>
        -4.5464533567428589e-01 4.4219657778739929e-01</leafValues></_></weakClassifiers></stage11>
</opencv_storage>
