<?xml version="1.0"?>
<opencv_storage>
<stage18>
  <maxWeakCount>11</maxWeakCount>
  <stageThreshold>-9.7991818189620972e-01</stageThreshold>
  <weakClassifiers>
    <_>
      <internalNodes>
        0 -1 112 -137367201 1883201007 -167854151 -1528328463 2012197747
        901578683 924816219 -1816025781</internalNodes>
      <leafValues>
        -3.1831830739974976e-01 4.8953974246978760e-01</leafValues></_>
    <_>
      <internalNodes>
        0 -1 349 1144844802 1162874897 1146970 -636956474 1107333789
        -507051896 -1573969912 672416273</internalNodes>
      <leafValues>
        -5.2861857414245605e-01 2.5747042894363403e-01</leafValues></_>
    <_>
      <internalNodes>
        0 -1 44 -1879023795 1360007168 -2130698820 -162495464
        -2130673509 -1870659310 -499075027 1743653485</internalNodes>
      <leafValues>
        -4.3397453427314758e-01 3.3786380290985107e-01</leafValues></_>
    <_>
      <internalNodes>
        0 -1 1361 -566493385 2075209405 184203062 1177812206 -1158193204
        762290143 -1342255122 -119573746</internalNodes>
      <leafValues>
        -2.4734224379062653e-01 5.8956569433212280e-01</leafValues></_>
    <_>
      <internalNodes>
        0 -1 1405 753388837 1022880607 2000592843 -21102856 2097086321
        -270598146 -792838227 -1210753076</internalNodes>
      <leafValues>
        -3.4772875905036926e-01 4.6314206719398499e-01</leafValues></_>
    <_>
      <internalNodes>
        0 -1 1040 1653019128 549965954 -2130673399 -1945091966 142631240
        142672384 293740779 -628930904</internalNodes>
      <leafValues>
        -4.5279255509376526e-01 3.5695281624794006e-01</leafValues></_>
    <_>
      <internalNodes>
        0 -1 829 -964001850 -33685505 -1073741900 1072180159 2012710397
        -1879703681 -310939652 -1104975209</internalNodes>
      <leafValues>
        -3.1031927466392517e-01 5.0117933750152588e-01</leafValues></_>
    <_>
      <internalNodes>
        0 -1 348 176481620 85721109 -2046816220 -2011561950 -779603827
        -129683423 50334872 -1543408863</internalNodes>
      <leafValues>
        -4.7617208957672119e-01 3.6033436655998230e-01</leafValues></_>
    <_>
      <internalNodes>
        0 -1 985 1786900771 -2055077871 1125257747 -315550951 578872456
        847773698 671679107 -946798040</internalNodes>
      <leafValues>
        -4.0264260768890381e-01 4.5665559172630310e-01</leafValues></_>
    <_>
      <internalNodes>
        0 -1 1227 1884815101 -1843204308 -58904761 -1419269025
        2013222350 1207828477 1451097020 -1707095265</internalNodes>
      <leafValues>
        -2.6250100135803223e-01 5.9299582242965698e-01</leafValues></_>
    <_>
      <internalNodes>
        0 -1 915 -2010979675 -1814822734 1122327 369373851 1092157833
        -1584791294 -1878292443 653601819</internalNodes>
      <leafValues>
        -4.2840278148651123e-01 4.3169364333152771e-01</leafValues></_></weakClassifiers></stage18>
</opencv_storage>
