<?xml version="1.0"?>
<opencv_storage>
<stage7>
  <maxWeakCount>9</maxWeakCount>
  <stageThreshold>-9.9545246362686157e-01</stageThreshold>
  <weakClassifiers>
    <_>
      <internalNodes>
        0 -1 38 1393540031 -1156345830 268469982 -1144713846 17446929
        887509122 1511132689 1282554916</internalNodes>
      <leafValues>
        -6.4057970046997070e-01 2.2499999403953552e-01</leafValues></_>
    <_>
      <internalNodes>
        0 -1 321 798204254 100683862 536936460 222602708 402807023
        1753776257 1208858448 36685900</internalNodes>
      <leafValues>
        -6.3891816139221191e-01 2.1081796288490295e-01</leafValues></_>
    <_>
      <internalNodes>
        0 -1 419 -636827320 -2109431528 67141725 -2147381108 -1971238318
        1043398683 -1602217598 -1006112759</internalNodes>
      <leafValues>
        -4.4139131903648376e-01 3.8209518790245056e-01</leafValues></_>
    <_>
      <internalNodes>
        0 -1 348 -2146373485 -1508343155 268599649 -1891073704 553680927
        704643288 1141447448 -1528422400</internalNodes>
      <leafValues>
        -4.8136183619499207e-01 3.4966683387756348e-01</leafValues></_>
    <_>
      <internalNodes>
        0 -1 1461 422786013 30507020 -2147479527 -1341063162 537051337
        537395712 276988224 -1072250751</internalNodes>
      <leafValues>
        -3.9116889238357544e-01 4.3774020671844482e-01</leafValues></_>
    <_>
      <internalNodes>
        0 -1 826 1380114794 1677983794 1073774849 1396867667 164523
        1275265436 -2113076408 -49219115</internalNodes>
      <leafValues>
        -4.1739305853843689e-01 4.1388282179832458e-01</leafValues></_>
    <_>
      <internalNodes>
        0 -1 867 1039064988 -1416658966 -268570818 -1561792602 368410390
        -1275232267 -54164 -80516497</internalNodes>
      <leafValues>
        -3.9514356851577759e-01 4.5834916830062866e-01</leafValues></_>
    <_>
      <internalNodes>
        0 -1 301 1140880670 365256727 4317 118522122 8520601 -1476358075
        167921936 -1207016188</internalNodes>
      <leafValues>
        -4.6297335624694824e-01 3.9812976121902466e-01</leafValues></_>
    <_>
      <internalNodes>
        0 -1 814 -2000465582 201457924 1091063951 228130846 1073741974
        134381577 1132514105 -1088694270</internalNodes>
      <leafValues>
        -4.9660077691078186e-01 3.8440376520156860e-01</leafValues></_></weakClassifiers></stage7>
</opencv_storage>
