<?xml version="1.0"?>
<opencv_storage>
<stage16>
  <maxWeakCount>8</maxWeakCount>
  <stageThreshold>-8.4205657243728638e-01</stageThreshold>
  <weakClassifiers>
    <_>
      <internalNodes>
        0 -1 729 1533006827 666874878 1442758652 439844207 1945995247
        -92274691 1543462955 -480778653</internalNodes>
      <leafValues>
        -3.2639405131340027e-01 5.3548389673233032e-01</leafValues></_>
    <_>
      <internalNodes>
        0 -1 818 820093062 213913648 1744835648 -2043838054 -662695898
        730433577 134269066 1621999763</internalNodes>
      <leafValues>
        -7.0592612028121948e-01 2.2667659819126129e-01</leafValues></_>
    <_>
      <internalNodes>
        0 -1 1469 1875582894 577617 540803 214140999 -1971314679
        406880272 -610729565 854211</internalNodes>
      <leafValues>
        -5.1272881031036377e-01 2.8098869323730469e-01</leafValues></_>
    <_>
      <internalNodes>
        0 -1 1137 -1337580999 -1593798499 -1845407596 -1961754624
        1140918197 -666501055 419584004 572538928</internalNodes>
      <leafValues>
        -5.7844239473342896e-01 2.6252040266990662e-01</leafValues></_>
    <_>
      <internalNodes>
        0 -1 821 695586266 547409920 -2147380968 549584928 1208429128
        796967040 -1303789440 1854554633</internalNodes>
      <leafValues>
        -6.0356616973876953e-01 2.3590971529483795e-01</leafValues></_>
    <_>
      <internalNodes>
        0 -1 32 -62218058 1207997825 82057 -243019610 21410 -1988095990
        168354240 555214889</internalNodes>
      <leafValues>
        -4.6678638458251953e-01 3.5102587938308716e-01</leafValues></_>
    <_>
      <internalNodes>
        0 -1 312 1158728404 319361058 403750954 2017460224 577307015
        2064121993 1653579809 206396984</internalNodes>
      <leafValues>
        -4.8645600676536560e-01 3.6819544434547424e-01</leafValues></_>
    <_>
      <internalNodes>
        0 -1 798 625349586 2000879771 -2147446218 417157138 1388343554
        168525824 151176240 -1669119931</internalNodes>
      <leafValues>
        -4.7661048173904419e-01 3.4168517589569092e-01</leafValues></_></weakClassifiers></stage16>
</opencv_storage>
