<?xml version="1.0"?>
<opencv_storage>
<stage6>
  <maxWeakCount>10</maxWeakCount>
  <stageThreshold>-9.4047135114669800e-01</stageThreshold>
  <weakClassifiers>
    <_>
      <internalNodes>
        0 -1 642 1522787487 625491971 1054755 -1927917533 1250523290
        1744830465 -259515143 -74745725</internalNodes>
      <leafValues>
        -4.4139194488525391e-01 4.0668523311614990e-01</leafValues></_>
    <_>
      <internalNodes>
        0 -1 680 1683008126 1342574614 -1023295424 738222489 -435973912
        -729546752 696354830 538239210</internalNodes>
      <leafValues>
        -6.0924547910690308e-01 2.4414327740669250e-01</leafValues></_>
    <_>
      <internalNodes>
        0 -1 233 -746653505 1454997243 -18897265 1936982015 1710703916
        1534451573 1601647005 -551817478</internalNodes>
      <leafValues>
        -2.5335893034934998e-01 6.0832607746124268e-01</leafValues></_>
    <_>
      <internalNodes>
        0 -1 420 1250443467 -1206845312 1362180 -2012364719 -511688519
        -922746816 -2130638848 1499588358</internalNodes>
      <leafValues>
        -4.1043612360954285e-01 3.7048512697219849e-01</leafValues></_>
    <_>
      <internalNodes>
        0 -1 1275 -949659691 1040119533 -282643 -1932541953 -1375944843
        -545947649 -67123329 -755404812</internalNodes>
      <leafValues>
        -3.3098793029785156e-01 4.7956115007400513e-01</leafValues></_>
    <_>
      <internalNodes>
        0 -1 1368 281225993 415535257 1224831006 -2080321471 -1207893955
        134348938 25237776 -1946539972</internalNodes>
      <leafValues>
        -4.2427268624305725e-01 3.7564718723297119e-01</leafValues></_>
    <_>
      <internalNodes>
        0 -1 776 1690673434 688079106 17301530 -1177320443 16896324
        947922944 172144 -1507708146</internalNodes>
      <leafValues>
        -4.5915424823760986e-01 3.7834811210632324e-01</leafValues></_>
    <_>
      <internalNodes>
        0 -1 503 -1861582756 -1269494528 285217609 1283496338 1745373252
        -2121645566 101032222 624767545</internalNodes>
      <leafValues>
        -5.1024150848388672e-01 3.5412317514419556e-01</leafValues></_>
    <_>
      <internalNodes>
        0 -1 1159 -33885359 967704298 -1342264871 805146338 1677674325
        -1786775557 1877339582 -27496634</internalNodes>
      <leafValues>
        -3.1840276718139648e-01 5.8918923139572144e-01</leafValues></_>
    <_>
      <internalNodes>
        0 -1 1483 1259051407 1342664833 17160 1546768520 671617316
        -2139086848 42809 36001333</internalNodes>
      <leafValues>
        -5.0149935483932495e-01 3.8279044628143311e-01</leafValues></_></weakClassifiers></stage6>
</opencv_storage>
