<?xml version="1.0"?>
<opencv_storage>
<stage3>
  <maxWeakCount>9</maxWeakCount>
  <stageThreshold>-7.7098596096038818e-01</stageThreshold>
  <weakClassifiers>
    <_>
      <internalNodes>
        0 -1 93 369191377 890241415 286331005 2038530057 8389019
        955988736 -401961813 2056866491</internalNodes>
      <leafValues>
        -4.8550045490264893e-01 4.4399461150169373e-01</leafValues></_>
    <_>
      <internalNodes>
        0 -1 87 -999210746 436383746 16777251 -418839544 268570801
        595656715 -1977653238 1739962624</internalNodes>
      <leafValues>
        -5.2208095788955688e-01 3.1414720416069031e-01</leafValues></_>
    <_>
      <internalNodes>
        0 -1 1147 190648445 1146724434 -1828716449 97681473 -1031730996
        1250033665 -384574753 719980547</internalNodes>
      <leafValues>
        -4.7526481747627258e-01 3.9845880866050720e-01</leafValues></_>
    <_>
      <internalNodes>
        0 -1 1335 268440723 1209532570 -2147281640 68751630 142617741
        -1149171704 86037 612376708</internalNodes>
      <leafValues>
        -5.2178627252578735e-01 3.6311170458793640e-01</leafValues></_>
    <_>
      <internalNodes>
        0 -1 572 1393656526 -1340850160 1377894838 812712020 -2012706626
        -1870393179 969459880 565390318</internalNodes>
      <leafValues>
        -6.2684041261672974e-01 2.2282549738883972e-01</leafValues></_>
    <_>
      <internalNodes>
        0 -1 284 757342173 -2065076507 -268451843 904441582 1744263159
        -1124761739 -562190515 773869314</internalNodes>
      <leafValues>
        -3.8396796584129333e-01 4.9873554706573486e-01</leafValues></_>
    <_>
      <internalNodes>
        0 -1 410 269588957 923940874 36966677 -854507493 1073741984
        1015054593 176235404 1293394455</internalNodes>
      <leafValues>
        -4.9337077140808105e-01 3.8687294721603394e-01</leafValues></_>
    <_>
      <internalNodes>
        0 -1 771 -1001624387 1001848478 -1090551946 -1110524163
        503143941 -33701890 -16908401 -1665712423</internalNodes>
      <leafValues>
        -3.4043878316879272e-01 5.8420115709304810e-01</leafValues></_>
    <_>
      <internalNodes>
        0 -1 204 -22204763 -1360003393 -33882259 -1648431324 -138936861
        770669943 1056929784 -379197907</internalNodes>
      <leafValues>
        -3.6625123023986816e-01 5.6003046035766602e-01</leafValues></_></weakClassifiers></stage3>
</opencv_storage>
