<?xml version="1.0"?>
<opencv_storage>
<stage1>
  <maxWeakCount>9</maxWeakCount>
  <stageThreshold>-6.2046384811401367e-01</stageThreshold>
  <weakClassifiers>
    <_>
      <internalNodes>
        0 -1 47 -1248593929 -1130934253 403112208 1301124509 696426639
        -1299576808 1074729103 546439183</internalNodes>
      <leafValues>
        -5.7812500000000000e-01 3.5886213183403015e-01</leafValues></_>
    <_>
      <internalNodes>
        0 -1 209 1568138714 30081491 -2130435811 -1727986325 1620115706
        848855211 -1870593912 2000264458</internalNodes>
      <leafValues>
        -4.4069492816925049e-01 3.9943912625312805e-01</leafValues></_>
    <_>
      <internalNodes>
        0 -1 225 -1428095979 930605807 787352509 468170169 1442719357
        1015021565 -9284225 -1686674132</internalNodes>
      <leafValues>
        -3.2692763209342957e-01 4.8369750380516052e-01</leafValues></_>
    <_>
      <internalNodes>
        0 -1 57 1182453927 -1692696572 1358955784 -297414336 53166742
        805898368 -1937614712 1174595848</internalNodes>
      <leafValues>
        -5.3427565097808838e-01 3.3148708939552307e-01</leafValues></_>
    <_>
      <internalNodes>
        0 -1 971 149422067 468119210 788262408 1698413823 939466026
        935163703 -167822140 -1368588546</internalNodes>
      <leafValues>
        -3.9986103773117065e-01 4.6294161677360535e-01</leafValues></_>
    <_>
      <internalNodes>
        0 -1 820 374341343 -1152782738 134216723 813264716 1467293370
        1073577983 650090410 -830530178</internalNodes>
      <leafValues>
        -3.5627824068069458e-01 5.1089781522750854e-01</leafValues></_>
    <_>
      <internalNodes>
        0 -1 1371 353491765 -2130642285 -805273005 -1338998518
        -922607416 -133066615 1095468034 139399937</internalNodes>
      <leafValues>
        -4.2720305919647217e-01 4.5326644182205200e-01</leafValues></_>
    <_>
      <internalNodes>
        0 -1 608 -780011748 318805376 285229146 709022212 657583
        1946161413 -2147280072 -312226889</internalNodes>
      <leafValues>
        -4.5533981919288635e-01 4.3522506952285767e-01</leafValues></_>
    <_>
      <internalNodes>
        0 -1 325 731824216 257039498 345014530 -1258143741 -358530896
        38993922 -234831616 1660993719</internalNodes>
      <leafValues>
        -5.0884526968002319e-01 3.8384786248207092e-01</leafValues></_></weakClassifiers></stage1>
</opencv_storage>
