<?xml version="1.0"?>
<opencv_storage>
<stage12>
  <maxWeakCount>9</maxWeakCount>
  <stageThreshold>-8.4885245561599731e-01</stageThreshold>
  <weakClassifiers>
    <_>
      <internalNodes>
        0 -1 638 42042767 185712786 63828 -1730195327 1484948442
        1302341144 1208009147 -641071431</internalNodes>
      <leafValues>
        -4.5776849985122681e-01 2.9259693622589111e-01</leafValues></_>
    <_>
      <internalNodes>
        0 -1 885 -1719189179 1238368640 1099002007 1083340547
        -1451212111 1220575488 1376022531 -2098058623</internalNodes>
      <leafValues>
        -3.8059526681900024e-01 3.7333369255065918e-01</leafValues></_>
    <_>
      <internalNodes>
        0 -1 1036 -385663947 596741464 268554240 572400836 403177793
        1795178505 -1725656095 -231283836</internalNodes>
      <leafValues>
        -4.1765522956848145e-01 3.8831612467765808e-01</leafValues></_>
    <_>
      <internalNodes>
        0 -1 642 1259776430 659623952 1229164578 202833920 289935573
        1627799819 143663988 1804118185</internalNodes>
      <leafValues>
        -5.8241599798202515e-01 2.6780012249946594e-01</leafValues></_>
    <_>
      <internalNodes>
        0 -1 246 1208139870 -900464627 -1777131451 -271842999
        -2097143572 1753221297 -645332850 -242939380</internalNodes>
      <leafValues>
        -4.1245540976524353e-01 3.9642092585563660e-01</leafValues></_>
    <_>
      <internalNodes>
        0 -1 104 694177078 -1790795635 -2147318774 -931028955 1091194996
        1545109514 1073807921 -2079767983</internalNodes>
      <leafValues>
        -5.2316617965698242e-01 3.4140071272850037e-01</leafValues></_>
    <_>
      <internalNodes>
        0 -1 1355 -1584389803 1687437568 269828358 747638848 -938977108
        84705408 -394180381 717249228</internalNodes>
      <leafValues>
        -6.0253930091857910e-01 3.0468711256980896e-01</leafValues></_>
    <_>
      <internalNodes>
        0 -1 1173 -1790287564 -1986904047 1090601219 -1743548261
        -1609986003 345571337 -1861936477 -1987474928</internalNodes>
      <leafValues>
        -4.0622672438621521e-01 4.6239402890205383e-01</leafValues></_>
    <_>
      <internalNodes>
        0 -1 628 1207959481 -1448399058 -1413588611 1207713751 -2132664
        1879043967 1044381611 -538221217</internalNodes>
      <leafValues>
        -3.3714964985847473e-01 6.0407543182373047e-01</leafValues></_></weakClassifiers></stage12>
</opencv_storage>
