<?xml version="1.0"?>
<opencv_storage>
<stage8>
  <maxWeakCount>9</maxWeakCount>
  <stageThreshold>-7.7840334177017212e-01</stageThreshold>
  <weakClassifiers>
    <_>
      <internalNodes>
        0 -1 732 -2049899273 574492760 268699667 -1207303887 277365179
        1234348032 184666392 -1978957557</internalNodes>
      <leafValues>
        -4.8842337727546692e-01 2.8017717599868774e-01</leafValues></_>
    <_>
      <internalNodes>
        0 -1 131 -377367137 -1072638568 -2147417505 -1635770368
        -1876916031 1242570753 -2136579456 6645296</internalNodes>
      <leafValues>
        -5.9234905242919922e-01 2.3557865619659424e-01</leafValues></_>
    <_>
      <internalNodes>
        0 -1 1208 -1878767201 -2011688831 805376509 -1059585898 35655871
        1981972648 671817865 -1069848575</internalNodes>
      <leafValues>
        -4.0856826305389404e-01 3.5860958695411682e-01</leafValues></_>
    <_>
      <internalNodes>
        0 -1 332 -437266349 -1686442382 737820277 2080292735 234714622
        527335279 -1526915160 -315490306</internalNodes>
      <leafValues>
        -2.3372949659824371e-01 6.4388698339462280e-01</leafValues></_>
    <_>
      <internalNodes>
        0 -1 785 -1360068621 -171966719 -69900 452783852 922091456
        -1652689033 1979690736 -462192841</internalNodes>
      <leafValues>
        -3.8991773128509521e-01 4.6301111578941345e-01</leafValues></_>
    <_>
      <internalNodes>
        0 -1 696 800590559 1676420735 -268734471 1806692220 2013213206
        -671088778 1879029553 -374184167</internalNodes>
      <leafValues>
        -3.1724360585212708e-01 5.3473883867263794e-01</leafValues></_>
    <_>
      <internalNodes>
        0 -1 300 -938326060 -1576894299 285761750 197787698 -1585331707
        731908145 -502592723 -1071224315</internalNodes>
      <leafValues>
        -5.2921265363693237e-01 3.3873406052589417e-01</leafValues></_>
    <_>
      <internalNodes>
        0 -1 1108 411125907 -1967112183 16784470 1184776657 1074415763
        138936323 1208483840 -1420574511</internalNodes>
      <leafValues>
        -4.7111505270004272e-01 3.9540225267410278e-01</leafValues></_>
    <_>
      <internalNodes>
        0 -1 303 620905622 -1676083178 1426084952 -1878700032 146960479
        445153808 1509949608 1111652738</internalNodes>
      <leafValues>
        -6.1808657646179199e-01 3.3046272397041321e-01</leafValues></_></weakClassifiers></stage8>
</opencv_storage>
