<?xml version="1.0"?>
<opencv_storage>
<stage17>
  <maxWeakCount>8</maxWeakCount>
  <stageThreshold>-6.9291210174560547e-01</stageThreshold>
  <weakClassifiers>
    <_>
      <internalNodes>
        0 -1 148 -1609066277 538460186 17367342 892113035 -745902925
        -2004672501 -931019957 -2070552032</internalNodes>
      <leafValues>
        -4.3232324719429016e-01 2.9024389386177063e-01</leafValues></_>
    <_>
      <internalNodes>
        0 -1 635 2072174483 441567313 -671072246 696455248 8652822
        147374082 688443040 -1001142267</internalNodes>
      <leafValues>
        -3.6561357975006104e-01 3.6446794867515564e-01</leafValues></_>
    <_>
      <internalNodes>
        0 -1 144 1358867319 -570769666 1610530559 1378323967 -590209
        1341554685 -1249906759 714340865</internalNodes>
      <leafValues>
        -2.9291814565658569e-01 4.5674479007720947e-01</leafValues></_>
    <_>
      <internalNodes>
        0 -1 1317 -235160577 2105671641 585900981 -576459677 1727815055
        -950042769 518346741 -992454596</internalNodes>
      <leafValues>
        -2.9227799177169800e-01 5.4252707958221436e-01</leafValues></_>
    <_>
      <internalNodes>
        0 -1 355 840389714 1358954834 51548630 -335016806 1073742354
        1835211 -2104819381 1208195385</internalNodes>
      <leafValues>
        -4.0212810039520264e-01 4.0492367744445801e-01</leafValues></_>
    <_>
      <internalNodes>
        0 -1 1359 1894486866 1446901503 2076114844 -1289013633
        1870558566 1073643511 1996304220 -958398555</internalNodes>
      <leafValues>
        -3.3620819449424744e-01 5.1127701997756958e-01</leafValues></_>
    <_>
      <internalNodes>
        0 -1 112 1934611046 2046640127 -167854536 1156689145 2129621880
        1572143025 1857405918 -36499636</internalNodes>
      <leafValues>
        -3.0052202939987183e-01 5.5208224058151245e-01</leafValues></_>
    <_>
      <internalNodes>
        0 -1 1343 97005717 406934035 553715156 348164420 302002316
        134348872 -1987540887 708410</internalNodes>
      <leafValues>
        -5.3062123060226440e-01 3.5587400197982788e-01</leafValues></_></weakClassifiers></stage17>
</opencv_storage>
