<?xml version="1.0"?>
<opencv_storage>
<stage4>
  <maxWeakCount>9</maxWeakCount>
  <stageThreshold>-7.7323389053344727e-01</stageThreshold>
  <weakClassifiers>
    <_>
      <internalNodes>
        0 -1 550 80730559 360382447 -276922823 -1111541126 385774007
        1971322111 679492395 -74713463</internalNodes>
      <leafValues>
        -4.1709402203559875e-01 4.6562498807907104e-01</leafValues></_>
    <_>
      <internalNodes>
        0 -1 469 1493365242 -267255531 352408022 -853311422 1493862792
        1638926848 -2146826104 -1064056374</internalNodes>
      <leafValues>
        -4.5714429020881653e-01 4.2092031240463257e-01</leafValues></_>
    <_>
      <internalNodes>
        0 -1 903 -849833572 1561542915 -2129063548 226789651 -526923471
        -2146754551 -1602059516 -2076497566</internalNodes>
      <leafValues>
        -3.9329490065574646e-01 4.4388639926910400e-01</leafValues></_>
    <_>
      <internalNodes>
        0 -1 265 -2129495894 -2029092598 -2146414456 -1818066430
        1619362521 134250625 541466624 -1937726172</internalNodes>
      <leafValues>
        -6.1144882440567017e-01 2.7077522873878479e-01</leafValues></_>
    <_>
      <internalNodes>
        0 -1 688 -935075122 16839 51415106 637784068 9019904 1628569600
        1644188476 1667754819</internalNodes>
      <leafValues>
        -5.3736841678619385e-01 3.7408748269081116e-01</leafValues></_>
    <_>
      <internalNodes>
        0 -1 1333 1920437823 -1661108738 -1082236961 -571703561
        -587427843 436141055 -302019156 -464703699</internalNodes>
      <leafValues>
        -3.3865675330162048e-01 5.5997401475906372e-01</leafValues></_>
    <_>
      <internalNodes>
        0 -1 922 352338492 -1862205423 116746 -1827274729 1610662113
        -248971127 -2130640166 575082125</internalNodes>
      <leafValues>
        -4.1065251827239990e-01 4.3572151660919189e-01</leafValues></_>
    <_>
      <internalNodes>
        0 -1 1213 1220896752 4390915 1093738525 -1055911934 437125733
        155451553 -893154563 -1469431521</internalNodes>
      <leafValues>
        -5.3334122896194458e-01 3.4464296698570251e-01</leafValues></_>
    <_>
      <internalNodes>
        0 -1 13 -259407414 1950548490 25165848 -582090742 -2012739344
        36471048 168430248 1703249408</internalNodes>
      <leafValues>
        -5.5146819353103638e-01 3.6765706539154053e-01</leafValues></_></weakClassifiers></stage4>
</opencv_storage>
