<?xml version="1.0"?>
<opencv_storage>
<stage10>
  <maxWeakCount>10</maxWeakCount>
  <stageThreshold>-9.6969157457351685e-01</stageThreshold>
  <weakClassifiers>
    <_>
      <internalNodes>
        0 -1 943 1348433499 353374273 1090717717 14767387 22479361
        -390985595 939778075 -1433180586</internalNodes>
      <leafValues>
        -4.2610365152359009e-01 3.3072915673255920e-01</leafValues></_>
    <_>
      <internalNodes>
        0 -1 126 -1262589954 -1258455187 -4179 -1082163479 -554338339
        502792191 -147951681 -207136972</internalNodes>
      <leafValues>
        -3.1389561295509338e-01 4.8757913708686829e-01</leafValues></_>
    <_>
      <internalNodes>
        0 -1 612 -1723808802 34992145 353390872 -1916534576 1627390679
        1028817024 -1560085936 1349251349</internalNodes>
      <leafValues>
        -4.7454386949539185e-01 3.3161443471908569e-01</leafValues></_>
    <_>
      <internalNodes>
        0 -1 1092 33767191 298602569 1074860052 123245204 1375863096
        -1110310654 998247976 -1032761280</internalNodes>
      <leafValues>
        -4.2071723937988281e-01 3.6757805943489075e-01</leafValues></_>
    <_>
      <internalNodes>
        0 -1 1496 609710262 -939390827 65538 436495880 -1459526782
        8401025 554295477 -1877413220</internalNodes>
      <leafValues>
        -4.7651165723800659e-01 3.3075422048568726e-01</leafValues></_>
    <_>
      <internalNodes>
        0 -1 226 1928232623 -1351619018 2147364669 -806424645 -578505
        1048543100 2138926894 -1620844555</internalNodes>
      <leafValues>
        -3.6365970969200134e-01 4.8900431394577026e-01</leafValues></_>
    <_>
      <internalNodes>
        0 -1 509 -763356776 302632003 38986 1393852636 344968
        -1728053083 538996325 -1449836410</internalNodes>
      <leafValues>
        -3.9760524034500122e-01 4.3225345015525818e-01</leafValues></_>
    <_>
      <internalNodes>
        0 -1 800 1480653788 893419586 17058394 76632465 -2122317155
        413270020 1094713362 -622337498</internalNodes>
      <leafValues>
        -4.2310181260108948e-01 4.4478446245193481e-01</leafValues></_>
    <_>
      <internalNodes>
        0 -1 392 -54749469 -1494528228 -524482 788196282 1920756671
        368409464 -5474686 -448338423</internalNodes>
      <leafValues>
        -3.8151955604553223e-01 4.9296617507934570e-01</leafValues></_>
    <_>
      <internalNodes>
        0 -1 186 1112049672 -2053631978 16778399 1073795358 102760690
        84967426 -2088630239 -1977993174</internalNodes>
      <leafValues>
        -5.3933733701705933e-01 3.4350085258483887e-01</leafValues></_></weakClassifiers></stage10>
</opencv_storage>
