<?xml version="1.0"?>
<opencv_storage>
<stage0>
  <maxWeakCount>7</maxWeakCount>
  <stageThreshold>-6.7745679616928101e-01</stageThreshold>
  <weakClassifiers>
    <_>
      <internalNodes>
        0 -1 2543 -1464881153 720338617 788475631 804204541 805289215
        787971963 2097115135 3631103</internalNodes>
      <leafValues>
        -3.8721805810928345e-01 6.8735080957412720e-01</leafValues></_>
    <_>
      <internalNodes>
        0 -1 627 2146413599 935307262 1056386687 -68207695 2094880706
        830306301 1744771001 1676098831</internalNodes>
      <leafValues>
        -3.7725636363029480e-01 5.8365011215209961e-01</leafValues></_>
    <_>
      <internalNodes>
        0 -1 9197 84660474 642089217 329760 -1908387704 403319478
        403243138 1157630700 1081727119</internalNodes>
      <leafValues>
        -6.5736049413681030e-01 3.4072118997573853e-01</leafValues></_>
    <_>
      <internalNodes>
        0 -1 10297 -719613206 -1878895598 16810320 -2100934630
        -2113880054 1149370368 536905868 8456842</internalNodes>
      <leafValues>
        -7.6331764459609985e-01 2.6778742671012878e-01</leafValues></_>
    <_>
      <internalNodes>
        0 -1 15261 1074739626 687882395 -1073672120 -1591770746
        1073940522 780337185 663688 -327984741</internalNodes>
      <leafValues>
        -5.0018364191055298e-01 4.1999378800392151e-01</leafValues></_>
    <_>
      <internalNodes>
        0 -1 9240 1333766997 950747117 1073527161 -1140939921 1996386888
        2071265151 1838376366 -81660037</internalNodes>
      <leafValues>
        -4.1551187634468079e-01 5.2252566814422607e-01</leafValues></_>
    <_>
      <internalNodes>
        0 -1 23521 1354894237 32769 163904 41947666 831062147 1371537410
        -939327464 815413338</internalNodes>
      <leafValues>
        -5.4383301734924316e-01 4.2394793033599854e-01</leafValues></_></weakClassifiers></stage0>
</opencv_storage>
