<?xml version="1.0"?>
<opencv_storage>
<stage12>
  <maxWeakCount>7</maxWeakCount>
  <stageThreshold>-5.9350782632827759e-01</stageThreshold>
  <weakClassifiers>
    <_>
      <internalNodes>
        0 -1 69 -570589544 1692199646 -16846853 -822673414 -134121860
        1962852350 -36551607 72625301</internalNodes>
      <leafValues>
        -4.2465752363204956e-01 5.2238804101943970e-01</leafValues></_>
    <_>
      <internalNodes>
        0 -1 11673 667640063 581900294 269242195 637554962 1628438763
        1000374408 411107352 -40287733</internalNodes>
      <leafValues>
        -4.2679411172866821e-01 4.6739256381988525e-01</leafValues></_>
    <_>
      <internalNodes>
        0 -1 10211 1996352732 116195071 -16912595 -135352593 352098020
        1189085157 1048042598 1073205124</internalNodes>
      <leafValues>
        -4.2733091115951538e-01 4.6960568428039551e-01</leafValues></_>
    <_>
      <internalNodes>
        0 -1 15488 -2143284590 9818128 -1862253312 573708 671125974
        -175499200 1619583200 580026383</internalNodes>
      <leafValues>
        -6.3939386606216431e-01 3.2822817564010620e-01</leafValues></_>
    <_>
      <internalNodes>
        0 -1 2029 537317540 -2063236848 339742937 60822019 -536676285
        1226965000 -1063647217 -1616879592</internalNodes>
      <leafValues>
        -4.8821425437927246e-01 4.4649839401245117e-01</leafValues></_>
    <_>
      <internalNodes>
        0 -1 12278 1897914856 810582016 16865501 743018625 674783235
        705167370 -2138962412 -939161520</internalNodes>
      <leafValues>
        -4.9866345524787903e-01 4.3065449595451355e-01</leafValues></_>
    <_>
      <internalNodes>
        0 -1 10820 1056796543 1068302079 2122263909 -1128321624
        939481396 -1074167811 -562631327 -1180702857</internalNodes>
      <leafValues>
        -4.1428962349891663e-01 5.7215732336044312e-01</leafValues></_></weakClassifiers></stage12>
</opencv_storage>
