<?xml version="1.0"?>
<opencv_storage>
<stage8>
  <maxWeakCount>8</maxWeakCount>
  <stageThreshold>-3.1031748652458191e-01</stageThreshold>
  <weakClassifiers>
    <_>
      <internalNodes>
        0 -1 22796 2894702 685518580 285478663 245377168 1067397060
        402785117 -269119609 -925569124</internalNodes>
      <leafValues>
        -3.3660933375358582e-01 5.2647972106933594e-01</leafValues></_>
    <_>
      <internalNodes>
        0 -1 9266 318595887 992687723 779249193 1945726838 367995422
        -554205441 2092852383 -608700420</internalNodes>
      <leafValues>
        -3.0849575996398926e-01 5.3478080034255981e-01</leafValues></_>
    <_>
      <internalNodes>
        0 -1 15822 1094938647 219209751 -1576987952 609886221 1754926885
        1770432907 -1744747465 -467500432</internalNodes>
      <leafValues>
        -4.5744892954826355e-01 3.9662453532218933e-01</leafValues></_>
    <_>
      <internalNodes>
        0 -1 23585 824386912 4458651 -1878945637 840319232 562636968
        -1879048174 537127025 -2122288484</internalNodes>
      <leafValues>
        -5.5414420366287231e-01 3.2972797751426697e-01</leafValues></_>
    <_>
      <internalNodes>
        0 -1 695 -913799462 168902939 -1073676271 -1051639803 1115824315
        1074339851 -1966642343 -475573714</internalNodes>
      <leafValues>
        -4.7622519731521606e-01 4.0064230561256409e-01</leafValues></_>
    <_>
      <internalNodes>
        0 -1 1040 -1006086664 -435158759 1359036426 89047316 1375735989
        -2145255296 -1065249912 211910661</internalNodes>
      <leafValues>
        -5.1386529207229614e-01 3.9747375249862671e-01</leafValues></_>
    <_>
      <internalNodes>
        0 -1 16546 1767923846 2740352 940642369 -469696415 1208518794
        318808193 16908450 -622215096</internalNodes>
      <leafValues>
        -5.8805739879608154e-01 3.7028309702873230e-01</leafValues></_>
    <_>
      <internalNodes>
        0 -1 19838 -897363945 253575300 1074790680 572248072 1075314810
        -1451229046 1073784992 -703709165</internalNodes>
      <leafValues>
        -5.1277792453765869e-01 4.3593403697013855e-01</leafValues></_></weakClassifiers></stage8>
</opencv_storage>
