<?xml version="1.0"?>
<opencv_storage>
<stage9>
  <maxWeakCount>8</maxWeakCount>
  <stageThreshold>-7.5780969858169556e-01</stageThreshold>
  <weakClassifiers>
    <_>
      <internalNodes>
        0 -1 14711 1609854962 -1765818374 1073671142 519765996 494714226
        -571081218 -1413480604 712141878</internalNodes>
      <leafValues>
        -3.7500000000000000e-01 5.3608244657516479e-01</leafValues></_>
    <_>
      <internalNodes>
        0 -1 3818 922730239 704573438 -269516881 1923428076 1190754155
        1006041066 2143092510 -947912772</internalNodes>
      <leafValues>
        -3.4750843048095703e-01 4.7553497552871704e-01</leafValues></_>
    <_>
      <internalNodes>
        0 -1 21264 1345780727 857914274 871340648 -1536675094 519907365
        -959644322 939508724 -356325445</internalNodes>
      <leafValues>
        -3.4419721364974976e-01 5.0777626037597656e-01</leafValues></_>
    <_>
      <internalNodes>
        0 -1 20204 189754229 339742722 268488777 -872120269 -769441387
        -1817673494 -532549630 -1639677004</internalNodes>
      <leafValues>
        -5.0131517648696899e-01 3.8063520193099976e-01</leafValues></_>
    <_>
      <internalNodes>
        0 -1 24825 375989212 19 -2130591460 -771542974 -2138570619
        545259522 -787797209 141165316</internalNodes>
      <leafValues>
        -6.1412990093231201e-01 3.2543408870697021e-01</leafValues></_>
    <_>
      <internalNodes>
        0 -1 11420 -1895831997 -215517318 -1073742234 582658605
        1056777974 -655874 2139092680 -1904312525</internalNodes>
      <leafValues>
        -4.2974627017974854e-01 4.8254647850990295e-01</leafValues></_>
    <_>
      <internalNodes>
        0 -1 24238 -403730641 -1401421889 -83968475 -1224806403
        1593835407 -721518601 -1107314795 1627094374</internalNodes>
      <leafValues>
        -3.9520394802093506e-01 5.0237119197845459e-01</leafValues></_>
    <_>
      <internalNodes>
        0 -1 25476 1120029914 269488265 67108865 1086714766 50532561
        1845502083 1251795 -985341683</internalNodes>
      <leafValues>
        -4.7447606921195984e-01 4.5625838637351990e-01</leafValues></_></weakClassifiers></stage9>
</opencv_storage>
