<?xml version="1.0"?>
<opencv_storage>
<stage11>
  <maxWeakCount>7</maxWeakCount>
  <stageThreshold>-3.9987280964851379e-01</stageThreshold>
  <weakClassifiers>
    <_>
      <internalNodes>
        0 -1 17738 1133391290 136982187 -1346458036 181202664 -545292490
        1860141055 -1115717740 -1140887952</internalNodes>
      <leafValues>
        -3.6482939124107361e-01 5.1466125249862671e-01</leafValues></_>
    <_>
      <internalNodes>
        0 -1 13778 1844375484 800779966 -1409294360 -1393655876
        1056864211 -185303169 -1342210593 -813695211</internalNodes>
      <leafValues>
        -3.6631408333778381e-01 4.8568034172058105e-01</leafValues></_>
    <_>
      <internalNodes>
        0 -1 2953 -1125770 183397994 -1360740547 1125875576 83829360
        522141532 -1935154841 -1415905403</internalNodes>
      <leafValues>
        -3.9292943477630615e-01 4.5709940791130066e-01</leafValues></_>
    <_>
      <internalNodes>
        0 -1 24480 269226431 -799703020 67403991 -1944321908 180408562
        1477509128 -2127977729 -995618147</internalNodes>
      <leafValues>
        -3.7374496459960938e-01 4.9181544780731201e-01</leafValues></_>
    <_>
      <internalNodes>
        0 -1 19411 -2035150916 -1082987267 -16401 -1124110404
        -1074626955 -403308811 -1082265711 -1074303979</internalNodes>
      <leafValues>
        -4.1718497872352600e-01 4.9782621860504150e-01</leafValues></_>
    <_>
      <internalNodes>
        0 -1 22037 -2144120728 1296101890 -1052753558 1800683657
        1082696608 679542784 1881178778 13101440</internalNodes>
      <leafValues>
        -5.2114993333816528e-01 4.0227830410003662e-01</leafValues></_>
    <_>
      <internalNodes>
        0 -1 4129 -1794994039 336138513 1074938762 227106890 151224363
        -1065252792 -2079283398 1669785097</internalNodes>
      <leafValues>
        -5.3130364418029785e-01 4.2049658298492432e-01</leafValues></_></weakClassifiers></stage11>
</opencv_storage>
