<?xml version="1.0"?>
<opencv_storage>
<stage6>
  <maxWeakCount>8</maxWeakCount>
  <stageThreshold>-7.8546231985092163e-01</stageThreshold>
  <weakClassifiers>
    <_>
      <internalNodes>
        0 -1 9073 436141282 518295550 1072381705 -1963028738 1342126072
        450852808 1879015270 1115649793</internalNodes>
      <leafValues>
        -3.8666665554046631e-01 5.1758795976638794e-01</leafValues></_>
    <_>
      <internalNodes>
        0 -1 16549 760414999 106939214 9699410 637992965 1135109655
        -396885376 810158853 -1366916287</internalNodes>
      <leafValues>
        -4.8056218028068542e-01 4.0855276584625244e-01</leafValues></_>
    <_>
      <internalNodes>
        0 -1 21612 1082353711 163681359 369271449 -1442836458 294258879
        -1190625189 -360594855 -529474636</internalNodes>
      <leafValues>
        -4.1163575649261475e-01 4.4464659690856934e-01</leafValues></_>
    <_>
      <internalNodes>
        0 -1 25080 1380086835 307646898 82188 550033672 1082689638
        1108428931 -1853848873 12451752</internalNodes>
      <leafValues>
        -4.9005609750747681e-01 4.0107703208923340e-01</leafValues></_>
    <_>
      <internalNodes>
        0 -1 4584 580603639 -2008678139 -2129973224 211288610 1357578277
        1275166729 35135239 -859811323</internalNodes>
      <leafValues>
        -5.4297745227813721e-01 3.8155913352966309e-01</leafValues></_>
    <_>
      <internalNodes>
        0 -1 20693 258864983 -286588965 -873530835 1668918847 1878925247
        754778111 1741536959 -917377101</internalNodes>
      <leafValues>
        -3.6987423896789551e-01 6.5951734781265259e-01</leafValues></_>
    <_>
      <internalNodes>
        0 -1 11914 285331390 273154129 -2147477460 -1861517312
        1226960088 419989514 1073768746 1663361064</internalNodes>
      <leafValues>
        -5.3975057601928711e-01 4.3277454376220703e-01</leafValues></_>
    <_>
      <internalNodes>
        0 -1 17142 1201170575 118538289 -1006548991 1074104496
        1208488545 1250427016 1208074880 -98595702</internalNodes>
      <leafValues>
        -5.1163178682327271e-01 4.8213249444961548e-01</leafValues></_></weakClassifiers></stage6>
</opencv_storage>
