<?xml version="1.0"?>
<opencv_storage>
<stage4>
  <maxWeakCount>7</maxWeakCount>
  <stageThreshold>-5.1602154970169067e-01</stageThreshold>
  <weakClassifiers>
    <_>
      <internalNodes>
        0 -1 19260 268377463 397410167 -131075 -1363738689 -8960132 -129
        771511924 -1542168716</internalNodes>
      <leafValues>
        -3.3052632212638855e-01 5.8882683515548706e-01</leafValues></_>
    <_>
      <internalNodes>
        0 -1 9402 744953205 1071935469 -49281 -272696602 352272253
        -587202561 -184588491 -289605771</internalNodes>
      <leafValues>
        -4.1512683033943176e-01 5.1073890924453735e-01</leafValues></_>
    <_>
      <internalNodes>
        0 -1 10101 -938366817 -1577017323 135368795 184881169 143694027
        436371680 -645382003 -3471219</internalNodes>
      <leafValues>
        -3.7165179848670959e-01 6.0511475801467896e-01</leafValues></_>
    <_>
      <internalNodes>
        0 -1 6026 -7221105 1073758208 1124172034 -2113335104 -1962831344
        1929396369 -2113228724 1123229802</internalNodes>
      <leafValues>
        -5.7883322238922119e-01 4.0865567326545715e-01</leafValues></_>
    <_>
      <internalNodes>
        0 -1 15759 73340785 692584705 -997179115 190104384 -469679781
        -1600941941 -1048434124 -326887388</internalNodes>
      <leafValues>
        -6.2323725223541260e-01 3.5200721025466919e-01</leafValues></_>
    <_>
      <internalNodes>
        0 -1 10928 2147479407 771403766 -352324000 736624638 1038036957
        1065319789 -35763 -688652425</internalNodes>
      <leafValues>
        -4.7382238507270813e-01 5.2215445041656494e-01</leafValues></_>
    <_>
      <internalNodes>
        0 -1 16321 -1298700013 -2084225007 -2063522660 -1441492950
        1216481797 948371466 -1826072000 750863942</internalNodes>
      <leafValues>
        -5.9418791532516479e-01 4.1222363710403442e-01</leafValues></_></weakClassifiers></stage4>
</opencv_storage>
