<?xml version="1.0"?>
<opencv_storage>
<stage15>
  <maxWeakCount>8</maxWeakCount>
  <stageThreshold>-9.0607148408889771e-01</stageThreshold>
  <weakClassifiers>
    <_>
      <internalNodes>
        0 -1 287 754909178 1052699646 1073723263 -855724309 -82185
        -1225392129 905852647 903259311</internalNodes>
      <leafValues>
        -2.4302789568901062e-01 5.6682026386260986e-01</leafValues></_>
    <_>
      <internalNodes>
        0 -1 25075 -2142044005 570610000 1075077201 1275270282 25297035
        294666243 -517890018 -526810988</internalNodes>
      <leafValues>
        -3.5942354798316956e-01 4.7134494781494141e-01</leafValues></_>
    <_>
      <internalNodes>
        0 -1 23269 87695255 -524582981 -16843017 -429510752 -369669203
        417329144 -1979845611 -1414713547</internalNodes>
      <leafValues>
        -3.7491250038146973e-01 4.8215493559837341e-01</leafValues></_>
    <_>
      <internalNodes>
        0 -1 12744 1154390 -1879023344 285278480 -1005305536 -1610448691
        -121602007 -1459044344 927170732</internalNodes>
      <leafValues>
        -4.7106599807739258e-01 3.9381089806556702e-01</leafValues></_>
    <_>
      <internalNodes>
        0 -1 10695 420614622 -1321205564 -1073741539 159912192 545335546
        -402653176 168517888 -1338551799</internalNodes>
      <leafValues>
        -5.4048275947570801e-01 3.4182825684547424e-01</leafValues></_>
    <_>
      <internalNodes>
        0 -1 15309 604447607 395493392 1073844568 139235459 1518551104
        -1391640422 -2080326879 -1050056688</internalNodes>
      <leafValues>
        -5.4359835386276245e-01 3.6812102794647217e-01</leafValues></_>
    <_>
      <internalNodes>
        0 -1 18508 857172564 289505537 16826593 -668827600 269615296
        -1744830455 1518347024 -1340980399</internalNodes>
      <leafValues>
        -5.3351485729217529e-01 3.9232778549194336e-01</leafValues></_>
    <_>
      <internalNodes>
        0 -1 3806 1795713470 17334536 1159725379 -868024301 411701417
        -1434418944 167774758 -1421290102</internalNodes>
      <leafValues>
        -4.8783248662948608e-01 4.4783863425254822e-01</leafValues></_></weakClassifiers></stage15>
</opencv_storage>
