<?xml version="1.0"?>
<opencv_storage>
<stage13>
  <maxWeakCount>8</maxWeakCount>
  <stageThreshold>-3.4576630592346191e-01</stageThreshold>
  <weakClassifiers>
    <_>
      <internalNodes>
        0 -1 18495 69084029 38207531 269156432 -1004134395 1661674292
        625393792 -2130556635 606087172</internalNodes>
      <leafValues>
        -4.9818181991577148e-01 4.6301370859146118e-01</leafValues></_>
    <_>
      <internalNodes>
        0 -1 20198 67316180 -1408216815 268636299 -904575656 -265043558
        420347904 -905346882 1722902548</internalNodes>
      <leafValues>
        -4.8339605331420898e-01 3.8013976812362671e-01</leafValues></_>
    <_>
      <internalNodes>
        0 -1 2053 1726113270 -971374575 92278786 -1022291952 -1476343158
        1610776713 -2147415928 -534443256</internalNodes>
      <leafValues>
        -4.3291985988616943e-01 4.4914898276329041e-01</leafValues></_>
    <_>
      <internalNodes>
        0 -1 14057 562096857 1099644993 570490887 286167619 -2112815064
        131200 -790623573 516689417</internalNodes>
      <leafValues>
        -5.5738162994384766e-01 3.2440760731697083e-01</leafValues></_>
    <_>
      <internalNodes>
        0 -1 23729 1088254866 -1877880576 268816544 453394713 50414610
        -804716287 268469304 146837709</internalNodes>
      <leafValues>
        -5.0025409460067749e-01 3.7303411960601807e-01</leafValues></_>
    <_>
      <internalNodes>
        0 -1 15177 -1285673859 -2142666463 83 -720715775 673212482
        84412429 2021720385 -1505466079</internalNodes>
      <leafValues>
        -5.6351631879806519e-01 3.4680214524269104e-01</leafValues></_>
    <_>
      <internalNodes>
        0 -1 25115 -256166197 805834965 8687884 1074028884 1216446647
        201859080 1369555078 -1944600420</internalNodes>
      <leafValues>
        -4.4221031665802002e-01 4.6183300018310547e-01</leafValues></_>
    <_>
      <internalNodes>
        0 -1 8305 -275860221 784248299 1862254117 -1082757525 1073558927
        -620792579 -142694808 -1476925569</internalNodes>
      <leafValues>
        -3.9683791995048523e-01 5.5176234245300293e-01</leafValues></_></weakClassifiers></stage13>
</opencv_storage>
