<?xml version="1.0"?>
<opencv_storage>
<stage1>
  <maxWeakCount>7</maxWeakCount>
  <stageThreshold>-5.9225898981094360e-01</stageThreshold>
  <weakClassifiers>
    <_>
      <internalNodes>
        0 -1 161 -197889 -202018906 -1074348358 -285774294 2077208308
        341917687 2125677313 1148282368</internalNodes>
      <leafValues>
        -4.5080092549324036e-01 6.0771703720092773e-01</leafValues></_>
    <_>
      <internalNodes>
        0 -1 957 1094789631 4215120 563332315 -921595494 142678185
        1635783200 1208133863 1300799683</internalNodes>
      <leafValues>
        -4.5084756612777710e-01 4.4630131125450134e-01</leafValues></_>
    <_>
      <internalNodes>
        0 -1 1691 -9044370 799715055 -29737429 1937633085 2012642707
        1207328478 -314605639 -282532303</internalNodes>
      <leafValues>
        -3.6090624332427979e-01 5.7716405391693115e-01</leafValues></_>
    <_>
      <internalNodes>
        0 -1 11176 -548567603 881311744 -922647552 -1006497535
        -972914256 1268809731 1224927328 100788586</internalNodes>
      <leafValues>
        -5.3622633218765259e-01 4.0180149674415588e-01</leafValues></_>
    <_>
      <internalNodes>
        0 -1 3056 2015207554 -975940543 1090625812 -275754489
        -1005407097 352551330 -1996280790 50877952</internalNodes>
      <leafValues>
        -5.8443146944046021e-01 3.5754236578941345e-01</leafValues></_>
    <_>
      <internalNodes>
        0 -1 24298 1733280547 1900347392 -2139013098 81921 1220543498
        402653184 1359025193 1145409589</internalNodes>
      <leafValues>
        -5.6184893846511841e-01 4.2453882098197937e-01</leafValues></_>
    <_>
      <internalNodes>
        0 -1 137 -423645267 -873333041 -1073828053 2113925054 2012708725
        -1678278666 -67715535 1221063682</internalNodes>
      <leafValues>
        -4.2439052462577820e-01 5.2051973342895508e-01</leafValues></_></weakClassifiers></stage1>
</opencv_storage>
