<?xml version="1.0"?>
<opencv_storage>
<stage14>
  <maxWeakCount>9</maxWeakCount>
  <stageThreshold>-8.9027184247970581e-01</stageThreshold>
  <weakClassifiers>
    <_>
      <internalNodes>
        0 -1 17217 586884869 163377151 -16395 -1427587078 -755028619
        1668644520 -1073827852 83191584</internalNodes>
      <leafValues>
        -3.8636362552642822e-01 4.9705305695533752e-01</leafValues></_>
    <_>
      <internalNodes>
        0 -1 10912 -309213990 126976129 868687 219206035 2072117947
        1059594368 -1878291968 2014249097</internalNodes>
      <leafValues>
        -3.8522982597351074e-01 4.3335369229316711e-01</leafValues></_>
    <_>
      <internalNodes>
        0 -1 4603 2080354047 1823063790 -1107558977 -1145799139
        1073183982 -1610719810 2101243711 -283018975</internalNodes>
      <leafValues>
        -3.2031646370887756e-01 5.2929455041885376e-01</leafValues></_>
    <_>
      <internalNodes>
        0 -1 5360 1785917220 -1363836949 -1895908594 -1342376385
        2013212360 -1124073603 -1074465398 -933118109</internalNodes>
      <leafValues>
        -3.6474034190177917e-01 4.7877684235572815e-01</leafValues></_>
    <_>
      <internalNodes>
        0 -1 10085 1122211835 1308245623 653674679 1005074428 1736341446
        -1205895498 2101296223 -72910996</internalNodes>
      <leafValues>
        -3.3100092411041260e-01 5.8352404832839966e-01</leafValues></_>
    <_>
      <internalNodes>
        0 -1 8112 -20993320 914271998 -1073856764 -1342243156 2013214447
        2102196085 1602170168 -329781503</internalNodes>
      <leafValues>
        -4.0150329470634460e-01 5.0105166435241699e-01</leafValues></_>
    <_>
      <internalNodes>
        0 -1 15749 -2146918252 -1459335150 1258324381 135528704 8918040
        422330385 312516140 -767261413</internalNodes>
      <leafValues>
        -5.1139795780181885e-01 4.1702884435653687e-01</leafValues></_>
    <_>
      <internalNodes>
        0 -1 21495 151191957 587464710 -1862184801 -1299934203 167909723
        587894784 -2004186707 -492219520</internalNodes>
      <leafValues>
        -4.7614070773124695e-01 4.6765071153640747e-01</leafValues></_>
    <_>
      <internalNodes>
        0 -1 1214 -2067593953 17877187 8388616 303071431 135186968
        1803632648 -2086018990 -822661808</internalNodes>
      <leafValues>
        -4.6921360492706299e-01 4.6503576636314392e-01</leafValues></_></weakClassifiers></stage14>
</opencv_storage>
