<?xml version="1.0"?>
<opencv_storage>
<cascade>
  <stageType>BOOST</stageType>
  <featureType>LBP</featureType>
  <height>10</height>
  <width>25</width>
  <stageParams>
    <boostType>GAB</boostType>
    <minHitRate>9.9500000476837158e-01</minHitRate>
    <maxFalseAlarm>5.0000000000000000e-01</maxFalseAlarm>
    <weightTrimRate>9.4999999999999996e-01</weightTrimRate>
    <maxDepth>1</maxDepth>
    <maxWeakCount>100</maxWeakCount></stageParams>
  <featureParams>
    <maxCatCount>256</maxCatCount>
    <featSize>1</featSize></featureParams>
  <stageNum>20</stageNum>
  <stages>
    <!-- stage 0 -->
    <_>
      <maxWeakCount>6</maxWeakCount>
      <stageThreshold>-5.6090772151947021e-01</stageThreshold>
      <weakClassifiers>
        <_>
          <internalNodes>
            0 -1 59 -1907904594 537165960 -2011708987 608764057
            176259838 940179594 -2004317957 736070047</internalNodes>
          <leafValues>
            -7.4117648601531982e-01 4.4680851697921753e-01</leafValues></_>
        <_>
          <internalNodes>
            0 -1 70 -846859521 1209139200 16781661 -1441758720 565502
            -1064730614 419549918 145934734</internalNodes>
          <leafValues>
            -6.0637015104293823e-01 4.1326397657394409e-01</leafValues></_>
        <_>
          <internalNodes>
            0 -1 11 1141965297 134414352 -1056964586 -1785642861
            134238214 287869064 8547131 -70042997</internalNodes>
          <leafValues>
            -5.7072943449020386e-01 4.7123974561691284e-01</leafValues></_>
        <_>
          <internalNodes>
            0 -1 114 670592735 1870593791 -1342177281 -2098429954
            -318816898 1342107646 -1879130113 343854223</internalNodes>
          <leafValues>
            -4.7165521979331970e-01 5.9591102600097656e-01</leafValues></_>
        <_>
          <internalNodes>
            0 -1 1 -675225089 -1845362688 16842771 -763228094
            -1065334770 1084260488 -1006632784 85418412</internalNodes>
          <leafValues>
            -6.7504787445068359e-01 3.8714239001274109e-01</leafValues></_>
        <_>
          <internalNodes>
            0 -1 80 -2004821684 -641429375 1090523423 -685326059
            -2011167766 -1943928704 138510488 -1454374615</internalNodes>
          <leafValues>
            -5.8000499010086060e-01 4.4246816635131836e-01</leafValues></_></weakClassifiers></_>
    <!-- stage 1 -->
    <_>
      <maxWeakCount>7</maxWeakCount>
      <stageThreshold>-8.6566430330276489e-01</stageThreshold>
      <weakClassifiers>
        <_>
          <internalNodes>
            0 -1 30 -652749313 1024790547 285573445 1067278728 41102
            -1425309566 -1039650630 550232303</internalNodes>
          <leafValues>
            -5.5691057443618774e-01 4.1935482621192932e-01</leafValues></_>
        <_>
          <internalNodes>
            0 -1 57 293385201 837451798 285253957 -868218587 -1056860024
            -935262068 -1023371175 1033644564</internalNodes>
          <leafValues>
            -6.2842983007431030e-01 3.4472811222076416e-01</leafValues></_>
        <_>
          <internalNodes>
            0 -1 86 75953385 746647596 -2129559550 683770013 -1874132538
            373817346 -930019222 1615529990</internalNodes>
          <leafValues>
            -6.9348323345184326e-01 3.0537518858909607e-01</leafValues></_>
        <_>
          <internalNodes>
            0 -1 27 -671435355 981462630 -1351667841 -1048711 788477909
            1325105022 -588296597 -1147945369</internalNodes>
          <leafValues>
            -3.7315043807029724e-01 6.3280665874481201e-01</leafValues></_>
        <_>
          <internalNodes>
            0 -1 64 1939011518 -787447294 16802064 -1274081206 51528420
            1091190803 2055221256 839737680</internalNodes>
          <leafValues>
            -6.8209815025329590e-01 3.7034988403320312e-01</leafValues></_>
        <_>
          <internalNodes>
            0 -1 77 -1494606340 -185663490 -262151 -814747666 -570658948
            -671680514 1610602307 -1678246033</internalNodes>
          <leafValues>
            -4.9507647752761841e-01 5.7441985607147217e-01</leafValues></_>
        <_>
          <internalNodes>
            0 -1 35 1877987134 1055850492 -69762 -1207959633 2147440639
            1023278967 -57431 -412620914</internalNodes>
          <leafValues>
            -4.6098002791404724e-01 5.8956432342529297e-01</leafValues></_></weakClassifiers></_>
    <!-- stage 2 -->
    <_>
      <maxWeakCount>6</maxWeakCount>
      <stageThreshold>-7.4967336654663086e-01</stageThreshold>
      <weakClassifiers>
        <_>
          <internalNodes>
            0 -1 22 811470046 621998546 68228369 154405137 8524009
            976290451 144312360 1883722491</internalNodes>
          <leafValues>
            -8.1506848335266113e-01 2.2056384384632111e-01</leafValues></_>
        <_>
          <internalNodes>
            0 -1 17 -779406631 -1333251691 4211761 1217597570 526471
            721486353 151587114 13068832</internalNodes>
          <leafValues>
            -7.2831952571868896e-01 2.6241189241409302e-01</leafValues></_>
        <_>
          <internalNodes>
            0 -1 79 -800619308 269484052 -1660923584 201344277 277053577
            673185802 -2145871834 184009739</internalNodes>
          <leafValues>
            -6.5370196104049683e-01 3.8344329595565796e-01</leafValues></_>
        <_>
          <internalNodes>
            0 -1 50 2113863551 -1157677378 2126262257 -1161838593
            2147425100 803028863 1064779753 -117575874</internalNodes>
          <leafValues>
            -4.6332401037216187e-01 5.4613715410232544e-01</leafValues></_>
        <_>
          <internalNodes>
            0 -1 55 806453491 42991697 1102080 139853965 268468383
            193593344 159392411 462129539</internalNodes>
          <leafValues>
            -5.7773590087890625e-01 4.2494174838066101e-01</leafValues></_>
        <_>
          <internalNodes>
            0 -1 18 -754659153 -190836735 17104896 -2079309796
            -2147479533 -1851752312 32927 -987014912</internalNodes>
          <leafValues>
            -5.1439368724822998e-01 4.8705792427062988e-01</leafValues></_></weakClassifiers></_>
    <!-- stage 3 -->
    <_>
      <maxWeakCount>6</maxWeakCount>
      <stageThreshold>-3.8519307971000671e-01</stageThreshold>
      <weakClassifiers>
        <_>
          <internalNodes>
            0 -1 8 86091223 1020428305 352387349 -912718831 1552191603
            998258827 -520025126 848005400</internalNodes>
          <leafValues>
            -6.3265305757522583e-01 2.8429424762725830e-01</leafValues></_>
        <_>
          <internalNodes>
            0 -1 7 1150667079 303214796 -2130575093 2109801481 293679291
            696336571 -2111893730 -268980160</internalNodes>
          <leafValues>
            -4.3276911973953247e-01 4.6798515319824219e-01</leafValues></_>
        <_>
          <internalNodes>
            0 -1 29 -1878101058 -1555382114 50499672 -1819663870
            1921581219 -1877901183 1351477388 -2079817692</internalNodes>
          <leafValues>
            -6.3578259944915771e-01 3.2964012026786804e-01</leafValues></_>
        <_>
          <internalNodes>
            0 -1 101 1073815845 177422673 85000465 -2113666624
            -1207271208 950141081 -1073709010 1805817866</internalNodes>
          <leafValues>
            -5.7295268774032593e-01 3.7617757916450500e-01</leafValues></_>
        <_>
          <internalNodes>
            0 -1 89 402595357 -33882114 -1 -808452098 -956313864
            1291681783 -285307580 266301404</internalNodes>
          <leafValues>
            -4.5753508806228638e-01 4.9233445525169373e-01</leafValues></_>
        <_>
          <internalNodes>
            0 -1 104 -1049165055 885392259 1629556801 -1760198651
            839094299 805306368 1644274443 -91298401</internalNodes>
          <leafValues>
            -4.2033237218856812e-01 5.5518144369125366e-01</leafValues></_></weakClassifiers></_>
    <!-- stage 4 -->
    <_>
      <maxWeakCount>6</maxWeakCount>
      <stageThreshold>-5.7194024324417114e-01</stageThreshold>
      <weakClassifiers>
        <_>
          <internalNodes>
            0 -1 45 -116138586 -704589790 -1073405504 -904783740
            -2147317486 554043401 672258700 68919854</internalNodes>
          <leafValues>
            -7.6208180189132690e-01 1.5974441170692444e-01</leafValues></_>
        <_>
          <internalNodes>
            0 -1 122 -1781263911 -702778989 20497 1422692624 302025223
            -784103260 1277723153 -457679876</internalNodes>
          <leafValues>
            -4.8916125297546387e-01 3.7603250145912170e-01</leafValues></_>
        <_>
          <internalNodes>
            0 -1 43 1482146780 683737409 1073748757 -1971220064
            2046825313 209912448 704715540 1384805123</internalNodes>
          <leafValues>
            -6.8800443410873413e-01 2.9947644472122192e-01</leafValues></_>
        <_>
          <internalNodes>
            0 -1 41 -1360007235 547340205 2147450425 1458501863
            1342044111 1014955900 2004320199 -369496504</internalNodes>
          <leafValues>
            -4.0013352036476135e-01 5.3558850288391113e-01</leafValues></_>
        <_>
          <internalNodes>
            0 -1 9 -86126697 678981629 1072643830 1593835486 -152060547
            2046820351 1199437527 -960631215</internalNodes>
          <leafValues>
            -3.4913706779479980e-01 6.2911170721054077e-01</leafValues></_>
        <_>
          <internalNodes>
            0 -1 28 471528122 -2096082477 -2147467071 -2021650352
            42467370 402753552 -662155092 -1313396592</internalNodes>
          <leafValues>
            -6.0616415739059448e-01 3.9588335156440735e-01</leafValues></_></weakClassifiers></_>
    <!-- stage 5 -->
    <_>
      <maxWeakCount>7</maxWeakCount>
      <stageThreshold>-1.0673723220825195e+00</stageThreshold>
      <weakClassifiers>
        <_>
          <internalNodes>
            0 -1 69 -526412557 537925776 16875804 629686352 1895956687
            956399624 1392574491 1129007305</internalNodes>
          <leafValues>
            -6.4571428298950195e-01 2.2201834619045258e-01</leafValues></_>
        <_>
          <internalNodes>
            0 -1 63 -76582838 1517720274 -787132012 -2112814843
            -2095523308 1745690882 1192271880 649571214</internalNodes>
          <leafValues>
            -6.2498778104782104e-01 2.8899714350700378e-01</leafValues></_>
        <_>
          <internalNodes>
            0 -1 118 -2129045721 1703477378 369135747 -1903259373
            159451419 1753907336 61577216 -506172533</internalNodes>
          <leafValues>
            -4.9130165576934814e-01 4.0784379839897156e-01</leafValues></_>
        <_>
          <internalNodes>
            0 -1 128 1158661659 1342914887 8474925 337756170 -1442836054
            1610645512 168006173 38789127</internalNodes>
          <leafValues>
            -4.4467809796333313e-01 4.8583230376243591e-01</leafValues></_>
        <_>
          <internalNodes>
            0 -1 78 1430761780 201360469 -1727999647 -1890057977
            143167872 -743964529 -1903949816 -368485760</internalNodes>
          <leafValues>
            -4.7823756933212280e-01 4.3805229663848877e-01</leafValues></_>
        <_>
          <internalNodes>
            0 -1 36 575908366 287344920 364676 -49164272 1118173218
            1820885001 1225263462 1115890562</internalNodes>
          <leafValues>
            -6.4728617668151855e-01 3.5714110732078552e-01</leafValues></_>
        <_>
          <internalNodes>
            0 -1 65 -1065166761 -771649536 -1995440112 -2013265919
            268435545 1367867520 -2138566067 -1021838805</internalNodes>
          <leafValues>
            -5.0999498367309570e-01 4.9795511364936829e-01</leafValues></_></weakClassifiers></_>
    <!-- stage 6 -->
    <_>
      <maxWeakCount>7</maxWeakCount>
      <stageThreshold>-9.8241102695465088e-01</stageThreshold>
      <weakClassifiers>
        <_>
          <internalNodes>
            0 -1 15 -789457409 -653800118 17072350 -2028381174
            -1064660797 1143996587 -2119694202 604127748</internalNodes>
          <leafValues>
            -7.0967739820480347e-01 1.9658119976520538e-01</leafValues></_>
        <_>
          <internalNodes>
            0 -1 47 -581189380 -804257788 -1743678577 1577386752
            -1542815044 92504328 -1635475959 1628695050</internalNodes>
          <leafValues>
            -5.8087056875228882e-01 3.0674204230308533e-01</leafValues></_>
        <_>
          <internalNodes>
            0 -1 69 -895820289 705872912 1073808152 -1944960878
            1107509436 2080538752 679477248 -904157044</internalNodes>
          <leafValues>
            -5.5038982629776001e-01 3.7296354770660400e-01</leafValues></_>
        <_>
          <internalNodes>
            0 -1 60 1431409048 17170562 22020305 -847163312 1912668305
            948961419 34140296 -670504659</internalNodes>
          <leafValues>
            -4.6795535087585449e-01 4.8290625214576721e-01</leafValues></_>
        <_>
          <internalNodes>
            0 -1 113 -26714273 2079768572 -537935969 -2063667203
            -318881796 905773055 -286810179 -881809774</internalNodes>
          <leafValues>
            -4.1259309649467468e-01 6.1993783712387085e-01</leafValues></_>
        <_>
          <internalNodes>
            0 -1 76 1255146918 -1055520767 1090753870 -2128330367
            1208541321 -1585200950 -1744755448 1975877747</internalNodes>
          <leafValues>
            -5.8957540988922119e-01 3.8817882537841797e-01</leafValues></_>
        <_>
          <internalNodes>
            0 -1 12 -151060674 -436207619 -67 -268665106 -50905159
            502661117 2003726265 -38509211</internalNodes>
          <leafValues>
            -4.5182296633720398e-01 5.9465271234512329e-01</leafValues></_></weakClassifiers></_>
    <!-- stage 7 -->
    <_>
      <maxWeakCount>7</maxWeakCount>
      <stageThreshold>-8.8662153482437134e-01</stageThreshold>
      <weakClassifiers>
        <_>
          <internalNodes>
            0 -1 102 356540529 -1134950380 -1006505855 -1810300909
            -1186150225 2064187393 -1996273399 -4652528</internalNodes>
          <leafValues>
            -4.6743294596672058e-01 3.7265416979789734e-01</leafValues></_>
        <_>
          <internalNodes>
            0 -1 14 537170142 943752710 67256446 508064056 -1052759452
            1166575650 -510130168 1143259140</internalNodes>
          <leafValues>
            -8.7587773799896240e-01 1.9651392102241516e-01</leafValues></_>
        <_>
          <internalNodes>
            0 -1 84 -536932652 1492778742 2147483615 -1375797268
            2013253375 796917757 -419954894 -923828</internalNodes>
          <leafValues>
            -3.8565030694007874e-01 4.9599334597587585e-01</leafValues></_>
        <_>
          <internalNodes>
            0 -1 4 -268456435 1810890751 -65746 -269488146 1844920318
            -1208647694 -84471 -554572031</internalNodes>
          <leafValues>
            -4.2359101772308350e-01 4.9118238687515259e-01</leafValues></_>
        <_>
          <internalNodes>
            0 -1 61 1384356274 31230092 269750338 -1794043903 663570
            -1475706480 -1744814014 -1084635005</internalNodes>
          <leafValues>
            -5.0335383415222168e-01 4.4519397616386414e-01</leafValues></_>
        <_>
          <internalNodes>
            0 -1 98 1069383639 349859836 -268709890 -402657537
            -268541740 2147482483 804208382 -8687792</internalNodes>
          <leafValues>
            -3.4359902143478394e-01 6.3690680265426636e-01</leafValues></_>
        <_>
          <internalNodes>
            0 -1 33 545401310 -1341063165 289458267 -1320991448
            1073742269 -1071594976 2030133824 344060032</internalNodes>
          <leafValues>
            -6.3659036159515381e-01 3.9115250110626221e-01</leafValues></_></weakClassifiers></_>
    <!-- stage 8 -->
    <_>
      <maxWeakCount>7</maxWeakCount>
      <stageThreshold>-9.1946119070053101e-01</stageThreshold>
      <weakClassifiers>
        <_>
          <internalNodes>
            0 -1 66 130993918 982044813 1074627928 29802738 71332480
            268501137 -2012729294 2060549002</internalNodes>
          <leafValues>
            -6.8106311559677124e-01 1.6835017502307892e-01</leafValues></_>
        <_>
          <internalNodes>
            0 -1 53 417327611 393211755 -269193667 1073676031 402543091
            -578945921 1878798305 -613288341</internalNodes>
          <leafValues>
            -3.7254294753074646e-01 4.7573459148406982e-01</leafValues></_>
        <_>
          <internalNodes>
            0 -1 13 -532611756 102269208 83886581 -385609591 -1458562914
            1888518177 218466954 482433068</internalNodes>
          <leafValues>
            -5.0095438957214355e-01 4.1400787234306335e-01</leafValues></_>
        <_>
          <internalNodes>
            0 -1 5 -21011157 -1344542769 -1913749523 -1250152707
            1878390708 1476329469 -134414839 1609923893</internalNodes>
          <leafValues>
            -4.1723364591598511e-01 4.8746773600578308e-01</leafValues></_>
        <_>
          <internalNodes>
            0 -1 39 1498108238 -905576189 201851163 -988213232
            -2012412158 -1291157367 -897578743 -396131569</internalNodes>
          <leafValues>
            -4.7731852531433105e-01 4.8605290055274963e-01</leafValues></_>
        <_>
          <internalNodes>
            0 -1 25 -1597124542 54538252 -1593835183 -1862182464
            1487014295 2015051952 134391345 165354136</internalNodes>
          <leafValues>
            -5.2024990320205688e-01 4.2713505029678345e-01</leafValues></_>
        <_>
          <internalNodes>
            0 -1 94 -819412912 2014412881 486540039 -1777336166 42082889
            705167362 -1694363641 378866177</internalNodes>
          <leafValues>
            -6.2855821847915649e-01 3.5221055150032043e-01</leafValues></_></weakClassifiers></_>
    <!-- stage 9 -->
    <_>
      <maxWeakCount>6</maxWeakCount>
      <stageThreshold>-5.7779353857040405e-01</stageThreshold>
      <weakClassifiers>
        <_>
          <internalNodes>
            0 -1 52 1523311055 94358531 1225068735 1094193153 1082791941
            151208066 -1702215640 -138943997</internalNodes>
          <leafValues>
            -4.8697394132614136e-01 3.4848484396934509e-01</leafValues></_>
        <_>
          <internalNodes>
            0 -1 0 876805107 -1140832889 17514771 -166164364 249893
            -635363319 -2145155755 -1700682720</internalNodes>
          <leafValues>
            -4.7882688045501709e-01 3.9472359418869019e-01</leafValues></_>
        <_>
          <internalNodes>
            0 -1 90 643992428 973329414 16847114 1737625747 -527759097
            159424681 -91862488 -772388859</internalNodes>
          <leafValues>
            -5.5431193113327026e-01 3.6231935024261475e-01</leafValues></_>
        <_>
          <internalNodes>
            0 -1 23 -1404393134 190349330 -1073036227 -1862188536
            134234467 1065975944 16990226 -1581977040</internalNodes>
          <leafValues>
            -5.6281584501266479e-01 4.3619388341903687e-01</leafValues></_>
        <_>
          <internalNodes>
            0 -1 74 865034405 -1514045354 84087187 1829282049 1090521216
            973127693 -1534614700 -89021680</internalNodes>
          <leafValues>
            -5.5376982688903809e-01 4.0360987186431885e-01</leafValues></_>
        <_>
          <internalNodes>
            0 -1 6 1082836025 884947 805388536 361779292 171508005
            1619101857 -896996282 236120356</internalNodes>
          <leafValues>
            -6.4911407232284546e-01 3.7819251418113708e-01</leafValues></_></weakClassifiers></_>
    <!-- stage 10 -->
    <_>
      <maxWeakCount>8</maxWeakCount>
      <stageThreshold>-6.2042939662933350e-01</stageThreshold>
      <weakClassifiers>
        <_>
          <internalNodes>
            0 -1 82 -1999508481 -1391095614 -1073707844 679579904
            1224755915 453609480 134447177 -510794870</internalNodes>
          <leafValues>
            -5.3669726848602295e-01 2.8104576468467712e-01</leafValues></_>
        <_>
          <internalNodes>
            0 -1 112 357643351 1446170642 -787414629 34220813 142811269
            1301061633 -1601649584 -1713035760</internalNodes>
          <leafValues>
            -5.1959848403930664e-01 3.5098272562026978e-01</leafValues></_>
        <_>
          <internalNodes>
            0 -1 97 6951449 -1952988733 -1006548983 403063771 419495977
            1788051652 553751041 -353080572</internalNodes>
          <leafValues>
            -5.5133670568466187e-01 3.4533718228340149e-01</leafValues></_>
        <_>
          <internalNodes>
            0 -1 68 1543231083 1996487675 1476345829 959937902 855097343
            -75628556 1006596710 -1277827213</internalNodes>
          <leafValues>
            -3.4725743532180786e-01 6.6292631626129150e-01</leafValues></_>
        <_>
          <internalNodes>
            0 -1 123 71313647 138792968 51745238 109183060 -1988054875
            872521792 295768163 -1035419636</internalNodes>
          <leafValues>
            -6.7208892107009888e-01 3.2711234688758850e-01</leafValues></_>
        <_>
          <internalNodes>
            0 -1 126 102278001 564135955 50425874 1430358610 17433281
            -1170730878 -1023407360 1482902096</internalNodes>
          <leafValues>
            -5.5935031175613403e-01 4.0980407595634460e-01</leafValues></_>
        <_>
          <internalNodes>
            0 -1 73 -1073463114 -1793588975 268436538 -530792185
            -1073741692 -1937686391 1612859552 -467533751</internalNodes>
          <leafValues>
            -5.8813840150833130e-01 4.2028275132179260e-01</leafValues></_>
        <_>
          <internalNodes>
            0 -1 34 -229474269 -2011102909 151060750 1539346764 594011
            1812470443 -2004189148 -310229491</internalNodes>
          <leafValues>
            -5.2873438596725464e-01 4.8212361335754395e-01</leafValues></_></weakClassifiers></_>
    <!-- stage 11 -->
    <_>
      <maxWeakCount>7</maxWeakCount>
      <stageThreshold>-8.0506289005279541e-01</stageThreshold>
      <weakClassifiers>
        <_>
          <internalNodes>
            0 -1 31 1092322079 1694568585 -2139093873 -316731252
            1443425202 595787912 1199604392 -2144223188</internalNodes>
          <leafValues>
            -4.6456691622734070e-01 3.3850130438804626e-01</leafValues></_>
        <_>
          <internalNodes>
            0 -1 106 37908913 621904783 88084571 -413777749 -1962831860
            1778909314 1476596265 719077428</internalNodes>
          <leafValues>
            -5.7576441764831543e-01 2.9866376519203186e-01</leafValues></_>
        <_>
          <internalNodes>
            0 -1 78 1091666420 -2126247512 822150493 -1925082237
            -1865934199 -1132298102 -1834972856 -1571600252</internalNodes>
          <leafValues>
            -4.5204851031303406e-01 4.2967391014099121e-01</leafValues></_>
        <_>
          <internalNodes>
            0 -1 129 687548251 1357770109 -78274 1853814714 -168132804
            1341845469 1836918781 -712902657</internalNodes>
          <leafValues>
            -3.9994159340858459e-01 5.4033887386322021e-01</leafValues></_>
        <_>
          <internalNodes>
            0 -1 81 73093478 1501972635 -2139090927 72436167 1581518923
            -947777407 553845078 -879875743</internalNodes>
          <leafValues>
            -5.1924812793731689e-01 4.0362814068794250e-01</leafValues></_>
        <_>
          <internalNodes>
            0 -1 107 134383411 -1744437227 16778007 1686487968
            -1028996950 1375797258 -1844658056 -1465896775</internalNodes>
          <leafValues>
            -4.7944563627243042e-01 4.7278901934623718e-01</leafValues></_>
        <_>
          <internalNodes>
            0 -1 28 538100490 -1878389360 1208067037 -1585314292
            1220542600 -1467678577 -1608335191 763695160</internalNodes>
          <leafValues>
            -6.2243294715881348e-01 3.6984679102897644e-01</leafValues></_></weakClassifiers></_>
    <!-- stage 12 -->
    <_>
      <maxWeakCount>7</maxWeakCount>
      <stageThreshold>-1.0429177284240723e+00</stageThreshold>
      <weakClassifiers>
        <_>
          <internalNodes>
            0 -1 51 1000331251 1165376 -922402480 234881296 1343228044
            1757987329 -1325314787 -648888054</internalNodes>
          <leafValues>
            -5.3810626268386841e-01 2.7705627679824829e-01</leafValues></_>
        <_>
          <internalNodes>
            0 -1 37 -1802811630 802341147 33655125 -613433341 1073764429
            521339145 -2130607335 -124790117</internalNodes>
          <leafValues>
            -4.5272421836853027e-01 4.0992966294288635e-01</leafValues></_>
        <_>
          <internalNodes>
            0 -1 88 -518534173 788762641 -1744809960 1108771010
            287312497 1570779136 2080542724 -1064111999</internalNodes>
          <leafValues>
            -5.6454330682754517e-01 3.3479204773902893e-01</leafValues></_>
        <_>
          <internalNodes>
            0 -1 111 58966989 975069186 -2146331758 -665829093 25428626
            461504512 -1988027246 14211356</internalNodes>
          <leafValues>
            -6.0137540102005005e-01 3.5634025931358337e-01</leafValues></_>
        <_>
          <internalNodes>
            0 -1 19 -2134719462 -1575910911 276824087 214438936
            -938995505 419725633 -1316141516 -1016675543</internalNodes>
          <leafValues>
            -5.6491869688034058e-01 3.6021283268928528e-01</leafValues></_>
        <_>
          <internalNodes>
            0 -1 21 2130538175 -1079918930 2092642094 -8978586
            2146926056 536870910 2105372458 -282067083</internalNodes>
          <leafValues>
            -4.4339630007743835e-01 5.5105668306350708e-01</leafValues></_>
        <_>
          <internalNodes>
            0 -1 92 1854895048 1408733459 -2130702073 319069330
            1090614633 1762263304 268978345 1973629484</internalNodes>
          <leafValues>
            -5.8802711963653564e-01 4.0764847397804260e-01</leafValues></_></weakClassifiers></_>
    <!-- stage 13 -->
    <_>
      <maxWeakCount>7</maxWeakCount>
      <stageThreshold>-9.5759838819503784e-01</stageThreshold>
      <weakClassifiers>
        <_>
          <internalNodes>
            0 -1 87 1528027486 671367709 285280529 -2083717032
            1661011028 1233195017 84044143 -229909410</internalNodes>
          <leafValues>
            -5.0724637508392334e-01 3.3980581164360046e-01</leafValues></_>
        <_>
          <internalNodes>
            0 -1 54 -905635849 680517730 218173996 -1910240827 239787
            1317046982 -1744824025 -225914680</internalNodes>
          <leafValues>
            -5.4458206892013550e-01 3.2264792919158936e-01</leafValues></_>
        <_>
          <internalNodes>
            0 -1 117 1003688561 -2112175999 -1568587749 1157743236
            1241682249 -1337261568 10700813 -400031243</internalNodes>
          <leafValues>
            -4.8609855771064758e-01 4.0287417173385620e-01</leafValues></_>
        <_>
          <internalNodes>
            0 -1 16 289654748 -1845493298 -1878956010 -268337008
            1224753159 -2146828288 -1878906796 429343154</internalNodes>
          <leafValues>
            -5.2686089277267456e-01 4.2661169171333313e-01</leafValues></_>
        <_>
          <internalNodes>
            0 -1 10 1905221974 823482515 1610629192 1157742786
            1107484983 1241743490 268585851 1943093582</internalNodes>
          <leafValues>
            -5.5452984571456909e-01 3.9351767301559448e-01</leafValues></_>
        <_>
          <internalNodes>
            0 -1 93 -934774826 26510384 67310043 -1026801646 -1677401617
            1251475586 134742272 -351547776</internalNodes>
          <leafValues>
            -5.9009468555450439e-01 3.8028720021247864e-01</leafValues></_>
        <_>
          <internalNodes>
            0 -1 39 -987671340 -1191116517 1048860 -805142439
            -1604091776 -1339555839 -2147446152 1145236027</internalNodes>
          <leafValues>
            -5.9764814376831055e-01 4.1479381918907166e-01</leafValues></_></weakClassifiers></_>
    <!-- stage 14 -->
    <_>
      <maxWeakCount>7</maxWeakCount>
      <stageThreshold>-8.1241983175277710e-01</stageThreshold>
      <weakClassifiers>
        <_>
          <internalNodes>
            0 -1 99 823423505 994615310 285278465 2097234705 974393555
            -1342177142 135856328 -351895024</internalNodes>
          <leafValues>
            -5.3424656391143799e-01 2.8227570652961731e-01</leafValues></_>
        <_>
          <internalNodes>
            0 -1 3 -1936538849 407425617 218342480 -263602100 268468233
            -1819656192 -1073575278 1696539513</internalNodes>
          <leafValues>
            -5.9977155923843384e-01 2.8548881411552429e-01</leafValues></_>
        <_>
          <internalNodes>
            0 -1 42 1037994875 -1162629121 2147331997 -1342701601
            -805486869 1879031806 -1086500900 -270471278</internalNodes>
          <leafValues>
            -3.9030796289443970e-01 4.8246729373931885e-01</leafValues></_>
        <_>
          <internalNodes>
            0 -1 71 636546940 1727987711 -541085723 -806424578
            2012723069 -1879572483 -1074272423 -1330404309</internalNodes>
          <leafValues>
            -4.0964451432228088e-01 5.0665038824081421e-01</leafValues></_>
        <_>
          <internalNodes>
            0 -1 120 456298527 1343526931 806559793 -803995134
            -771618232 -903757693 -2147421495 -363929448</internalNodes>
          <leafValues>
            -4.8495328426361084e-01 4.4587466120719910e-01</leafValues></_>
        <_>
          <internalNodes>
            0 -1 95 -33677443 247201790 -285212941 -1108939009
            -1879122308 -671088641 -939545755 -1485607588</internalNodes>
          <leafValues>
            -3.8697582483291626e-01 5.7447451353073120e-01</leafValues></_>
        <_>
          <internalNodes>
            0 -1 124 -2143087750 294387920 1073795865 101210115
            -2130669525 136478720 134889766 1442881672</internalNodes>
          <leafValues>
            -6.3913071155548096e-01 3.9261877536773682e-01</leafValues></_></weakClassifiers></_>
    <!-- stage 15 -->
    <_>
      <maxWeakCount>6</maxWeakCount>
      <stageThreshold>-4.8085644841194153e-01</stageThreshold>
      <weakClassifiers>
        <_>
          <internalNodes>
            0 -1 85 1092489682 16777560 16793603 139724035 2013308065
            -670564086 1346601876 -1439470217</internalNodes>
          <leafValues>
            -5.6476682424545288e-01 2.2200392186641693e-01</leafValues></_>
        <_>
          <internalNodes>
            0 -1 83 1342239040 -1516092879 -2097036514 -1920806640
            270543370 -1144782807 -393643486 -1590460270</internalNodes>
          <leafValues>
            -5.1805686950683594e-01 3.1962075829505920e-01</leafValues></_>
        <_>
          <internalNodes>
            0 -1 103 1098995633 202678686 1342259263 -402095341
            285256129 1554522125 -905143807 -222698990</internalNodes>
          <leafValues>
            -4.6267578005790710e-01 3.7209045886993408e-01</leafValues></_>
        <_>
          <internalNodes>
            0 -1 110 676607553 1381097803 1342210371 -1945042940
            1074413961 -1206910783 -1770955735 767822088</internalNodes>
          <leafValues>
            -6.0775655508041382e-01 3.4484955668449402e-01</leafValues></_>
        <_>
          <internalNodes>
            0 -1 127 1467872687 -1342231069 -269746451 1917714431
            -138412099 -1409286179 1197395942 -809083663</internalNodes>
          <leafValues>
            -3.6793854832649231e-01 6.2944567203521729e-01</leafValues></_>
        <_>
          <internalNodes>
            0 -1 99 -1149276291 1048244222 -1098924057 -1375735823
            2146918399 -1073774594 -16957452 -847290575</internalNodes>
          <leafValues>
            -4.1887649893760681e-01 5.0617653131484985e-01</leafValues></_></weakClassifiers></_>
    <!-- stage 16 -->
    <_>
      <maxWeakCount>7</maxWeakCount>
      <stageThreshold>-8.5526102781295776e-01</stageThreshold>
      <weakClassifiers>
        <_>
          <internalNodes>
            0 -1 38 1342177279 931134847 -1090621641 -1409287427
            1828664819 -268537873 -276992133 -11108437</internalNodes>
          <leafValues>
            -4.1275167465209961e-01 4.7157189249992371e-01</leafValues></_>
        <_>
          <internalNodes>
            0 -1 2 -1055992518 -691011572 147 -1895235312 -2012069725
            711131147 1251052137 1424196165</internalNodes>
          <leafValues>
            -4.9485799670219421e-01 3.7570893764495850e-01</leafValues></_>
        <_>
          <internalNodes>
            0 -1 121 273526103 852885649 1495090600 749208642
            -2147466536 145817658 1615364757 -268122919</internalNodes>
          <leafValues>
            -5.1004964113235474e-01 3.7961059808731079e-01</leafValues></_>
        <_>
          <internalNodes>
            0 -1 105 17113748 289411603 554373136 473985287 -1073676143
            1243645960 -2075426367 -1960031456</internalNodes>
          <leafValues>
            -5.4615503549575806e-01 3.9404255151748657e-01</leafValues></_>
        <_>
          <internalNodes>
            0 -1 100 -768978475 353865811 1073742162 -1828040682
            50344065 -268353503 -1307878904 -1014610181</internalNodes>
          <leafValues>
            -4.6998915076255798e-01 5.1521122455596924e-01</leafValues></_>
        <_>
          <internalNodes>
            0 -1 116 -2059185328 621580676 117506518 542703634
            -268287766 1166147586 1351123073 1277216774</internalNodes>
          <leafValues>
            -6.3687157630920410e-01 3.9000242948532104e-01</leafValues></_>
        <_>
          <internalNodes>
            0 -1 67 1573176983 1233240081 -1073708470 -973044720
            268439110 700481546 -2004790784 -820800407</internalNodes>
          <leafValues>
            -5.3001356124877930e-01 4.4357296824455261e-01</leafValues></_></weakClassifiers></_>
    <!-- stage 17 -->
    <_>
      <maxWeakCount>6</maxWeakCount>
      <stageThreshold>-6.5360563993453979e-01</stageThreshold>
      <weakClassifiers>
        <_>
          <internalNodes>
            0 -1 58 537182914 1342345217 3261748 50921668 -1064697715
            -1467383720 302001006 -1456834207</internalNodes>
          <leafValues>
            -5.2913755178451538e-01 2.6180258393287659e-01</leafValues></_>
        <_>
          <internalNodes>
            0 -1 115 700130175 1284591748 1895940160 76304533 1082460808
            168493187 -603914093 446492430</internalNodes>
          <leafValues>
            -5.8927798271179199e-01 2.9769781231880188e-01</leafValues></_>
        <_>
          <internalNodes>
            0 -1 91 1082957013 491864328 806355039 33554749 -1073676005
            -1433391093 536903816 -1391015085</internalNodes>
          <leafValues>
            -4.4674327969551086e-01 4.4379520416259766e-01</leafValues></_>
        <_>
          <internalNodes>
            0 -1 125 1519054986 -1878402943 1090568549 21070145
            -1610444757 -1610596217 -1700167569 281074240</internalNodes>
          <leafValues>
            -4.9194163084030151e-01 4.0692347288131714e-01</leafValues></_>
        <_>
          <internalNodes>
            0 -1 96 -2136763931 906756161 1107886337 -1915584251
            1091076210 -1710718949 -914289519 2121743044</internalNodes>
          <leafValues>
            -5.3314322233200073e-01 3.5349476337432861e-01</leafValues></_>
        <_>
          <internalNodes>
            0 -1 20 -805026306 276894855 -2147479511 1930760458
            1749691050 142671872 142612745 1694634252</internalNodes>
          <leafValues>
            -6.3980519771575928e-01 3.4951186180114746e-01</leafValues></_></weakClassifiers></_>
    <!-- stage 18 -->
    <_>
      <maxWeakCount>7</maxWeakCount>
      <stageThreshold>-4.2767065763473511e-01</stageThreshold>
      <weakClassifiers>
        <_>
          <internalNodes>
            0 -1 46 411509982 205785804 -2147450624 -1593540582
            -2147446464 -1987575804 1360724034 677859072</internalNodes>
          <leafValues>
            -8.4390246868133545e-01 9.8550722002983093e-02</leafValues></_>
        <_>
          <internalNodes>
            0 -1 56 1284907238 173408725 1378706 -426704618 -662138608
            1518862481 134791307 9144467</internalNodes>
          <leafValues>
            -7.3832869529724121e-01 1.7879633605480194e-01</leafValues></_>
        <_>
          <internalNodes>
            0 -1 26 2017692990 294895747 1073746867 1495466112
            1241571971 1787445280 1535606921 21316480</internalNodes>
          <leafValues>
            -4.5883557200431824e-01 3.7335240840911865e-01</leafValues></_>
        <_>
          <internalNodes>
            0 -1 48 805450390 1091830021 -2013263592 491520045 50348293
            767164426 -1979233654 -767311527</internalNodes>
          <leafValues>
            -4.4803547859191895e-01 4.3393525481224060e-01</leafValues></_>
        <_>
          <internalNodes>
            0 -1 62 -2145246514 -1137246143 318984342 -1559982007
            402784986 1481154560 -1954316063 -526699765</internalNodes>
          <leafValues>
            -4.4797077775001526e-01 4.3904867768287659e-01</leafValues></_>
        <_>
          <internalNodes>
            0 -1 49 -8470949 -1360085249 1069461492 -1346371842
            -268488757 -1115816065 -8411352 -1587026046</internalNodes>
          <leafValues>
            -4.1854906082153320e-01 5.0426465272903442e-01</leafValues></_>
        <_>
          <internalNodes>
            0 -1 119 1342249104 340383873 272634000 21545362 -2012648433
            176193544 -2130050550 425230989</internalNodes>
          <leafValues>
            -5.9604048728942871e-01 3.5751011967658997e-01</leafValues></_></weakClassifiers></_>
    <!-- stage 19 -->
    <_>
      <maxWeakCount>8</maxWeakCount>
      <stageThreshold>-9.9544888734817505e-01</stageThreshold>
      <weakClassifiers>
        <_>
          <internalNodes>
            0 -1 75 1162078426 227823689 -1031696064 -2127556608
            1042426080 1787003010 318806192 -358018546</internalNodes>
          <leafValues>
            -5.4146343469619751e-01 2.4123711884021759e-01</leafValues></_>
        <_>
          <internalNodes>
            0 -1 108 565233163 294773251 17830149 785684869 269140619
            1921515520 -1861646136 805876753</internalNodes>
          <leafValues>
            -5.6201535463333130e-01 2.9154905676841736e-01</leafValues></_>
        <_>
          <internalNodes>
            0 -1 44 -365580389 -1511407954 -331943 -1363185681 -33606155
            -33587329 -234965223 -1368924301</internalNodes>
          <leafValues>
            -3.6070641875267029e-01 5.2976274490356445e-01</leafValues></_>
        <_>
          <internalNodes>
            0 -1 72 -61782 1072593775 -16777490 -335578114 1979670130
            -33720353 1333671708 -1696893097</internalNodes>
          <leafValues>
            -3.5452133417129517e-01 5.2553373575210571e-01</leafValues></_>
        <_>
          <internalNodes>
            0 -1 32 -5321103 1006632890 -196818 -1114116545 2012706766
            -193495043 -1048594 -1423743888</internalNodes>
          <leafValues>
            -3.9675059914588928e-01 5.1268452405929565e-01</leafValues></_>
        <_>
          <internalNodes>
            0 -1 24 1179544590 -2088480754 268570628 -649772974
            1958845258 -351755904 33562683 -653727420</internalNodes>
          <leafValues>
            -4.6303820610046387e-01 4.6623963117599487e-01</leafValues></_>
        <_>
          <internalNodes>
            0 -1 109 1140725837 1296056325 -2130652922 805371920
            134222003 285212736 39378 -1953791998</internalNodes>
          <leafValues>
            -4.7862216830253601e-01 4.6460828185081482e-01</leafValues></_>
        <_>
          <internalNodes>
            0 -1 40 -2136529250 -805023293 16842881 -1333526389
            -1307377405 -1593749502 -1869397807 551916245</internalNodes>
          <leafValues>
            -6.1465018987655640e-01 3.4192156791687012e-01</leafValues></_></weakClassifiers></_></stages>
  <features>
    <_>
      <rect>
        0 0 2 2</rect></_>
    <_>
      <rect>
        0 0 5 3</rect></_>
    <_>
      <rect>
        0 1 5 1</rect></_>
    <_>
      <rect>
        0 1 7 3</rect></_>
    <_>
      <rect>
        0 2 4 2</rect></_>
    <_>
      <rect>
        0 4 1 1</rect></_>
    <_>
      <rect>
        0 4 2 1</rect></_>
    <_>
      <rect>
        0 4 4 2</rect></_>
    <_>
      <rect>
        0 4 8 2</rect></_>
    <_>
      <rect>
        0 5 1 1</rect></_>
    <_>
      <rect>
        0 7 1 1</rect></_>
    <_>
      <rect>
        0 7 5 1</rect></_>
    <_>
      <rect>
        1 0 3 1</rect></_>
    <_>
      <rect>
        1 0 4 1</rect></_>
    <_>
      <rect>
        1 0 5 2</rect></_>
    <_>
      <rect>
        1 0 5 3</rect></_>
    <_>
      <rect>
        1 1 2 3</rect></_>
    <_>
      <rect>
        1 1 4 3</rect></_>
    <_>
      <rect>
        1 2 3 1</rect></_>
    <_>
      <rect>
        1 3 2 1</rect></_>
    <_>
      <rect>
        1 3 5 2</rect></_>
    <_>
      <rect>
        1 4 3 2</rect></_>
    <_>
      <rect>
        1 4 6 2</rect></_>
    <_>
      <rect>
        1 5 2 1</rect></_>
    <_>
      <rect>
        1 6 1 1</rect></_>
    <_>
      <rect>
        1 6 2 1</rect></_>
    <_>
      <rect>
        1 7 1 1</rect></_>
    <_>
      <rect>
        1 7 3 1</rect></_>
    <_>
      <rect>
        2 0 3 1</rect></_>
    <_>
      <rect>
        2 1 2 2</rect></_>
    <_>
      <rect>
        2 1 7 3</rect></_>
    <_>
      <rect>
        2 2 3 1</rect></_>
    <_>
      <rect>
        2 3 2 1</rect></_>
    <_>
      <rect>
        2 3 2 2</rect></_>
    <_>
      <rect>
        2 3 3 1</rect></_>
    <_>
      <rect>
        2 3 4 2</rect></_>
    <_>
      <rect>
        2 3 6 2</rect></_>
    <_>
      <rect>
        2 7 2 1</rect></_>
    <_>
      <rect>
        2 7 4 1</rect></_>
    <_>
      <rect>
        3 0 4 2</rect></_>
    <_>
      <rect>
        3 2 1 1</rect></_>
    <_>
      <rect>
        3 4 2 1</rect></_>
    <_>
      <rect>
        3 4 3 2</rect></_>
    <_>
      <rect>
        3 4 4 2</rect></_>
    <_>
      <rect>
        3 5 2 1</rect></_>
    <_>
      <rect>
        4 0 7 3</rect></_>
    <_>
      <rect>
        4 1 3 3</rect></_>
    <_>
      <rect>
        4 1 6 2</rect></_>
    <_>
      <rect>
        4 2 4 1</rect></_>
    <_>
      <rect>
        4 3 3 2</rect></_>
    <_>
      <rect>
        4 4 3 2</rect></_>
    <_>
      <rect>
        4 6 4 1</rect></_>
    <_>
      <rect>
        4 7 2 1</rect></_>
    <_>
      <rect>
        4 7 3 1</rect></_>
    <_>
      <rect>
        4 7 5 1</rect></_>
    <_>
      <rect>
        4 7 6 1</rect></_>
    <_>
      <rect>
        4 7 7 1</rect></_>
    <_>
      <rect>
        5 0 1 1</rect></_>
    <_>
      <rect>
        5 3 2 2</rect></_>
    <_>
      <rect>
        5 4 6 2</rect></_>
    <_>
      <rect>
        5 6 2 1</rect></_>
    <_>
      <rect>
        5 6 3 1</rect></_>
    <_>
      <rect>
        6 0 3 1</rect></_>
    <_>
      <rect>
        6 0 6 3</rect></_>
    <_>
      <rect>
        6 1 3 3</rect></_>
    <_>
      <rect>
        6 3 3 1</rect></_>
    <_>
      <rect>
        6 4 4 2</rect></_>
    <_>
      <rect>
        6 5 2 1</rect></_>
    <_>
      <rect>
        6 7 1 1</rect></_>
    <_>
      <rect>
        6 7 4 1</rect></_>
    <_>
      <rect>
        7 0 6 3</rect></_>
    <_>
      <rect>
        7 1 2 1</rect></_>
    <_>
      <rect>
        7 2 2 2</rect></_>
    <_>
      <rect>
        7 3 2 1</rect></_>
    <_>
      <rect>
        7 6 1 1</rect></_>
    <_>
      <rect>
        7 7 3 1</rect></_>
    <_>
      <rect>
        8 0 2 1</rect></_>
    <_>
      <rect>
        8 0 3 2</rect></_>
    <_>
      <rect>
        8 0 5 1</rect></_>
    <_>
      <rect>
        8 1 5 3</rect></_>
    <_>
      <rect>
        8 3 1 1</rect></_>
    <_>
      <rect>
        8 5 1 1</rect></_>
    <_>
      <rect>
        8 6 4 1</rect></_>
    <_>
      <rect>
        9 0 4 1</rect></_>
    <_>
      <rect>
        9 0 4 2</rect></_>
    <_>
      <rect>
        9 3 2 2</rect></_>
    <_>
      <rect>
        9 3 3 2</rect></_>
    <_>
      <rect>
        9 5 2 1</rect></_>
    <_>
      <rect>
        9 6 3 1</rect></_>
    <_>
      <rect>
        10 0 5 2</rect></_>
    <_>
      <rect>
        10 1 2 1</rect></_>
    <_>
      <rect>
        10 2 1 1</rect></_>
    <_>
      <rect>
        10 6 1 1</rect></_>
    <_>
      <rect>
        10 7 5 1</rect></_>
    <_>
      <rect>
        11 0 1 1</rect></_>
    <_>
      <rect>
        11 2 3 2</rect></_>
    <_>
      <rect>
        11 3 2 1</rect></_>
    <_>
      <rect>
        11 4 1 1</rect></_>
    <_>
      <rect>
        11 4 2 1</rect></_>
    <_>
      <rect>
        12 1 1 1</rect></_>
    <_>
      <rect>
        12 4 1 1</rect></_>
    <_>
      <rect>
        12 5 4 1</rect></_>
    <_>
      <rect>
        13 0 2 1</rect></_>
    <_>
      <rect>
        13 3 2 1</rect></_>
    <_>
      <rect>
        13 5 1 1</rect></_>
    <_>
      <rect>
        14 0 2 2</rect></_>
    <_>
      <rect>
        14 2 1 1</rect></_>
    <_>
      <rect>
        15 3 2 1</rect></_>
    <_>
      <rect>
        15 5 1 1</rect></_>
    <_>
      <rect>
        15 6 3 1</rect></_>
    <_>
      <rect>
        16 0 1 1</rect></_>
    <_>
      <rect>
        16 0 3 3</rect></_>
    <_>
      <rect>
        16 1 3 1</rect></_>
    <_>
      <rect>
        16 2 2 2</rect></_>
    <_>
      <rect>
        16 2 3 2</rect></_>
    <_>
      <rect>
        16 4 3 2</rect></_>
    <_>
      <rect>
        16 6 1 1</rect></_>
    <_>
      <rect>
        17 0 1 1</rect></_>
    <_>
      <rect>
        17 1 2 1</rect></_>
    <_>
      <rect>
        18 3 1 1</rect></_>
    <_>
      <rect>
        18 4 2 2</rect></_>
    <_>
      <rect>
        18 6 2 1</rect></_>
    <_>
      <rect>
        19 2 2 2</rect></_>
    <_>
      <rect>
        19 5 2 1</rect></_>
    <_>
      <rect>
        19 7 2 1</rect></_>
    <_>
      <rect>
        20 7 1 1</rect></_>
    <_>
      <rect>
        21 2 1 1</rect></_>
    <_>
      <rect>
        21 3 1 1</rect></_>
    <_>
      <rect>
        21 6 1 1</rect></_>
    <_>
      <rect>
        22 2 1 1</rect></_></features></cascade>
</opencv_storage>
