<?xml version="1.0"?>
<opencv_storage>
<stage5>
  <maxWeakCount>7</maxWeakCount>
  <stageThreshold>-1.0673723220825195e+00</stageThreshold>
  <weakClassifiers>
    <_>
      <internalNodes>
        0 -1 732 -526412557 537925776 16875804 629686352 1895956687
        956399624 1392574491 1129007305</internalNodes>
      <leafValues>
        -6.4571428298950195e-01 2.2201834619045258e-01</leafValues></_>
    <_>
      <internalNodes>
        0 -1 662 -76582838 1517720274 -787132012 -2112814843 -2095523308
        1745690882 1192271880 649571214</internalNodes>
      <leafValues>
        -6.2498778104782104e-01 2.8899714350700378e-01</leafValues></_>
    <_>
      <internalNodes>
        0 -1 1374 -2129045721 1703477378 369135747 -1903259373 159451419
        1753907336 61577216 -506172533</internalNodes>
      <leafValues>
        -4.9130165576934814e-01 4.0784379839897156e-01</leafValues></_>
    <_>
      <internalNodes>
        0 -1 1483 1158661659 1342914887 8474925 337756170 -1442836054
        1610645512 168006173 38789127</internalNodes>
      <leafValues>
        -4.4467809796333313e-01 4.8583230376243591e-01</leafValues></_>
    <_>
      <internalNodes>
        0 -1 837 1430761780 201360469 -1727999647 -1890057977 143167872
        -743964529 -1903949816 -368485760</internalNodes>
      <leafValues>
        -4.7823756933212280e-01 4.3805229663848877e-01</leafValues></_>
    <_>
      <internalNodes>
        0 -1 307 575908366 287344920 364676 -49164272 1118173218
        1820885001 1225263462 1115890562</internalNodes>
      <leafValues>
        -6.4728617668151855e-01 3.5714110732078552e-01</leafValues></_>
    <_>
      <internalNodes>
        0 -1 697 -1065166761 -771649536 -1995440112 -2013265919
        268435545 1367867520 -2138566067 -1021838805</internalNodes>
      <leafValues>
        -5.0999498367309570e-01 4.9795511364936829e-01</leafValues></_></weakClassifiers></stage5>
</opencv_storage>
