<?xml version="1.0"?>
<opencv_storage>
<stage18>
  <maxWeakCount>7</maxWeakCount>
  <stageThreshold>-4.2767065763473511e-01</stageThreshold>
  <weakClassifiers>
    <_>
      <internalNodes>
        0 -1 479 411509982 205785804 -2147450624 -1593540582 -2147446464
        -1987575804 1360724034 677859072</internalNodes>
      <leafValues>
        -8.4390246868133545e-01 9.8550722002983093e-02</leafValues></_>
    <_>
      <internalNodes>
        0 -1 554 1284907238 173408725 1378706 -426704618 -662138608
        1518862481 134791307 9144467</internalNodes>
      <leafValues>
        -7.3832869529724121e-01 1.7879633605480194e-01</leafValues></_>
    <_>
      <internalNodes>
        0 -1 232 2017692990 294895747 1073746867 1495466112 1241571971
        1787445280 1535606921 21316480</internalNodes>
      <leafValues>
        -4.5883557200431824e-01 3.7335240840911865e-01</leafValues></_>
    <_>
      <internalNodes>
        0 -1 498 805450390 1091830021 -2013263592 491520045 50348293
        767164426 -1979233654 -767311527</internalNodes>
      <leafValues>
        -4.4803547859191895e-01 4.3393525481224060e-01</leafValues></_>
    <_>
      <internalNodes>
        0 -1 651 -2145246514 -1137246143 318984342 -1559982007 402784986
        1481154560 -1954316063 -526699765</internalNodes>
      <leafValues>
        -4.4797077775001526e-01 4.3904867768287659e-01</leafValues></_>
    <_>
      <internalNodes>
        0 -1 511 -8470949 -1360085249 1069461492 -1346371842 -268488757
        -1115816065 -8411352 -1587026046</internalNodes>
      <leafValues>
        -4.1854906082153320e-01 5.0426465272903442e-01</leafValues></_>
    <_>
      <internalNodes>
        0 -1 1411 1342249104 340383873 272634000 21545362 -2012648433
        176193544 -2130050550 425230989</internalNodes>
      <leafValues>
        -5.9604048728942871e-01 3.5751011967658997e-01</leafValues></_></weakClassifiers></stage18>
</opencv_storage>
