<?xml version="1.0"?>
<opencv_storage>
<stage4>
  <maxWeakCount>6</maxWeakCount>
  <stageThreshold>-5.7194024324417114e-01</stageThreshold>
  <weakClassifiers>
    <_>
      <internalNodes>
        0 -1 470 -116138586 -704589790 -1073405504 -904783740
        -2147317486 554043401 672258700 68919854</internalNodes>
      <leafValues>
        -7.6208180189132690e-01 1.5974441170692444e-01</leafValues></_>
    <_>
      <internalNodes>
        0 -1 1440 -1781263911 -702778989 20497 1422692624 302025223
        -784103260 1277723153 -457679876</internalNodes>
      <leafValues>
        -4.8916125297546387e-01 3.7603250145912170e-01</leafValues></_>
    <_>
      <internalNodes>
        0 -1 422 1482146780 683737409 1073748757 -1971220064 2046825313
        209912448 704715540 1384805123</internalNodes>
      <leafValues>
        -6.8800443410873413e-01 2.9947644472122192e-01</leafValues></_>
    <_>
      <internalNodes>
        0 -1 417 -1360007235 547340205 2147450425 1458501863 1342044111
        1014955900 2004320199 -369496504</internalNodes>
      <leafValues>
        -4.0013352036476135e-01 5.3558850288391113e-01</leafValues></_>
    <_>
      <internalNodes>
        0 -1 96 -86126697 678981629 1072643830 1593835486 -152060547
        2046820351 1199437527 -960631215</internalNodes>
      <leafValues>
        -3.4913706779479980e-01 6.2911170721054077e-01</leafValues></_>
    <_>
      <internalNodes>
        0 -1 246 471528122 -2096082477 -2147467071 -2021650352 42467370
        402753552 -662155092 -1313396592</internalNodes>
      <leafValues>
        -6.0616415739059448e-01 3.9588335156440735e-01</leafValues></_></weakClassifiers></stage4>
</opencv_storage>
