<?xml version="1.0"?>
<opencv_storage>
<stage11>
  <maxWeakCount>7</maxWeakCount>
  <stageThreshold>-8.0506289005279541e-01</stageThreshold>
  <weakClassifiers>
    <_>
      <internalNodes>
        0 -1 286 1092322079 1694568585 -2139093873 -316731252 1443425202
        595787912 1199604392 -2144223188</internalNodes>
      <leafValues>
        -4.6456691622734070e-01 3.3850130438804626e-01</leafValues></_>
    <_>
      <internalNodes>
        0 -1 1248 37908913 621904783 88084571 -413777749 -1962831860
        1778909314 1476596265 719077428</internalNodes>
      <leafValues>
        -5.7576441764831543e-01 2.9866376519203186e-01</leafValues></_>
    <_>
      <internalNodes>
        0 -1 837 1091666420 -2126247512 822150493 -1925082237
        -1865934199 -1132298102 -1834972856 -1571600252</internalNodes>
      <leafValues>
        -4.5204851031303406e-01 4.2967391014099121e-01</leafValues></_>
    <_>
      <internalNodes>
        0 -1 1491 687548251 1357770109 -78274 1853814714 -168132804
        1341845469 1836918781 -712902657</internalNodes>
      <leafValues>
        -3.9994159340858459e-01 5.4033887386322021e-01</leafValues></_>
    <_>
      <internalNodes>
        0 -1 885 73093478 1501972635 -2139090927 72436167 1581518923
        -947777407 553845078 -879875743</internalNodes>
      <leafValues>
        -5.1924812793731689e-01 4.0362814068794250e-01</leafValues></_>
    <_>
      <internalNodes>
        0 -1 1301 134383411 -1744437227 16778007 1686487968 -1028996950
        1375797258 -1844658056 -1465896775</internalNodes>
      <leafValues>
        -4.7944563627243042e-01 4.7278901934623718e-01</leafValues></_>
    <_>
      <internalNodes>
        0 -1 246 538100490 -1878389360 1208067037 -1585314292 1220542600
        -1467678577 -1608335191 763695160</internalNodes>
      <leafValues>
        -6.2243294715881348e-01 3.6984679102897644e-01</leafValues></_></weakClassifiers></stage11>
</opencv_storage>
