<?xml version="1.0"?>
<opencv_storage>
<stage2>
  <maxWeakCount>6</maxWeakCount>
  <stageThreshold>-7.4967336654663086e-01</stageThreshold>
  <weakClassifiers>
    <_>
      <internalNodes>
        0 -1 211 811470046 621998546 68228369 154405137 8524009
        976290451 144312360 1883722491</internalNodes>
      <leafValues>
        -8.1506848335266113e-01 2.2056384384632111e-01</leafValues></_>
    <_>
      <internalNodes>
        0 -1 155 -779406631 -1333251691 4211761 1217597570 526471
        721486353 151587114 13068832</internalNodes>
      <leafValues>
        -7.2831952571868896e-01 2.6241189241409302e-01</leafValues></_>
    <_>
      <internalNodes>
        0 -1 854 -800619308 269484052 -1660923584 201344277 277053577
        673185802 -2145871834 184009739</internalNodes>
      <leafValues>
        -6.5370196104049683e-01 3.8344329595565796e-01</leafValues></_>
    <_>
      <internalNodes>
        0 -1 525 2113863551 -1157677378 2126262257 -1161838593
        2147425100 803028863 1064779753 -117575874</internalNodes>
      <leafValues>
        -4.6332401037216187e-01 5.4613715410232544e-01</leafValues></_>
    <_>
      <internalNodes>
        0 -1 553 806453491 42991697 1102080 139853965 268468383
        193593344 159392411 462129539</internalNodes>
      <leafValues>
        -5.7773590087890625e-01 4.2494174838066101e-01</leafValues></_>
    <_>
      <internalNodes>
        0 -1 172 -754659153 -190836735 17104896 -2079309796 -2147479533
        -1851752312 32927 -987014912</internalNodes>
      <leafValues>
        -5.1439368724822998e-01 4.8705792427062988e-01</leafValues></_></weakClassifiers></stage2>
</opencv_storage>
