<?xml version="1.0"?>
<opencv_storage>
<stage12>
  <maxWeakCount>7</maxWeakCount>
  <stageThreshold>-1.0429177284240723e+00</stageThreshold>
  <weakClassifiers>
    <_>
      <internalNodes>
        0 -1 544 1000331251 1165376 -922402480 234881296 1343228044
        1757987329 -1325314787 -648888054</internalNodes>
      <leafValues>
        -5.3810626268386841e-01 2.7705627679824829e-01</leafValues></_>
    <_>
      <internalNodes>
        0 -1 339 -1802811630 802341147 33655125 -613433341 1073764429
        521339145 -2130607335 -124790117</internalNodes>
      <leafValues>
        -4.5272421836853027e-01 4.0992966294288635e-01</leafValues></_>
    <_>
      <internalNodes>
        0 -1 967 -518534173 788762641 -1744809960 1108771010 287312497
        1570779136 2080542724 -1064111999</internalNodes>
      <leafValues>
        -5.6454330682754517e-01 3.3479204773902893e-01</leafValues></_>
    <_>
      <internalNodes>
        0 -1 1328 58966989 975069186 -2146331758 -665829093 25428626
        461504512 -1988027246 14211356</internalNodes>
      <leafValues>
        -6.0137540102005005e-01 3.5634025931358337e-01</leafValues></_>
    <_>
      <internalNodes>
        0 -1 186 -2134719462 -1575910911 276824087 214438936 -938995505
        419725633 -1316141516 -1016675543</internalNodes>
      <leafValues>
        -5.6491869688034058e-01 3.6021283268928528e-01</leafValues></_>
    <_>
      <internalNodes>
        0 -1 205 2130538175 -1079918930 2092642094 -8978586 2146926056
        536870910 2105372458 -282067083</internalNodes>
      <leafValues>
        -4.4339630007743835e-01 5.5105668306350708e-01</leafValues></_>
    <_>
      <internalNodes>
        0 -1 1040 1854895048 1408733459 -2130702073 319069330 1090614633
        1762263304 268978345 1973629484</internalNodes>
      <leafValues>
        -5.8802711963653564e-01 4.0764847397804260e-01</leafValues></_></weakClassifiers></stage12>
</opencv_storage>
