<?xml version="1.0"?>
<opencv_storage>
<stage10>
  <maxWeakCount>8</maxWeakCount>
  <stageThreshold>-6.2042939662933350e-01</stageThreshold>
  <weakClassifiers>
    <_>
      <internalNodes>
        0 -1 893 -1999508481 -1391095614 -1073707844 679579904
        1224755915 453609480 134447177 -510794870</internalNodes>
      <leafValues>
        -5.3669726848602295e-01 2.8104576468467712e-01</leafValues></_>
    <_>
      <internalNodes>
        0 -1 1335 357643351 1446170642 -787414629 34220813 142811269
        1301061633 -1601649584 -1713035760</internalNodes>
      <leafValues>
        -5.1959848403930664e-01 3.5098272562026978e-01</leafValues></_>
    <_>
      <internalNodes>
        0 -1 1090 6951449 -1952988733 -1006548983 403063771 419495977
        1788051652 553751041 -353080572</internalNodes>
      <leafValues>
        -5.5133670568466187e-01 3.4533718228340149e-01</leafValues></_>
    <_>
      <internalNodes>
        0 -1 729 1543231083 1996487675 1476345829 959937902 855097343
        -75628556 1006596710 -1277827213</internalNodes>
      <leafValues>
        -3.4725743532180786e-01 6.6292631626129150e-01</leafValues></_>
    <_>
      <internalNodes>
        0 -1 1450 71313647 138792968 51745238 109183060 -1988054875
        872521792 295768163 -1035419636</internalNodes>
      <leafValues>
        -6.7208892107009888e-01 3.2711234688758850e-01</leafValues></_>
    <_>
      <internalNodes>
        0 -1 1476 102278001 564135955 50425874 1430358610 17433281
        -1170730878 -1023407360 1482902096</internalNodes>
      <leafValues>
        -5.5935031175613403e-01 4.0980407595634460e-01</leafValues></_>
    <_>
      <internalNodes>
        0 -1 785 -1073463114 -1793588975 268436538 -530792185
        -1073741692 -1937686391 1612859552 -467533751</internalNodes>
      <leafValues>
        -5.8813840150833130e-01 4.2028275132179260e-01</leafValues></_>
    <_>
      <internalNodes>
        0 -1 300 -229474269 -2011102909 151060750 1539346764 594011
        1812470443 -2004189148 -310229491</internalNodes>
      <leafValues>
        -5.2873438596725464e-01 4.8212361335754395e-01</leafValues></_></weakClassifiers></stage10>
</opencv_storage>
