<?xml version="1.0"?>
<opencv_storage>
<stage1>
  <maxWeakCount>7</maxWeakCount>
  <stageThreshold>-8.6566430330276489e-01</stageThreshold>
  <weakClassifiers>
    <_>
      <internalNodes>
        0 -1 281 -652749313 1024790547 285573445 1067278728 41102
        -1425309566 -1039650630 550232303</internalNodes>
      <leafValues>
        -5.5691057443618774e-01 4.1935482621192932e-01</leafValues></_>
    <_>
      <internalNodes>
        0 -1 555 293385201 837451798 285253957 -868218587 -1056860024
        -935262068 -1023371175 1033644564</internalNodes>
      <leafValues>
        -6.2842983007431030e-01 3.4472811222076416e-01</leafValues></_>
    <_>
      <internalNodes>
        0 -1 945 75953385 746647596 -2129559550 683770013 -1874132538
        373817346 -930019222 1615529990</internalNodes>
      <leafValues>
        -6.9348323345184326e-01 3.0537518858909607e-01</leafValues></_>
    <_>
      <internalNodes>
        0 -1 234 -671435355 981462630 -1351667841 -1048711 788477909
        1325105022 -588296597 -1147945369</internalNodes>
      <leafValues>
        -3.7315043807029724e-01 6.3280665874481201e-01</leafValues></_>
    <_>
      <internalNodes>
        0 -1 671 1939011518 -787447294 16802064 -1274081206 51528420
        1091190803 2055221256 839737680</internalNodes>
      <leafValues>
        -6.8209815025329590e-01 3.7034988403320312e-01</leafValues></_>
    <_>
      <internalNodes>
        0 -1 832 -1494606340 -185663490 -262151 -814747666 -570658948
        -671680514 1610602307 -1678246033</internalNodes>
      <leafValues>
        -4.9507647752761841e-01 5.7441985607147217e-01</leafValues></_>
    <_>
      <internalNodes>
        0 -1 303 1877987134 1055850492 -69762 -1207959633 2147440639
        1023278967 -57431 -412620914</internalNodes>
      <leafValues>
        -4.6098002791404724e-01 5.8956432342529297e-01</leafValues></_></weakClassifiers></stage1>
</opencv_storage>
