<?xml version="1.0"?>
<opencv_storage>
<stage16>
  <maxWeakCount>7</maxWeakCount>
  <stageThreshold>-8.5526102781295776e-01</stageThreshold>
  <weakClassifiers>
    <_>
      <internalNodes>
        0 -1 341 1342177279 931134847 -1090621641 -1409287427 1828664819
        -268537873 -276992133 -11108437</internalNodes>
      <leafValues>
        -4.1275167465209961e-01 4.7157189249992371e-01</leafValues></_>
    <_>
      <internalNodes>
        0 -1 36 -1055992518 -691011572 147 -1895235312 -2012069725
        711131147 1251052137 1424196165</internalNodes>
      <leafValues>
        -4.9485799670219421e-01 3.7570893764495850e-01</leafValues></_>
    <_>
      <internalNodes>
        0 -1 1422 273526103 852885649 1495090600 749208642 -2147466536
        145817658 1615364757 -268122919</internalNodes>
      <leafValues>
        -5.1004964113235474e-01 3.7961059808731079e-01</leafValues></_>
    <_>
      <internalNodes>
        0 -1 1234 17113748 289411603 554373136 473985287 -1073676143
        1243645960 -2075426367 -1960031456</internalNodes>
      <leafValues>
        -5.4615503549575806e-01 3.9404255151748657e-01</leafValues></_>
    <_>
      <internalNodes>
        0 -1 1150 -768978475 353865811 1073742162 -1828040682 50344065
        -268353503 -1307878904 -1014610181</internalNodes>
      <leafValues>
        -4.6998915076255798e-01 5.1521122455596924e-01</leafValues></_>
    <_>
      <internalNodes>
        0 -1 1359 -2059185328 621580676 117506518 542703634 -268287766
        1166147586 1351123073 1277216774</internalNodes>
      <leafValues>
        -6.3687157630920410e-01 3.9000242948532104e-01</leafValues></_>
    <_>
      <internalNodes>
        0 -1 718 1573176983 1233240081 -1073708470 -973044720 268439110
        700481546 -2004790784 -820800407</internalNodes>
      <leafValues>
        -5.3001356124877930e-01 4.4357296824455261e-01</leafValues></_></weakClassifiers></stage16>
</opencv_storage>
