<?xml version="1.0"?>
<opencv_storage>
<stage15>
  <maxWeakCount>6</maxWeakCount>
  <stageThreshold>-4.8085644841194153e-01</stageThreshold>
  <weakClassifiers>
    <_>
      <internalNodes>
        0 -1 943 1092489682 16777560 16793603 139724035 2013308065
        -670564086 1346601876 -1439470217</internalNodes>
      <leafValues>
        -5.6476682424545288e-01 2.2200392186641693e-01</leafValues></_>
    <_>
      <internalNodes>
        0 -1 909 1342239040 -1516092879 -2097036514 -1920806640
        270543370 -1144782807 -393643486 -1590460270</internalNodes>
      <leafValues>
        -5.1805686950683594e-01 3.1962075829505920e-01</leafValues></_>
    <_>
      <internalNodes>
        0 -1 1204 1098995633 202678686 1342259263 -402095341 285256129
        1554522125 -905143807 -222698990</internalNodes>
      <leafValues>
        -4.6267578005790710e-01 3.7209045886993408e-01</leafValues></_>
    <_>
      <internalNodes>
        0 -1 1320 676607553 1381097803 1342210371 -1945042940 1074413961
        -1206910783 -1770955735 767822088</internalNodes>
      <leafValues>
        -6.0775655508041382e-01 3.4484955668449402e-01</leafValues></_>
    <_>
      <internalNodes>
        0 -1 1478 1467872687 -1342231069 -269746451 1917714431
        -138412099 -1409286179 1197395942 -809083663</internalNodes>
      <leafValues>
        -3.6793854832649231e-01 6.2944567203521729e-01</leafValues></_>
    <_>
      <internalNodes>
        0 -1 1122 -1149276291 1048244222 -1098924057 -1375735823
        2146918399 -1073774594 -16957452 -847290575</internalNodes>
      <leafValues>
        -4.1887649893760681e-01 5.0617653131484985e-01</leafValues></_></weakClassifiers></stage15>
</opencv_storage>
