<?xml version="1.0"?>
<opencv_storage>
<stage0>
  <maxWeakCount>6</maxWeakCount>
  <stageThreshold>-5.6090772151947021e-01</stageThreshold>
  <weakClassifiers>
    <_>
      <internalNodes>
        0 -1 626 -1907904594 537165960 -2011708987 608764057 176259838
        940179594 -2004317957 736070047</internalNodes>
      <leafValues>
        -7.4117648601531982e-01 4.4680851697921753e-01</leafValues></_>
    <_>
      <internalNodes>
        0 -1 752 -846859521 1209139200 16781661 -1441758720 565502
        -1064730614 419549918 145934734</internalNodes>
      <leafValues>
        -6.0637015104293823e-01 4.1326397657394409e-01</leafValues></_>
    <_>
      <internalNodes>
        0 -1 116 1141965297 134414352 -1056964586 -1785642861 134238214
        287869064 8547131 -70042997</internalNodes>
      <leafValues>
        -5.7072943449020386e-01 4.7123974561691284e-01</leafValues></_>
    <_>
      <internalNodes>
        0 -1 1343 670592735 1870593791 -1342177281 -2098429954
        -318816898 1342107646 -1879130113 343854223</internalNodes>
      <leafValues>
        -4.7165521979331970e-01 5.9591102600097656e-01</leafValues></_>
    <_>
      <internalNodes>
        0 -1 14 -675225089 -1845362688 16842771 -763228094 -1065334770
        1084260488 -1006632784 85418412</internalNodes>
      <leafValues>
        -6.7504787445068359e-01 3.8714239001274109e-01</leafValues></_>
    <_>
      <internalNodes>
        0 -1 865 -2004821684 -641429375 1090523423 -685326059
        -2011167766 -1943928704 138510488 -1454374615</internalNodes>
      <leafValues>
        -5.8000499010086060e-01 4.4246816635131836e-01</leafValues></_></weakClassifiers></stage0>
</opencv_storage>
