<?xml version="1.0"?>
<opencv_storage>
<stage13>
  <maxWeakCount>7</maxWeakCount>
  <stageThreshold>-9.5759838819503784e-01</stageThreshold>
  <weakClassifiers>
    <_>
      <internalNodes>
        0 -1 961 1528027486 671367709 285280529 -2083717032 1661011028
        1233195017 84044143 -229909410</internalNodes>
      <leafValues>
        -5.0724637508392334e-01 3.3980581164360046e-01</leafValues></_>
    <_>
      <internalNodes>
        0 -1 552 -905635849 680517730 218173996 -1910240827 239787
        1317046982 -1744824025 -225914680</internalNodes>
      <leafValues>
        -5.4458206892013550e-01 3.2264792919158936e-01</leafValues></_>
    <_>
      <internalNodes>
        0 -1 1365 1003688561 -2112175999 -1568587749 1157743236
        1241682249 -1337261568 10700813 -400031243</internalNodes>
      <leafValues>
        -4.8609855771064758e-01 4.0287417173385620e-01</leafValues></_>
    <_>
      <internalNodes>
        0 -1 149 289654748 -1845493298 -1878956010 -268337008 1224753159
        -2146828288 -1878906796 429343154</internalNodes>
      <leafValues>
        -5.2686089277267456e-01 4.2661169171333313e-01</leafValues></_>
    <_>
      <internalNodes>
        0 -1 112 1905221974 823482515 1610629192 1157742786 1107484983
        1241743490 268585851 1943093582</internalNodes>
      <leafValues>
        -5.5452984571456909e-01 3.9351767301559448e-01</leafValues></_>
    <_>
      <internalNodes>
        0 -1 1049 -934774826 26510384 67310043 -1026801646 -1677401617
        1251475586 134742272 -351547776</internalNodes>
      <leafValues>
        -5.9009468555450439e-01 3.8028720021247864e-01</leafValues></_>
    <_>
      <internalNodes>
        0 -1 355 -987671340 -1191116517 1048860 -805142439 -1604091776
        -1339555839 -2147446152 1145236027</internalNodes>
      <leafValues>
        -5.9764814376831055e-01 4.1479381918907166e-01</leafValues></_></weakClassifiers></stage13>
</opencv_storage>
