<?xml version="1.0"?>
<opencv_storage>
<stage19>
  <maxWeakCount>6</maxWeakCount>
  <stageThreshold>-8.0106210708618164e-01</stageThreshold>
  <weakClassifiers>
    <_>
      <internalNodes>
        0 -1 21293 -1005851506 176193540 16781662 -1464844271
        -2146953020 1770062984 1049249 -1027366908</internalNodes>
      <leafValues>
        -7.0779222249984741e-01 2.0067453384399414e-01</leafValues></_>
    <_>
      <internalNodes>
        0 -1 10914 1250361562 135450898 402653186 751325328 8401048
        1674051626 1090551835 -620068726</internalNodes>
      <leafValues>
        -6.9010317325592041e-01 2.6090469956398010e-01</leafValues></_>
    <_>
      <internalNodes>
        0 -1 1154 403726862 -664797182 1073750087 1476591916 -1073573728
        -1534361597 176753127 1212386184</internalNodes>
      <leafValues>
        -5.0644999742507935e-01 4.3865045905113220e-01</leafValues></_>
    <_>
      <internalNodes>
        0 -1 3647 1077971965 18678049 419666958 -1471532920 2752541
        -393968640 1762291824 -694381037</internalNodes>
      <leafValues>
        -5.7751512527465820e-01 3.9903733134269714e-01</leafValues></_>
    <_>
      <internalNodes>
        0 -1 19795 872415940 1032949761 -1006387119 -2063245312
        1728079937 1342193793 1342194432 -761505017</internalNodes>
      <leafValues>
        -5.4018270969390869e-01 4.5077380537986755e-01</leafValues></_>
    <_>
      <internalNodes>
        0 -1 12772 -800911054 -116226932 285216786 -300937214
        -1568661488 -1327464312 1468172424 1312890909</internalNodes>
      <leafValues>
        -6.5624839067459106e-01 3.6150652170181274e-01</leafValues></_></weakClassifiers></stage19>
</opencv_storage>
