<?xml version="1.0"?>
<opencv_storage>
<stage3>
  <maxWeakCount>6</maxWeakCount>
  <stageThreshold>-4.3974739313125610e-01</stageThreshold>
  <weakClassifiers>
    <_>
      <internalNodes>
        0 -1 13814 -985282337 39404739 -1811873584 202489936 51000433
        218677385 -2146793457 -343435061</internalNodes>
      <leafValues>
        -5.3156822919845581e-01 3.9512196183204651e-01</leafValues></_>
    <_>
      <internalNodes>
        0 -1 13700 324200910 962085313 -1996471096 85084420 302322816
        -1576255485 1635840568 1897369315</internalNodes>
      <leafValues>
        -5.9363830089569092e-01 3.6809453368186951e-01</leafValues></_>
    <_>
      <internalNodes>
        0 -1 22814 1615654879 143822864 -2130640024 248011200
        -2147344214 1610694666 -1845441846 -40844625</internalNodes>
      <leafValues>
        -5.0706201791763306e-01 4.6727058291435242e-01</leafValues></_>
    <_>
      <internalNodes>
        0 -1 4645 477591203 1073737593 -1359003652 -302121057 871645055
        2147483647 -164225 -1107788335</internalNodes>
      <leafValues>
        -5.0948542356491089e-01 5.3911018371582031e-01</leafValues></_>
    <_>
      <internalNodes>
        0 -1 16540 1255126319 33866887 -1056898813 -1991175808
        1216479569 -1971314622 135075845 -24189151</internalNodes>
      <leafValues>
        -5.6025290489196777e-01 4.6495661139488220e-01</leafValues></_>
    <_>
      <internalNodes>
        0 -1 690 1476471002 289816593 1073741841 -718520048 201852392
        134221952 67644168 1703892377</internalNodes>
      <leafValues>
        -6.0049611330032349e-01 4.8275166749954224e-01</leafValues></_></weakClassifiers></stage3>
</opencv_storage>
