<?xml version="1.0"?>
<opencv_storage>
<stage17>
  <maxWeakCount>6</maxWeakCount>
  <stageThreshold>-1.1231132745742798e+00</stageThreshold>
  <weakClassifiers>
    <_>
      <internalNodes>
        0 -1 13725 73619871 -1990372986 -1862220269 -1182256895
        -1597894012 -1979023359 -888657585 -1362843100</internalNodes>
      <leafValues>
        -5.8508157730102539e-01 3.2203391194343567e-01</leafValues></_>
    <_>
      <internalNodes>
        0 -1 14678 1359077661 134234121 50406247 -1929150006 -1593828976
        -1490943861 1514144424 -685012568</internalNodes>
      <leafValues>
        -4.5795589685440063e-01 4.8006772994995117e-01</leafValues></_>
    <_>
      <internalNodes>
        0 -1 13848 -1471737569 -2112864103 -1744797676 -2013147064
        202050146 713097216 436863218 -1413233338</internalNodes>
      <leafValues>
        -5.6215012073516846e-01 4.1399008035659790e-01</leafValues></_>
    <_>
      <internalNodes>
        0 -1 7420 519958031 778206014 -285411359 -1343509508 -33588403
        -2013855881 -1623888589 -546714093</internalNodes>
      <leafValues>
        -4.0708094835281372e-01 6.2346303462982178e-01</leafValues></_>
    <_>
      <internalNodes>
        0 -1 10449 -1610417445 -1073692288 266769 -1056604013 713131140
        -1063190501 550166724 -1934467035</internalNodes>
      <leafValues>
        -5.6862854957580566e-01 4.6026727557182312e-01</leafValues></_>
    <_>
      <internalNodes>
        0 -1 20795 236056600 977342722 -1861070410 -1508802550
        1107308600 -1299673085 406880929 -624467321</internalNodes>
      <leafValues>
        -5.4890030622482300e-01 4.9337902665138245e-01</leafValues></_></weakClassifiers></stage17>
</opencv_storage>
