<?xml version="1.0"?>
<opencv_storage>
<stage7>
  <maxWeakCount>6</maxWeakCount>
  <stageThreshold>-5.0817400217056274e-01</stageThreshold>
  <weakClassifiers>
    <_>
      <internalNodes>
        0 -1 10826 826277887 742509023 268492801 704777792 320872494
        195493892 -1644140517 -232136501</internalNodes>
      <leafValues>
        -5.6709957122802734e-01 3.7129840254783630e-01</leafValues></_>
    <_>
      <internalNodes>
        0 -1 2726 138752846 -1932033911 268648647 -2025324531
        -1740396537 948437132 1770598418 1722597965</internalNodes>
      <leafValues>
        -7.2691965103149414e-01 2.9585969448089600e-01</leafValues></_>
    <_>
      <internalNodes>
        0 -1 25377 1910217203 285475943 -738095015 65922 1636107144
        1848655875 -2121754227 1688281753</internalNodes>
      <leafValues>
        -5.1442801952362061e-01 4.4727313518524170e-01</leafValues></_>
    <_>
      <internalNodes>
        0 -1 11782 -648699512 -2146168560 286345553 -2008989440
        -1543077846 830504961 1074817932 1673740942</internalNodes>
      <leafValues>
        -5.8177781105041504e-01 4.2557016015052795e-01</leafValues></_>
    <_>
      <internalNodes>
        0 -1 20325 1360124373 -2093921920 1350617300 -1912422144
        -652529142 545259523 -1475843957 -664017751</internalNodes>
      <leafValues>
        -5.3599321842193604e-01 4.7809249162673950e-01</leafValues></_>
    <_>
      <internalNodes>
        0 -1 12463 -1927829201 285278559 134627802 831963136 161570895
        1394212994 293816523 -967169654</internalNodes>
      <leafValues>
        -5.5048102140426636e-01 5.1260942220687866e-01</leafValues></_></weakClassifiers></stage7>
</opencv_storage>
