<?xml version="1.0"?>
<opencv_storage>
<stage8>
  <maxWeakCount>7</maxWeakCount>
  <stageThreshold>-7.9263842105865479e-01</stageThreshold>
  <weakClassifiers>
    <_>
      <internalNodes>
        0 -1 457256 2.0445697009563446e-02</internalNodes>
      <leafValues>
        2.2110553085803986e-01 -8.6274510622024536e-01</leafValues></_>
    <_>
      <internalNodes>
        0 -1 52811 4.7682791948318481e-02</internalNodes>
      <leafValues>
        -3.4475469589233398e-01 7.7681463956832886e-01</leafValues></_>
    <_>
      <internalNodes>
        0 -1 256385 1.4268651604652405e-02</internalNodes>
      <leafValues>
        -2.4556779861450195e-01 6.7501026391983032e-01</leafValues></_>
    <_>
      <internalNodes>
        0 -1 235430 -9.5245480537414551e-02</internalNodes>
      <leafValues>
        4.9408465623855591e-01 -3.5901841521263123e-01</leafValues></_>
    <_>
      <internalNodes>
        0 -1 475103 1.4094600919634104e-03</internalNodes>
      <leafValues>
        1.7077462375164032e-01 -9.8607683181762695e-01</leafValues></_>
    <_>
      <internalNodes>
        0 -1 484183 6.2760780565440655e-05</internalNodes>
      <leafValues>
        -4.2879933118820190e-01 3.9530780911445618e-01</leafValues></_>
    <_>
      <internalNodes>
        0 -1 483921 -1.3360911980271339e-03</internalNodes>
      <leafValues>
        -8.2848042249679565e-01 1.9362168014049530e-01</leafValues></_></weakClassifiers></stage8>
</opencv_storage>
