<?xml version="1.0"?>
<opencv_storage>
<stage5>
  <maxWeakCount>5</maxWeakCount>
  <stageThreshold>-3.9413520693778992e-01</stageThreshold>
  <weakClassifiers>
    <_>
      <internalNodes>
        0 -1 302156 9.6397489309310913e-02</internalNodes>
      <leafValues>
        -3.8461539149284363e-01 5.7213932275772095e-01</leafValues></_>
    <_>
      <internalNodes>
        0 -1 473870 -1.2039018329232931e-03</internalNodes>
      <leafValues>
        -6.9688993692398071e-01 2.9182371497154236e-01</leafValues></_>
    <_>
      <internalNodes>
        0 -1 432460 1.5928549692034721e-03</internalNodes>
      <leafValues>
        2.2744257748126984e-01 -7.9665261507034302e-01</leafValues></_>
    <_>
      <internalNodes>
        0 -1 9809 -2.4115229025483131e-03</internalNodes>
      <leafValues>
        -7.7032333612442017e-01 2.4439753592014313e-01</leafValues></_>
    <_>
      <internalNodes>
        0 -1 475437 -1.2734248302876949e-03</internalNodes>
      <leafValues>
        -7.4090421199798584e-01 2.8287050127983093e-01</leafValues></_></weakClassifiers></stage5>
</opencv_storage>
