<?xml version="1.0"?>
<opencv_storage>
<stage14>
  <maxWeakCount>7</maxWeakCount>
  <stageThreshold>-5.6637048721313477e-01</stageThreshold>
  <weakClassifiers>
    <_>
      <internalNodes>
        0 -1 222228 1.2436861172318459e-02</internalNodes>
      <leafValues>
        3.1428572535514832e-01 -7.3333334922790527e-01</leafValues></_>
    <_>
      <internalNodes>
        0 -1 315842 7.1166098117828369e-02</internalNodes>
      <leafValues>
        -5.1543867588043213e-01 5.1013171672821045e-01</leafValues></_>
    <_>
      <internalNodes>
        0 -1 429343 7.6241400092840195e-03</internalNodes>
      <leafValues>
        2.3599274456501007e-01 -8.0684369802474976e-01</leafValues></_>
    <_>
      <internalNodes>
        0 -1 446472 -3.3581864554435015e-03</internalNodes>
      <leafValues>
        -5.5862081050872803e-01 4.1708740592002869e-01</leafValues></_>
    <_>
      <internalNodes>
        0 -1 153425 -5.0458930432796478e-02</internalNodes>
      <leafValues>
        7.9426425695419312e-01 -2.4021083116531372e-01</leafValues></_>
    <_>
      <internalNodes>
        0 -1 330364 -5.0072647631168365e-02</internalNodes>
      <leafValues>
        7.7281653881072998e-01 -3.0678492784500122e-01</leafValues></_>
    <_>
      <internalNodes>
        0 -1 270101 -3.5085591953247786e-03</internalNodes>
      <leafValues>
        -3.6836171150207520e-01 5.9358316659927368e-01</leafValues></_></weakClassifiers></stage14>
</opencv_storage>
