<?xml version="1.0"?>
<opencv_storage>
<stage15>
  <maxWeakCount>8</maxWeakCount>
  <stageThreshold>-7.2409468889236450e-01</stageThreshold>
  <weakClassifiers>
    <_>
      <internalNodes>
        0 -1 69655 -9.8817974328994751e-02</internalNodes>
      <leafValues>
        9.3750000000000000e-01 -2.2277227044105530e-01</leafValues></_>
    <_>
      <internalNodes>
        0 -1 483255 -5.6812320835888386e-03</internalNodes>
      <leafValues>
        -5.4409891366958618e-01 3.2751241326332092e-01</leafValues></_>
    <_>
      <internalNodes>
        0 -1 299594 2.0003234385512769e-04</internalNodes>
      <leafValues>
        -4.1294312477111816e-01 3.9127165079116821e-01</leafValues></_>
    <_>
      <internalNodes>
        0 -1 311266 -1.4711800031363964e-04</internalNodes>
      <leafValues>
        4.1887548565864563e-01 -3.8506457209587097e-01</leafValues></_>
    <_>
      <internalNodes>
        0 -1 63141 -4.7232722863554955e-04</internalNodes>
      <leafValues>
        -7.6472693681716919e-01 2.4122615158557892e-01</leafValues></_>
    <_>
      <internalNodes>
        0 -1 215735 -5.7275746949017048e-03</internalNodes>
      <leafValues>
        7.2014600038528442e-01 -2.8866827487945557e-01</leafValues></_>
    <_>
      <internalNodes>
        0 -1 236537 -1.2303939461708069e-01</internalNodes>
      <leafValues>
        8.9478749036788940e-01 -1.1416163295507431e-01</leafValues></_>
    <_>
      <internalNodes>
        0 -1 483115 3.4678229130804539e-03</internalNodes>
      <leafValues>
        1.9844792783260345e-01 -8.8339442014694214e-01</leafValues></_></weakClassifiers></stage15>
</opencv_storage>
